<?xml version="1.0"?>
<MethodSetup Method="MLP::MLPBNN_EleTau_MZP600_MA0400_MDM100_nodes32_epoch500">
  <GeneralInfo>
    <Info name="TMVA Release" value="4.2.1 [262657]"/>
    <Info name="ROOT Release" value="6.06/01 [394753]"/>
    <Info name="Creator" value="jhoward"/>
    <Info name="Date" value="Sun May 14 19:25:59 2017"/>
    <Info name="Host" value="Linux vocms0301.cern.ch 2.6.32-642.11.1.el6.x86_64 #1 SMP Wed Nov 16 09:40:09 CET 2016 x86_64 x86_64 x86_64 GNU/Linux"/>
    <Info name="Dir" value="/uscms_data/d3/jhoward/WORKING_DIR/AprilProductionV1_8_0_26p1_V1/HonorsThesis2/ANNs"/>
    <Info name="Training events" value="44457"/>
    <Info name="TrainingTime" value="1.62897831e+04"/>
    <Info name="AnalysisType" value="Classification"/>
  </GeneralInfo>
  <Options>
    <Option name="NCycles" modified="Yes">500</Option>
    <Option name="HiddenLayers" modified="Yes">32</Option>
    <Option name="NeuronType" modified="Yes">tanh</Option>
    <Option name="RandomSeed" modified="No">1</Option>
    <Option name="EstimatorType" modified="No">CE</Option>
    <Option name="NeuronInputType" modified="No">sum</Option>
    <Option name="V" modified="Yes">False</Option>
    <Option name="VerbosityLevel" modified="No">Default</Option>
    <Option name="VarTransform" modified="Yes">N</Option>
    <Option name="H" modified="Yes">False</Option>
    <Option name="CreateMVAPdfs" modified="No">False</Option>
    <Option name="IgnoreNegWeightsInTraining" modified="No">False</Option>
    <Option name="TrainingMethod" modified="Yes">BFGS</Option>
    <Option name="LearningRate" modified="No">2.000000e-02</Option>
    <Option name="DecayRate" modified="No">1.000000e-02</Option>
    <Option name="TestRate" modified="Yes">5</Option>
    <Option name="EpochMonitoring" modified="No">False</Option>
    <Option name="Sampling" modified="No">1.000000e+00</Option>
    <Option name="SamplingEpoch" modified="No">1.000000e+00</Option>
    <Option name="SamplingImportance" modified="No">1.000000e+00</Option>
    <Option name="SamplingTraining" modified="No">True</Option>
    <Option name="SamplingTesting" modified="No">False</Option>
    <Option name="ResetStep" modified="No">50</Option>
    <Option name="Tau" modified="No">3.000000e+00</Option>
    <Option name="BPMode" modified="No">sequential</Option>
    <Option name="BatchSize" modified="No">-1</Option>
    <Option name="ConvergenceImprove" modified="No">1.000000e-30</Option>
    <Option name="ConvergenceTests" modified="No">-1</Option>
    <Option name="UseRegulator" modified="Yes">True</Option>
    <Option name="UpdateLimit" modified="No">10000</Option>
    <Option name="CalculateErrors" modified="No">False</Option>
    <Option name="WeightRange" modified="No">1.000000e+00</Option>
  </Options>
  <Variables NVar="10">
    <Variable VarIndex="0" Expression="read_pt_2" Label="read_pt_2" Title="read_pt_2" Unit="" Internal="read_pt_2" Type="F" Min="2.00000305e+01" Max="4.94087280e+02"/>
    <Variable VarIndex="1" Expression="read_mt_tot" Label="read_mt_tot" Title="read_mt_tot" Unit="" Internal="read_mt_tot" Type="F" Min="5.75891972e-01" Max="1.51702661e+03"/>
    <Variable VarIndex="2" Expression="read_pfmt_1" Label="read_pfmt_1" Title="read_pfmt_1" Unit="" Internal="read_pfmt_1" Type="F" Min="6.87666703e-03" Max="1.16240784e+03"/>
    <Variable VarIndex="3" Expression="read_pt_tt" Label="read_pt_tt" Title="read_pt_tt" Unit="" Internal="read_pt_tt" Type="F" Min="4.37714279e-01" Max="1.27621021e+03"/>
    <Variable VarIndex="4" Expression="read_met" Label="read_met" Title="read_met" Unit="" Internal="read_met" Type="F" Min="8.00000610e+01" Max="2.04653479e+03"/>
    <Variable VarIndex="5" Expression="read_P_chi_pf" Label="read_P_chi_pf" Title="read_P_chi_pf" Unit="" Internal="read_P_chi_pf" Type="F" Min="-6.63005371e+02" Max="2.04445496e+03"/>
    <Variable VarIndex="6" Expression="read_LPT" Label="read_LPT" Title="read_LPT" Unit="" Internal="read_LPT" Type="F" Min="0.00000000e+00" Max="6.45363721e+03"/>
    <Variable VarIndex="7" Expression="read_DeltaR_leg1_leg2" Label="read_DeltaR_leg1_leg2" Title="read_DeltaR_leg1_leg2" Unit="" Internal="read_DeltaR_leg1_leg2" Type="F" Min="3.11379731e-01" Max="5.31582451e+00"/>
    <Variable VarIndex="8" Expression="read_cos_DeltaPhi_leg1_leg2" Label="read_cos_DeltaPhi_leg1_leg2" Title="read_cos_DeltaPhi_leg1_leg2" Unit="" Internal="read_cos_DeltaPhi_leg1_leg2" Type="F" Min="-1.00000000e+00" Max="1.00000000e+00"/>
    <Variable VarIndex="9" Expression="read_cos_DeltaPhi_PFMET_Higgs" Label="read_cos_DeltaPhi_PFMET_Higgs" Title="read_cos_DeltaPhi_PFMET_Higgs" Unit="" Internal="read_cos_DeltaPhi_PFMET_Higgs" Type="F" Min="-1.00000000e+00" Max="1.00000000e+00"/>
  </Variables>
  <Spectators NSpec="10">
    <Spectator SpecIndex="0" Expression="read_ratio_weight" Label="read_ratio_weight" Title="read_ratio_weight" Unit="" Internal="read_ratio_weight" Type="F" Min="7.38068695e+01" Max="7.38068695e+01"/>
    <Spectator SpecIndex="1" Expression="read_final_weight" Label="read_final_weight" Title="read_final_weight" Unit="" Internal="read_final_weight" Type="F" Min="8.87809932e-08" Max="9.41909492e-01"/>
    <Spectator SpecIndex="2" Expression="read_npu" Label="read_npu" Title="read_npu" Unit="" Internal="read_npu" Type="F" Min="7.80702531e-01" Max="7.39444962e+01"/>
    <Spectator SpecIndex="3" Expression="read_event" Label="read_event" Title="read_event" Unit="" Internal="read_event" Type="F" Min="3.00000000e+00" Max="7.26124736e+08"/>
    <Spectator SpecIndex="4" Expression="read_randNum" Label="read_randNum" Title="read_randNum" Unit="" Internal="read_randNum" Type="F" Min="1.86986290e-06" Max="9.99086738e-01"/>
    <Spectator SpecIndex="5" Expression="read_DataCardInt" Label="read_DataCardInt" Title="read_DataCardInt" Unit="" Internal="read_DataCardInt" Type="F" Min="1.00000000e+00" Max="9.00000000e+00"/>
    <Spectator SpecIndex="6" Expression="read_IsZTT" Label="read_IsZTT" Title="read_IsZTT" Unit="" Internal="read_IsZTT" Type="F" Min="0.00000000e+00" Max="1.00000000e+00"/>
    <Spectator SpecIndex="7" Expression="read_IsZJ" Label="read_IsZJ" Title="read_IsZJ" Unit="" Internal="read_IsZJ" Type="F" Min="0.00000000e+00" Max="1.00000000e+00"/>
    <Spectator SpecIndex="8" Expression="read_IsZL" Label="read_IsZL" Title="read_IsZL" Unit="" Internal="read_IsZL" Type="F" Min="0.00000000e+00" Max="1.00000000e+00"/>
    <Spectator SpecIndex="9" Expression="read_IsTTT" Label="read_IsTTT" Title="read_IsTTT" Unit="" Internal="read_IsTTT" Type="F" Min="0.00000000e+00" Max="1.00000000e+00"/>
  </Spectators>
  <Classes NClass="2">
    <Class Name="Signal" Index="0"/>
    <Class Name="Background" Index="1"/>
  </Classes>
  <Transformations NTransformations="1">
    <Transform Name="Normalize">
      <Selection>
        <Input NInputs="10">
          <Input Type="Variable" Label="read_pt_2" Expression="read_pt_2"/>
          <Input Type="Variable" Label="read_mt_tot" Expression="read_mt_tot"/>
          <Input Type="Variable" Label="read_pfmt_1" Expression="read_pfmt_1"/>
          <Input Type="Variable" Label="read_pt_tt" Expression="read_pt_tt"/>
          <Input Type="Variable" Label="read_met" Expression="read_met"/>
          <Input Type="Variable" Label="read_P_chi_pf" Expression="read_P_chi_pf"/>
          <Input Type="Variable" Label="read_LPT" Expression="read_LPT"/>
          <Input Type="Variable" Label="read_DeltaR_leg1_leg2" Expression="read_DeltaR_leg1_leg2"/>
          <Input Type="Variable" Label="read_cos_DeltaPhi_leg1_leg2" Expression="read_cos_DeltaPhi_leg1_leg2"/>
          <Input Type="Variable" Label="read_cos_DeltaPhi_PFMET_Higgs" Expression="read_cos_DeltaPhi_PFMET_Higgs"/>
        </Input>
        <Output NOutputs="10">
          <Output Type="Variable" Label="read_pt_2" Expression="read_pt_2"/>
          <Output Type="Variable" Label="read_mt_tot" Expression="read_mt_tot"/>
          <Output Type="Variable" Label="read_pfmt_1" Expression="read_pfmt_1"/>
          <Output Type="Variable" Label="read_pt_tt" Expression="read_pt_tt"/>
          <Output Type="Variable" Label="read_met" Expression="read_met"/>
          <Output Type="Variable" Label="read_P_chi_pf" Expression="read_P_chi_pf"/>
          <Output Type="Variable" Label="read_LPT" Expression="read_LPT"/>
          <Output Type="Variable" Label="read_DeltaR_leg1_leg2" Expression="read_DeltaR_leg1_leg2"/>
          <Output Type="Variable" Label="read_cos_DeltaPhi_leg1_leg2" Expression="read_cos_DeltaPhi_leg1_leg2"/>
          <Output Type="Variable" Label="read_cos_DeltaPhi_PFMET_Higgs" Expression="read_cos_DeltaPhi_PFMET_Higgs"/>
        </Output>
      </Selection>
      <Class ClassIndex="0">
        <Ranges>
          <Range Index="0" Min="2.0070346832275391e+01" Max="4.3902435302734375e+02"/>
          <Range Index="1" Min="1.0959614753723145e+01" Max="1.0955996093750000e+03"/>
          <Range Index="2" Min="3.6745932102203369e+00" Max="7.2422143554687500e+02"/>
          <Range Index="3" Min="1.7049453735351562e+01" Max="5.4331304931640625e+02"/>
          <Range Index="4" Min="8.0116432189941406e+01" Max="1.3224350585937500e+03"/>
          <Range Index="5" Min="-5.6174090576171875e+02" Max="1.3177221679687500e+03"/>
          <Range Index="6" Min="0.0000000000000000e+00" Max="1.1798743896484375e+03"/>
          <Range Index="7" Min="3.7786206603050232e-01" Max="3.2238636016845703e+00"/>
          <Range Index="8" Min="-9.9999779462814331e-01" Max="9.9999928474426270e-01"/>
          <Range Index="9" Min="-1.0000000000000000e+00" Max="9.9999988079071045e-01"/>
        </Ranges>
      </Class>
      <Class ClassIndex="1">
        <Ranges>
          <Range Index="0" Min="2.0000030517578125e+01" Max="4.9408728027343750e+02"/>
          <Range Index="1" Min="5.7589197158813477e-01" Max="1.5170266113281250e+03"/>
          <Range Index="2" Min="6.8766670301556587e-03" Max="1.1624078369140625e+03"/>
          <Range Index="3" Min="4.3771427869796753e-01" Max="1.2762102050781250e+03"/>
          <Range Index="4" Min="8.0000061035156250e+01" Max="2.0465347900390625e+03"/>
          <Range Index="5" Min="-6.6300537109375000e+02" Max="2.0444549560546875e+03"/>
          <Range Index="6" Min="0.0000000000000000e+00" Max="6.4536372070312500e+03"/>
          <Range Index="7" Min="3.1137973070144653e-01" Max="5.3158245086669922e+00"/>
          <Range Index="8" Min="-1.0000000000000000e+00" Max="1.0000000000000000e+00"/>
          <Range Index="9" Min="-1.0000000000000000e+00" Max="1.0000000000000000e+00"/>
        </Ranges>
      </Class>
      <Class ClassIndex="2">
        <Ranges>
          <Range Index="0" Min="2.0000030517578125e+01" Max="4.9408728027343750e+02"/>
          <Range Index="1" Min="5.7589197158813477e-01" Max="1.5170266113281250e+03"/>
          <Range Index="2" Min="6.8766670301556587e-03" Max="1.1624078369140625e+03"/>
          <Range Index="3" Min="4.3771427869796753e-01" Max="1.2762102050781250e+03"/>
          <Range Index="4" Min="8.0000061035156250e+01" Max="2.0465347900390625e+03"/>
          <Range Index="5" Min="-6.6300537109375000e+02" Max="2.0444549560546875e+03"/>
          <Range Index="6" Min="0.0000000000000000e+00" Max="6.4536372070312500e+03"/>
          <Range Index="7" Min="3.1137973070144653e-01" Max="5.3158245086669922e+00"/>
          <Range Index="8" Min="-1.0000000000000000e+00" Max="1.0000000000000000e+00"/>
          <Range Index="9" Min="-1.0000000000000000e+00" Max="1.0000000000000000e+00"/>
        </Ranges>
      </Class>
    </Transform>
  </Transformations>
  <MVAPdfs/>
  <Weights>
    <Layout NLayers="3">
      <Layer Index="0" NNeurons="11">
        <Neuron NSynapses="32">
          -5.3281102411544357e-01 1.0195872918611082e+00 4.0062966223189955e-01 1.9123667200254628e+00 -9.9762600327991013e-01 -7.1845636803502777e-01 -1.3918448700313699e-01 1.2230542230090917e+00 -6.5107747152465167e-01 -7.5657886334732316e-01 -1.2648862740500078e+00 -3.9083268259319526e-01 -7.1741317316505948e-01 -1.4952166651868917e+00 -9.3397204555253133e-01 2.8236659611452330e-01 -9.6656942284429981e-01 8.4836961367277031e-01 -5.9355365365803803e-01 4.7665417932345105e-01 -1.7266269073268331e-01 -3.9759420967567916e-01 2.3960555382045831e-01 -1.0845924934680220e+00 -6.2446606869581855e-01 -6.5217585114684373e-01 7.6463609089333895e-01 -8.7242106788306217e-01 -1.3498964599582783e+00 5.4550593492908417e-01 -6.8650607281656145e-02 1.9951359972795888e+00 
        </Neuron>
        <Neuron NSynapses="32">
          -2.6380942590270784e-01 -2.3535521966322220e-02 4.0276702167091540e-02 8.4583053348971726e-01 -9.0036626848366541e-01 1.0627396714220072e+00 -8.0857812340665136e-01 8.1467273547827224e-01 6.9234741980383951e-01 2.8117662834271073e-01 8.3004443889658031e-01 5.1604094677552825e-01 -6.2193531296921045e-01 -3.3029424203629976e+00 -3.4235449537166379e-01 -1.9918306316928175e-02 3.9674566735934868e-03 8.5135783399370268e-01 1.4578418767643033e+00 6.6057462707620185e-01 -1.0152614438059004e+00 -7.0990239511555409e-03 -1.0737340398877380e+00 -2.3715066741841677e+00 -8.6429550057251969e-01 -1.3456939617731929e+00 9.6069277002283027e-01 9.9472453664116478e-01 -1.1676712916392165e+00 4.3119888135773382e-01 -5.7390068946649897e-01 2.2862569209099090e-01 
        </Neuron>
        <Neuron NSynapses="32">
          1.1093285269639688e+00 -8.6634466777663607e-02 5.0675907905824338e-02 -6.4126622912094380e-02 3.5451059624705356e-01 -3.8946611629792505e-01 -3.9895391154553078e-01 -6.1505652754701623e-01 3.2886074446922792e-01 3.5238141023231051e-01 6.3818772034068771e-01 -3.6937969142192134e-01 -1.0474922084644553e+00 -2.2528597162129889e+00 1.0231686635076227e-01 1.3452281456121229e-01 6.3366534482258818e-01 2.5720857459689278e-01 1.1570767366599179e+00 -5.1072022818373120e-01 -4.3837595005372043e-01 -6.7587785888416985e-01 6.1441939090287823e-01 -1.0648228705000600e+00 -8.0557676056131144e-01 -9.3256812563510505e-01 -4.4695293921138406e-02 4.8210120049410488e-01 9.3620895718805863e-01 -5.1592001751444849e-01 -6.1113556667156010e-01 4.6635703184424382e-01 
        </Neuron>
        <Neuron NSynapses="32">
          -5.0885251119591390e-01 -5.3989556656981785e-01 -6.2344698479636262e-01 3.2832942526645098e-01 -7.4117649699045796e-01 -6.4091771841281286e-01 1.8600542053787647e-01 6.5977521293768826e-01 -4.5631481062796136e-01 4.6727718853296812e-01 -7.2744069905705577e-01 -4.5759874079236340e-01 -1.9022687987679132e-01 -5.8759776795526630e-01 -1.0920894280003355e+00 5.7371686763674615e-02 -1.0920501257665016e-01 1.4434841338595059e-01 -2.5782449600215018e-01 7.1212160390209112e-01 1.1555962966350407e-01 -7.8221079544732830e-01 3.6095388271662093e-01 -1.0310760652599298e+00 -6.5909691508430235e-01 -1.4815781288855349e-02 -9.4906925176011625e-02 7.2597551090906209e-01 2.0408656169950207e-01 -2.2470363746578620e-01 -3.2759335331200795e-01 -1.6706600097387386e-01 
        </Neuron>
        <Neuron NSynapses="32">
          -1.0346563751838715e+00 5.9307590042252389e-01 4.2897736068951031e-02 -1.3387154395991179e+00 3.3575718992144943e-01 -6.9923132343293659e-01 3.7485697624997628e-02 6.0533327746534482e-01 9.5206711997702120e-01 -1.1720676451656094e+00 -9.8312829287479253e-02 5.2618872295163222e-01 5.8948639007064496e-01 -4.3164652367959527e-01 -8.2201840352880506e-01 -1.6415414569206982e-01 -1.0418742802591523e+00 6.8676200257145459e-01 8.8669406387279004e-01 -7.1094525919059237e-01 -2.2678400826893172e-01 6.6727031048301999e-01 -6.0494612705179462e-01 8.6313335178442940e-01 7.5147784750401803e-01 -2.7775660765879157e-01 -2.5122768893954284e-01 9.2201681030844540e-01 5.8705476407849644e-01 1.4191749466470693e-01 2.1133015854793277e-01 -2.2800876082576890e-01 
        </Neuron>
        <Neuron NSynapses="32">
          5.1881785674058334e-01 4.2809580440253814e-01 3.4604309716238291e-01 3.1396788344207754e-01 5.8388915554509857e-01 -3.0746816824841683e-01 -1.5744434445655875e-01 6.4430089702967219e-01 -4.7305972417879028e-01 -4.1888605446535254e-01 5.6781325308750952e-01 4.3344153484398562e-01 -3.7238662452373206e-01 6.8339234658823267e-01 1.2982571002828487e+00 -1.0387028784585899e+00 1.3775997248623970e-01 -4.9815871295295015e-02 -3.8418341925879834e-01 -1.0609018414463400e+00 -8.2678845694730074e-01 8.5850682839587755e-01 1.0476343367776417e+00 -1.2651055600461800e+00 -1.5065865135186102e-01 -4.0518754617554159e-01 1.5365615978721131e-01 7.3731482845092711e-01 -9.4709344133151505e-02 -3.6980772189151556e-01 -6.1954414635140731e-01 8.2513430642912799e-01 
        </Neuron>
        <Neuron NSynapses="32">
          8.0512656439684893e-01 7.9813210933690215e-01 4.2801473213864061e-01 -1.7123955416232512e+00 -1.2870094817800217e+00 7.3126977346947286e-01 3.2910775950272675e-01 -9.4920655484025818e-01 -3.1390871722984420e-01 -2.8026890389494727e-02 -3.0739168144694373e-01 -1.5986971752595136e+00 6.8312491714476398e-01 4.4188290324628721e+00 1.0208503238411400e-01 -2.0670306182222900e-01 3.4086951957258318e+00 6.0311630473203148e-01 -1.7000519122956526e-01 -1.3312004832564181e-01 -1.3382121242643052e+00 -1.8861811965468986e-01 1.1459330477720944e+00 3.2248996256928422e+00 4.1863640724793605e-01 4.1300626895926995e-01 1.3804780209960281e+00 -2.1031093293915935e+00 -4.1222932469681678e-01 -5.5635601973414583e-01 -1.0515779341414089e+00 5.6222177683716812e-01 
        </Neuron>
        <Neuron NSynapses="32">
          1.2684113524806029e+00 -6.1175608412681559e-01 5.8039621847028078e-01 3.0342345565623297e-01 -8.6825440937998322e-01 -5.8347981129905724e-01 6.1697969915929651e-01 3.2667660652812031e-01 4.8247582465425415e-01 -4.3939540341462291e-01 1.5518469694678463e+00 -8.9455947234161903e-01 3.0516166730375621e-01 -7.0460748574157361e-01 4.8969908404697343e-01 -7.2904562014600782e-01 -3.3108206537955214e+00 -2.5659343501766119e-01 -6.1679861996590879e-01 -1.1249367741479932e+00 -1.0135143615857038e+00 -5.2054297391341167e-02 -5.2261410157779387e-01 -1.9026098053192788e+00 7.1974183132680813e-01 -6.6678611919869935e-01 3.7475891475920696e-02 -7.3296056942757271e-01 1.0315664732581737e+00 2.5433917000032187e+00 5.6896784915644461e-01 -1.7299145158145053e+00 
        </Neuron>
        <Neuron NSynapses="32">
          -1.5428979501602369e-01 1.6764590554749277e-02 4.4674111948085619e-02 -1.8418266895340668e-01 -2.3949876904116291e-02 -6.5277462526762142e-03 3.4235101605008139e-01 -7.9027972550084841e-02 -1.0383154823200308e-01 -1.5386615666990022e-02 -1.6684457405206593e-01 1.9768811750319578e-02 7.4878811392366143e-02 4.2518061623228144e-03 -4.1639215210759889e-01 5.5116628810875062e-02 1.6516189413753102e-01 1.1598044327469548e-03 -3.4181581656855264e-01 2.6841130972091587e-01 -1.1024421211143177e-02 1.2394354954371956e-02 1.7027095903465128e-01 -3.0457516208909013e-01 1.9965523666312535e-03 -4.4915179187508744e-02 3.2736129974402020e-02 -3.7219233913527278e-01 -6.4395532800981792e-01 -1.8733003314162525e-01 -2.1332961671455923e-03 4.7334020863484727e-01 
        </Neuron>
        <Neuron NSynapses="32">
          -8.7132575960488701e-01 4.4695573568318342e-01 -4.0997861012405973e-01 3.2335106544560477e-01 -2.8735966340666896e-01 1.5236215140911619e-01 8.6003378754411697e-01 -6.3365950211524702e-01 -1.6717164043445473e-02 5.7537420918149652e-02 -8.6954496408735804e-01 -4.5495870685142936e-01 -6.6014566914022432e-01 -3.9930400431618090e-01 8.9949058132560522e-01 -5.0581531164621787e-02 -3.9119753810242441e-01 -3.4655446675264218e-01 -8.8753838062214174e-01 -7.0415740090522327e-01 -2.8370889149130518e-01 -9.8369701662281361e-01 6.4519137916263747e-01 -5.8922615259975175e-01 -3.7103031333882691e-01 2.6890776615673578e-01 7.3871778167204152e-02 3.4245106091133565e-01 3.0237625834752924e-01 -9.8925109930737432e-01 4.1797578408599523e-01 1.2976670307631353e+00 
        </Neuron>
        <Neuron NSynapses="32">
          -4.0170181757701906e-01 -5.4045062293544244e-01 -1.3119061499460707e-01 -4.3449973962468619e-01 2.2887763747904058e-01 1.0924727656114099e+00 5.4925763575201025e-01 7.9896566129082791e-01 -8.6078875909741825e-01 7.9712089133480069e-01 -8.2544166825655729e-01 6.0269161484084988e-01 -6.6329194685139437e-01 -3.1339612769948242e+00 -4.0396666102731033e-01 8.1199837329727920e-01 -6.3835174394407612e-01 6.9250081555687093e-01 6.9589266329844468e-01 -1.0736124859085365e-02 -3.7003558144158794e-01 4.5968062331680423e-02 1.0926330969965867e+00 -1.3997748647696506e+00 2.6894691043077396e-01 -7.4294888692450911e-01 -3.1369660790361059e-01 6.6786867547947848e-01 -2.5376703314607651e-01 -6.6136439197301555e-01 7.6166679613535770e-01 8.0529145252115264e-01 
        </Neuron>
      </Layer>
      <Layer Index="1" NNeurons="33">
        <Neuron NSynapses="1">
          -1.0572458391951531e+00 
        </Neuron>
        <Neuron NSynapses="1">
          2.3055944355612923e-01 
        </Neuron>
        <Neuron NSynapses="1">
          -1.9644036394056047e-01 
        </Neuron>
        <Neuron NSynapses="1">
          -2.6337786233435176e+00 
        </Neuron>
        <Neuron NSynapses="1">
          -1.4549072040018054e+00 
        </Neuron>
        <Neuron NSynapses="1">
          2.6717491889950890e-01 
        </Neuron>
        <Neuron NSynapses="1">
          -1.3441510902940597e+00 
        </Neuron>
        <Neuron NSynapses="1">
          -7.9759328038528909e-01 
        </Neuron>
        <Neuron NSynapses="1">
          4.6953532974345680e-01 
        </Neuron>
        <Neuron NSynapses="1">
          -1.2986630690666490e+00 
        </Neuron>
        <Neuron NSynapses="1">
          -1.3144539998441935e+00 
        </Neuron>
        <Neuron NSynapses="1">
          -9.9669172786492721e-01 
        </Neuron>
        <Neuron NSynapses="1">
          6.6092645337200906e-01 
        </Neuron>
        <Neuron NSynapses="1">
          -5.4503108046715898e+00 
        </Neuron>
        <Neuron NSynapses="1">
          -2.1242124352607079e+00 
        </Neuron>
        <Neuron NSynapses="1">
          -4.7511613314027318e-01 
        </Neuron>
        <Neuron NSynapses="1">
          -2.8399812329046492e+00 
        </Neuron>
        <Neuron NSynapses="1">
          -3.9188156881720804e-01 
        </Neuron>
        <Neuron NSynapses="1">
          2.3547206031439543e+00 
        </Neuron>
        <Neuron NSynapses="1">
          -1.1605019251875919e+00 
        </Neuron>
        <Neuron NSynapses="1">
          -1.1061889508897012e+00 
        </Neuron>
        <Neuron NSynapses="1">
          2.0278036787783709e+00 
        </Neuron>
        <Neuron NSynapses="1">
          -7.4097997380450709e-01 
        </Neuron>
        <Neuron NSynapses="1">
          4.7155330169874201e+00 
        </Neuron>
        <Neuron NSynapses="1">
          -1.2274555503542678e-01 
        </Neuron>
        <Neuron NSynapses="1">
          7.1200913358930773e-01 
        </Neuron>
        <Neuron NSynapses="1">
          1.3971564587340133e+00 
        </Neuron>
        <Neuron NSynapses="1">
          2.0529467916920106e+00 
        </Neuron>
        <Neuron NSynapses="1">
          -1.7541252376314080e+00 
        </Neuron>
        <Neuron NSynapses="1">
          -1.7555673168681425e+00 
        </Neuron>
        <Neuron NSynapses="1">
          -1.0794658115746603e+00 
        </Neuron>
        <Neuron NSynapses="1">
          3.2932662530137460e+00 
        </Neuron>
        <Neuron NSynapses="1">
          1.8995525851373005e-01 
        </Neuron>
      </Layer>
      <Layer Index="2" NNeurons="1">
        <Neuron NSynapses="0"/>
      </Layer>
    </Layout>
    <InverseHessian NElements="148225" NRows="385" NCols="385">
      <Row Index="0">
        3.2669398250545436e+02 -6.5772481060008317e+01 4.8438622609641038e+02 2.2705227104408165e+00 9.9615798234449784e+01 -2.5357210372179043e+02 -9.4795149998659056e+00 3.5808458658725666e+00 -5.9067049849820407e+01 -1.3548144761633299e+02 -5.1317048970760752e+01 -8.1254459029773784e+01 1.4086054211285081e+01 7.6152706601486742e-01 -2.0834795884019996e+00 1.2469600762136281e+02 -7.1215758770004217e-02 -1.7913709426142674e+01 1.0137174493398430e+01 -7.3216046415998459e+00 1.1055677042692497e+02 -9.5377373969919788e+00 -1.5736654456307647e+01 -4.2252456402596328e-01 1.8557760540314553e+02 -4.3115488802503492e+01 -1.8259849564446807e+02 1.7510755621032486e+00 9.4820211360420359e-01 -8.1540198360576301e+00 -6.9072049824591133e+01 -2.1626623301972923e+00 -3.1946438252053207e+02 3.7615805768864243e+02 -2.6211729295547229e+01 -6.9356558474321304e+00 1.2452005275463063e+02 5.2814273599225703e+02 3.7831172666303964e+01 -5.6514485960847672e+01 9.4320121473885322e+01 2.8584127841804269e+02 1.4998996814136476e+01 3.9695202889829693e+02 -1.1203184771614482e+02 6.7696688942044281e-02 1.5622714007311810e+01 -5.0069293314372823e+02 1.8369236004651741e+00 -9.8018724147360871e+01 -5.1844803547617406e+00 -3.4967394855937926e+00 -2.5395594597807985e+02 3.3103658151296202e+01 5.7641204331125891e+01 -1.0749961527004532e+00 2.6061884208465187e+02 4.4847070169905919e+01 4.1633076626597210e+02 -5.0419551266514908e+00 1.8165335980730712e+00 4.2977982059250039e+01 1.4779168621334247e+02 -2.1023489508477544e+00 2.1969533189049085e+02 -5.6295681644648369e+01 -2.8885364115120115e+02 7.6003592041514301e+00 3.0732510437269639e+01 3.8963908323711331e+02 -4.2871480036471695e+01 2.6653894934619391e+01 -2.8754635086386003e+01 5.3127411941978714e+01 -8.7567021774848129e+01 -2.9963278319108224e+02 8.1294972819066771e+01 1.1348504262574348e+00 -2.4790076887360981e+00 7.3931690041181582e+01 -5.9921183098628994e-01 6.0156969880266644e+01 -1.4996721736415937e+00 -1.0135129317732078e+01 1.6633864056099861e+02 -1.9616469656244803e+01 -6.6153213854045745e+01 2.9455736643552166e-01 1.4939286922076997e+02 -3.0955390113984905e+01 3.5582781818860582e+01 3.6068755693398877e+00 3.0079987566888704e+00 -4.1889551054107187e+01 -2.3909449656985311e+02 -1.2174889652749474e+00 -1.0531184256086883e+02 1.4564414322369751e+02 -1.4035105853424550e+01 -3.8014116610092685e-01 2.0820368517847903e+01 -4.3070544738700994e+02 2.2590814526717807e+01 7.5289371843981456e-01 2.5060824990210257e+01 -1.0193735524074954e+02 1.1098213786865730e+02 -9.3720987675667175e+01 -3.2853387242128832e+01 1.0331818201190557e-01 -6.5877483592224308e+00 1.9001753727910710e+01 -7.7918538808994442e-01 3.3774035501430058e+02 3.0942412223000835e+00 9.4730905451234690e+00 2.4054998043567977e+02 3.0858355300104292e+00 -7.1171966424470128e+00 -7.7468076888652160e-01 1.9403342638749407e+01 -3.4178526900750128e+01 -3.2576789405454292e+02 4.5000128943512543e+00 -5.8058187700494202e-01 7.3781069042599157e-01 -6.3033749833627695e+01 8.6252577225284210e-01 -2.9882524040482082e+01 -1.7998681252773775e+02 3.1366925341209435e+02 -6.9255973384319098e+00 2.4153980729629360e+01 -1.6892475763204561e+02 2.7404507810640048e+01 6.4888091116723203e+01 8.4289143755302291e+01 -1.6826566662014235e+02 -3.5168446854748794e+01 -2.1799436757925832e+02 1.7464505829460464e+01 -1.0546866593602036e+00 -2.2486523125544014e+01 -9.1602792246592955e+01 -4.2020680152094059e-01 2.9077305488344405e+02 7.8333733322228110e+00 -1.7114082719270840e+00 -4.7363572221380628e+02 -8.5330973052940031e+00 2.7285609453614825e+01 7.2786516525445233e-01 2.3875475284891962e+01 1.8922479719359075e+01 -2.0718728706100273e+02 3.6356978960192263e+00 -7.4722441848184875e+00 -7.8802476781062758e+00 4.7256753731332765e+01 -8.1381649024744540e-02 1.3922728855795927e+02 5.6448984167241042e+02 3.4028135871309007e+02 9.5946812235438337e+00 -1.6663192577544783e+02 3.9198794711424705e+02 -3.5904686899553589e+01 -5.7191415638986058e+01 -1.4005751823534001e+02 1.4528444724261416e+02 -7.5552156640427810e+01 4.8960656972184025e-01 -8.0432267903222137e+00 5.7430658122552758e-01 2.2630014378309511e+00 4.0571267645767063e+02 6.8690292901966865e-01 1.8084267618685283e+02 4.6311132152082646e+00 9.8912323376675850e+00 6.5364144684840596e+02 1.5936077921705246e+01 -8.9185083937529782e+01 -1.6729390939893354e-02 3.0511363260911816e+02 7.7113513566507251e+01 1.9383692199910732e+02 4.7609292793622089e+00 2.5415109277368018e+00 -3.8786888321074038e+01 -3.7786619267154208e+02 2.6009452279336487e-02 1.7235346910095819e+02 -4.4571630758629976e+02 4.8193525759713395e+01 -1.1645642151592259e+00 -2.0208136414111198e+02 -4.8427418669556494e+02 1.6075863780798919e+01 9.4363883285386407e-01 -1.1528135553892290e+02 -1.7125789509688616e+00 3.4585517604857429e+01 -1.1262760594428215e+02 -2.2230249787556943e+01 -9.3074270522640634e-01 -2.2292778680560845e+00 2.6718807968300808e+01 -9.7193344867246900e-01 -4.9422510423966486e+01 1.0528317137487019e+01 -5.9409534014016838e+00 -3.2671155321837438e+02 -7.4853504859106730e+00 -4.1747485552554821e+01 7.0216938939651641e-02 -1.9415696488937056e+02 4.0658766862911833e+01 2.5007248165592193e+02 -2.6614080999322693e+00 -4.4817058608166889e+00 -4.2147896062623872e+01 9.5848310465797979e+01 -2.2477707651082905e+00 -2.8956124629797543e+01 -5.1219428278155164e+01 3.0295127229747271e+02 8.0367167969869779e-01 1.0964265481949326e+02 -1.6480526001197680e+02 3.4489005912855824e+00 1.3471232179105086e+00 -4.5232462480504381e+01 -8.6114384782238858e+01 -2.4448829062047011e+01 -9.2836922680153975e+01 -2.7246179195140439e+00 -2.4858440176269214e-01 -2.9217959973447618e+00 1.9222927333571684e+02 -3.2077060604830621e-01 -1.8951931256544680e+02 1.3802005876870975e+00 4.7494925213622849e+00 -3.8307550552833379e+02 -6.5929808597315400e+00 -5.5246480729904448e+00 -3.0831881709278042e-01 5.5250067087176944e+01 -3.3576177721334076e+01 -2.1577280591466672e+02 4.5663269973884653e+00 -3.3716466220185271e+00 1.3621463540022228e+01 -5.5009869335608187e+01 -1.7419922773249248e+00 9.0405545777383196e+00 5.3616510315700239e+01 8.2465172879734979e+01 -1.0744951131479157e+00 9.4709306851525845e+00 -9.2613747927086010e-01 3.9627545722036852e+00 4.5828708732577961e-01 -1.9333028763395497e+01 3.2053342996736021e+01 -1.2654674644759514e+00 3.7368958858960049e+01 -9.6657253689104330e+00 -4.8985938359625038e-02 1.5517849935543393e+00 -3.7334045814828983e+01 -1.2984371060907404e-01 -3.5202570152933582e+01 6.5573923647050347e-01 -5.3585386406430491e-01 -1.8531851457207974e+01 1.9771026160007179e+00 4.1285845343206331e+00 -7.1423561529709204e-02 5.9965637609545077e+01 4.3625752342524504e-01 6.4124087501812170e+01 -2.5843687962800805e+00 6.9950381649620352e-01 -1.1264775154460138e+00 3.0017734607757539e+01 -6.5426193613254535e-01 1.4251195703466765e+01 1.5845854752366884e+01 -1.0030222341165083e+02 -1.0107961911017527e+00 2.7893071493643973e+01 -3.0626573300927851e+02 7.5571973381260928e+00 4.5078190472391437e+00 -1.1227841378138182e+01 6.5054107793532609e+01 -5.3175597996143154e-01 -4.6353671748939895e-02 6.3105934566020894e-01 1.7541707339607374e-01 1.1373796915019900e+00 -1.3733570261549703e+01 3.2756238078605093e-01 -5.9188351239287783e+01 5.2266559206275331e-01 -2.3660748401101417e-01 -9.6265227465900807e+01 -3.0826986124942408e+00 6.7614448145534078e+00 -3.5304471348955385e-01 8.9238276633717390e+01 3.0016685388769133e+01 -7.0007486693034537e+01 2.2368584111731221e-01 -7.0170509354106758e-01 -4.6148175937997976e-01 6.6527517041434280e+01 -1.0687782098548180e+00 3.3618422073431736e+02 -8.1317392782316347e+01 3.3763288129245626e+02 7.3993142020174862e-01 -6.9529069592653485e+01 2.5996136798582347e+02 3.3581465241248594e+01 2.1024149374934662e+01 -1.2845689550719180e+02 -8.6228608339447987e+01 -5.6461930785761567e+01 -5.5546698288439859e+02 -3.2533867595373934e+01 1.1627300855352551e-01 -2.1456736687682600e+01 -1.0579672825835701e+02 -9.1177755331332300e-01 2.6695187564318837e+02 2.7009895581825020e+01 -1.0285312747740647e+01 3.1472477640232455e+02 -6.8081256960104781e+00 -8.9256275597408774e+01 -9.5613147101982321e-01 3.4257672374937783e+02 6.3856905837808483e+01 -2.6307871494556366e+01 9.3451944119483983e+00 -7.0212875963277979e+00 -7.5145737060146132e+01 -2.4979321101523010e+02 -6.0677702473181014e+00 7.9373582884385755e+01 5.9099629033226975e+01 4.6055876645920648e+01 5.0722312744335847e+00 -6.8517403380884707e+02 -6.9425038107316936e+00 2.6222956263232042e+01 -1.8221237031161827e+01 -1.2072733206527190e+02 1.7306147005066225e+02 -1.9359959126393056e+02 4.7797685860700079e+02 3.1817047686497396e+01 -3.4481031553050259e+00 -2.1500509618582271e+00 -2.7386072528790419e+02 -4.8554965193231769e-01 4.8166444092242628e+01 9.7161028041605277e+00 -1.0068306436957476e+01 -3.6903571437722826e+02 -4.0819524711110120e+01 -1.9434998844818992e+01 -4.0291678371411948e+00 -8.9311967323624639e+00 -4.9215375838041496e+01 -4.8657270153438083e+02 -2.1115194759974955e+01 -8.5021127200146154e+00 4.0446939606490993e+01 1.2622854558487953e+02 3.5493279093571144e+00 6.3601748667799399e+01 
      </Row>
      <Row Index="1">
        -6.5772466365882650e+01 8.2834500780838334e+03 2.7702850724341079e+02 1.5407422507110889e+01 4.1915054909786608e+02 5.2466340734895120e+03 9.2036255439481153e+01 6.2407657039744947e+01 -6.8003166573956676e+01 1.9291825280975884e+03 5.0616561873479803e+01 -5.9727231048845215e+02 4.4692296326764520e+00 -1.9256781019207485e+00 -1.9449102244176821e+01 7.0518354594923926e+02 -9.9869123703393079e+00 -1.0685242531185895e+03 3.6794545621802719e+00 -5.2623611554230294e+00 2.1494355082318066e+01 3.4496813022653996e+01 1.7190484477684592e+01 -4.4721897246098052e-01 -5.1463908178106840e+02 -2.4385681516539748e+02 -1.5068700887751511e+03 -4.1304835819667517e+01 2.0237961321875218e+01 -3.2705520643278483e+00 -7.2665263160044262e+01 -1.9729501725356950e+00 3.3790563616876661e+01 5.4023045092433836e+02 -1.7898406362476089e+02 2.0590184270399071e+01 -1.7054888110593779e+03 -7.7220416045488655e+03 -1.2156117739433546e+02 4.9637318197632680e+00 -2.6559385304924967e+02 -8.4513946175902493e+02 -5.3120345318945780e+01 1.0207760771093167e+03 -3.1736821573592727e+02 7.7728367804819598e-01 7.1208073413624206e+01 -1.1188729875277111e+03 6.1617940939224525e-01 3.9989167761442292e+02 -4.0599412253927539e+01 -1.2596008403351746e+01 8.6796421657348128e+02 -9.4772224355837380e+01 -1.6733251389722233e+02 -6.1122480463550000e+00 8.1058471813635128e+02 -6.1340286916827415e+02 -5.3099684116500248e+03 1.1093594051602244e+02 -1.2965291523217097e+01 -1.0539340079134661e+01 -2.1023822849936091e+03 2.1437190183260114e+01 1.2155377450466257e+02 9.0228710590483547e+02 -9.1966013580467654e+02 1.0186292112653728e+01 1.2826051835489008e+02 2.8968589606130809e+02 -1.1870177200134691e+01 3.9358818069306004e+01 -8.3894339006669725e+01 -7.5039617302717875e+02 5.7504366964416782e+01 -2.8137589170876595e+01 -1.9910370166832877e+02 1.9263286939114443e+00 -1.7824764554361138e+01 6.7966556407248640e+02 2.3143364652647671e+00 8.4259102311915512e+02 3.0285591356131899e+01 4.6964335471516378e+01 -1.1012409614745170e+03 3.7054947532586027e+01 8.1680386212439970e+01 3.4429505459786123e+00 -3.5008390334807427e+02 -5.5973898492744115e+02 6.0548333714191642e+02 -3.7443969477125144e+01 -2.6143425170575593e+01 -2.6626731499347340e+01 1.7461324663814794e+03 -1.9351521796170799e+00 -1.7016215671907014e+02 -7.0760377849053375e+03 1.3780630836860557e+03 -1.9588259327961477e+01 1.4898382617915529e+03 2.2089305928887147e+03 2.5004606155400182e+01 -6.5007607009943911e+01 2.2798119530735593e+02 -5.5064696605743063e+02 -1.1615412362845365e+01 -7.4211443050787807e+02 7.8712766723440808e+00 3.7595856643654741e+00 -2.2350127287234937e+01 2.3613816616961762e+02 1.6775574777966327e+00 1.7258114512178718e+03 1.1266201605851506e+01 -2.6596716467981061e+01 -3.4728803928390556e+02 -1.3735453658518070e+01 1.4283847160810708e+01 -5.0009071929196516e+00 6.1305099000196867e+02 5.5987874721198386e+02 -6.5771232098780729e+02 2.0969097711423803e+01 2.2631949761420369e+01 2.2704840755779159e+01 -3.5787995647047029e+02 -8.2455597846517392e+00 -1.2249649660784534e+02 7.3134350844010578e+02 5.3413892598973962e+02 -1.1747548822196634e+01 5.9136792015978517e+02 -6.3173354240778599e+02 -9.1071220373674819e+01 1.5213712511439309e+02 -2.3893960360234701e+01 1.4688737942606770e+03 1.7419772587877162e+01 2.0800431772508489e+02 5.5562431828293325e+02 1.0338439443649206e-01 -8.0686641247483664e+01 1.4107011202472454e+03 3.0187112854039473e+00 -1.8451584503220255e+02 3.5055356404541484e+01 -3.3518516043650116e+01 -5.9248223370499136e+02 -1.0961377860903355e+01 1.4581258142280575e+01 -7.0227671166967136e+00 -2.0559500373520536e+03 -3.3937397398921757e+02 2.9678724289957991e+03 5.0031045182538506e+01 -2.3114843501043762e+01 -1.1078990383794700e+01 -2.3169147173547194e+03 -1.9591764486406955e+01 4.7389292414651095e+01 3.8788148654688671e+03 -5.8917865902999483e+02 2.1834683913402831e+01 -1.6064838999755561e+03 4.3747613373815057e+03 8.3651296474714854e+01 -4.4089557193784252e+01 5.1618543296074932e+01 4.5260046127249188e+02 7.4459407969162541e+01 6.7780531165568220e+02 -2.1067518078957391e+02 2.2853557032810117e+00 -2.2795620242497655e+01 -2.1216244515690223e+03 -1.9977365066378368e+00 5.8661078539905270e+02 8.3205660240134787e+00 5.7667989623688804e+01 4.5376569138669623e+02 6.8019946132901993e+01 2.3393649964147994e+02 -3.2598800985308580e+00 5.2333299170659609e+02 -8.0197222657704344e+02 2.2303637533568904e+03 3.2555626085656151e+00 2.9888814239561370e+00 7.4977684510036102e-01 7.3951556757795242e+02 -1.1422244238383572e+00 1.2305935794949494e+02 5.8846786675337498e+03 1.9605208143432114e+03 -4.2995367145599801e+01 -9.3026295270440323e+02 7.9027780902047070e+03 3.9778894789169215e+01 2.1887061227452102e+02 -3.3547018374029153e+02 -4.9170871617220286e+02 1.1445168963352145e+02 -8.6253387864106264e+02 4.1382289780573899e+02 1.5468158717201845e+00 -4.1997582550140557e+01 -2.1969272200793121e+03 -1.3073667897704195e+00 1.7763881468211150e+03 -7.6866018913199561e+00 -8.8237283304818277e+01 2.7315285615227999e+03 4.6475901166025373e+01 2.9177496875041243e+02 -3.3059994807238429e+00 -6.2402022839714618e+01 -7.6969884311019328e+01 -1.6574826216306751e+03 -2.9667242030922985e+01 2.6547134969636055e-01 1.9846096132725208e+01 4.0981872053006498e+02 -1.6204968160718998e+01 7.8536549353128237e+01 -6.5953449417365809e+03 -6.1358476195318235e+02 1.3747601831736489e-01 1.2696306216027733e+03 1.3283006700387105e+03 1.0876546105704014e+02 4.5967275688747243e+01 3.1868397082919040e+02 1.0759160067998321e+03 3.7227994935406215e+01 -1.1299827571415508e+03 -1.5399830651404179e+02 2.3209725692987040e+00 -3.8056303368561739e+00 -6.1826887568221969e+02 -1.0298445005191212e+01 1.1580944822945116e+03 1.7058136539592727e+01 3.5737010036849028e+01 -1.1317743850048237e+03 3.7710321098839657e+01 -9.1035922624637564e+01 -7.4832305852057663e+00 5.7615498512036152e+02 -2.2198199480709417e+02 -2.0472803441301799e+03 -1.4680725788086713e+01 -1.3348460655243530e+01 -7.8749177839900000e+00 -2.4086252201601405e+02 -5.0450622391569047e+00 -1.0355808357706120e+01 -5.9768488304851553e+02 3.9379153897694829e+02 2.0497454723658666e+00 2.1798637812030059e+00 -6.3936647451993633e+02 3.5387144550056263e+01 1.9763494734460235e+01 -6.7125730111485410e+01 -6.7277582733370792e+01 4.8568261848242731e+00 -1.2817381422677380e+02 -7.9563033712026217e+00 7.3700531139736503e-01 8.9106349210713418e+00 -4.5780282574410833e+01 1.2341253204222005e+00 -3.2950172495700622e+02 1.7255878782804490e+00 -1.5691268627270956e+01 -2.3784327370315216e+02 2.8301159848892361e+00 1.1229361431291801e+01 -1.6937141464871877e+00 -1.4583507755389318e+01 -3.3853337470940907e+01 -4.5331565758214811e+02 -1.8378685953918803e+00 1.2007689561655720e+01 1.9719455471496532e+00 3.6557957464343349e+02 1.7527550882396823e+00 -6.4220124155798615e+01 5.7948455286815024e+03 1.0625637851999795e+03 2.1326193077592226e+00 1.3843905622711057e+02 1.2250578801446594e+01 4.4090762843865519e+01 2.0244458126293861e+01 -1.2483332417055291e+02 -2.9563066476804164e+02 -4.0212740560293270e-01 -4.2588839403356246e+02 -5.1556765904486923e-01 -6.7756364173961858e-01 7.8029082535132392e+00 4.9644260249795039e+01 -6.1424129799173066e-01 -1.0251126936463972e+03 -3.5046017322847001e+00 2.1441221346323836e+01 -1.6178969055985809e+02 1.5600068585720891e+01 6.6409011305618051e+01 -5.1852908352166049e-01 -6.5120889053918711e+02 -3.7153032208600230e+01 -1.1007538496889149e+03 4.7612699808723198e+00 -8.0052070707433698e-01 5.4397440242191415e+00 4.7956819929714032e+02 2.8903285446014748e+00 -6.8745294115008846e+01 -1.3203876435571401e+03 3.8737268407080387e+03 -2.1720465349181381e+01 -6.4031770572163211e+01 7.6607953877375057e+03 4.4578595425704066e+01 3.6489004982408534e+02 -4.0963017356025875e+02 4.6043664595801602e+01 2.0347525264548722e+02 -2.1021703515272679e+02 3.4803467199320403e+02 7.4330030928524025e+00 -1.2360664094814932e+02 -1.2001361926034042e+03 -1.2209268931662983e+01 3.0732955033228704e+03 4.3015322205784088e+01 -8.7556908194329296e+01 -1.2592435380967415e+03 3.7020856101844743e+01 2.7950643350567157e+02 -1.9636883536063614e+01 -1.0716860776071069e+03 -1.2548250391027705e+03 -1.9326476955645317e+03 4.9721544178667244e+01 -1.8836982367998644e+01 -3.7312282092841076e+00 -2.8395718191441383e+03 -3.3875722176289230e+01 2.2810402521173577e+02 -4.4770992404784829e+03 -5.4509197101935479e+02 4.6333304592027808e+01 -4.5407102982809665e+03 1.1712951254630018e+03 1.9695481058872514e+02 -2.1044382467932337e+01 -3.6780048003333150e+01 -4.6829213680216581e+03 2.4809592449755769e+01 1.4263647142450072e+03 -2.1378562357210043e+02 -1.3794706928637483e+01 2.8057196800505153e+00 1.5702176714248685e+03 1.6560230779442538e+01 -5.9023838614405020e+02 -6.7301453149533700e+01 -8.8454893848279625e+01 5.1981319557245815e+03 1.0868579641522570e+02 2.3659763155068467e+02 -4.3400243627077188e+01 1.0385990630510281e+02 -9.0207389857150031e+02 5.9058150075044305e+03 -1.6985843383112666e+02 -7.9162269351548147e+01 -6.1500520212968013e+00 -5.7080775366682838e+02 -2.9043962642814677e+01 1.9559929936559713e+03 
      </Row>
      <Row Index="2">
        4.8438622301693772e+02 2.7702854478096776e+02 2.8248337538429878e+04 -5.4693843383538550e+00 -1.1221327868041426e+03 -7.4166976929994553e+02 -5.0837683120164860e+02 -1.0051606460751262e+02 -1.4524425716233170e+03 2.9568166291506964e+02 1.8188125434603853e+02 -1.1724897399240608e+03 -6.8397982685166176e+02 2.7441174717643646e+00 -1.8966728658278374e+01 3.1263325292313784e+03 -1.1428907041371712e+01 -3.3906144411311980e+03 -5.8728240343661724e+01 -1.4651473432567169e+01 1.9289924729661059e+03 -7.3297666876954892e+01 1.1295517758703591e+02 1.3632819439893424e+01 3.8789988997881147e+02 4.0058407959807829e+02 2.4679213024868604e+03 6.7415972261399446e+01 2.5313079203497509e+01 -9.3148094465380098e+01 4.0871896758790223e+02 -2.3694220589211064e+01 4.9314822942641933e+02 5.4761218851936910e+03 -2.0146824011353954e+04 3.7361237698977469e+01 -4.9658274911890958e+03 5.5463524759585671e+03 4.6132710286966358e+02 3.0449748090720107e+02 3.2416324981991693e+02 2.6038778692365786e+03 -5.4121635545133176e+02 2.1753799014738621e+02 -8.0458343625452142e+02 3.0396310042027856e+00 5.6204008175350964e+01 1.2445116838409003e+03 -1.1794842130087488e+01 8.4628742668498899e+02 1.1584133940536321e+02 1.0172607592746573e+02 -1.5060509330009804e+03 1.4435424235154952e+02 -2.4705445009921198e+02 6.7176355416966249e+00 9.2622881388394717e+02 4.4333846152582873e+02 -4.2148296484274642e+03 -2.0731512941818272e+02 2.7105064763752665e+01 2.5867979517411356e+02 2.2647067832245457e+03 6.5831822946349803e+00 -2.8554129121614835e+02 -2.4342764594785631e+03 4.8934704007253104e+03 -5.5930721494453039e+01 7.1235738963297331e+02 2.4217918816977567e+03 -4.3207464344185445e+02 -4.7365210307832591e+01 6.6977329821134435e+02 -2.7571898555620132e+03 1.3162869294618170e+02 7.4859681060102764e+02 -7.0374273118981444e+02 -1.3886727967084424e+01 -1.0209783603196151e+01 6.6021827253516562e+02 -1.3182614466395709e+01 2.5933079924703684e+03 -8.0946983276692748e+01 -1.4915755197479427e+01 5.5360789403911549e+03 -1.0708142010698008e+02 5.4507166030848202e+02 2.4121810546895922e+01 6.1611877880593156e+03 5.4625976672290938e+02 2.7135695982246189e+03 1.3046592577272802e+01 1.6984830469754456e+01 -2.6139578953196747e+02 -4.2872609379918422e+03 -4.2686044958642420e+01 -6.7030543221864002e+02 -3.5466521767959591e+02 -7.9601404458758261e+03 8.9061216314452345e+00 -1.0109794524361537e+03 -8.7245343896562508e+02 3.2191948110408509e+02 5.0072846564299164e+02 1.9382817129621114e+03 -9.3080673205784615e+02 4.1080078291332870e+02 2.4235297240061982e+01 -3.2051930413344053e+01 -5.7860080090855845e+00 -5.0360548626678252e+01 -3.1913970223024880e+03 1.3627153202181999e+01 3.7300382998789105e+03 -3.0610608998567983e+01 -1.1112715268625497e+02 2.1639125149138504e+03 1.4121049281551490e+02 -5.4298668978418959e+02 -1.9458562679658257e+01 8.6647060960428723e+02 -5.3410748849370486e+02 1.1325036267322621e+03 -3.9104801722910480e+01 -6.5131291208023555e+01 -8.5371413526755646e+01 -2.4925138093554955e+02 1.2414899010640291e+01 -3.8570318575005251e+02 -7.9263611025883620e+01 5.5178571148398441e+03 2.7219981971044788e+01 2.1011791853713984e+02 -7.8961106327969901e+03 1.6214651976727333e+02 -4.8156839003969253e+01 1.7784965030669632e+03 3.4549896398345941e+03 4.8581624780244738e+01 8.2697830734947775e+02 2.8643722136190729e+02 1.0178116555804655e+01 -3.2700390616296765e+01 -4.3826447244968040e+02 5.1943703246209338e-01 -4.4235784535948269e+03 -3.4103392405831869e+01 -2.6129144329349913e+01 -4.0442867332804590e+03 -3.3528284379937361e+00 -2.1460550186133631e+02 -1.8337871500406870e+01 -5.6224237460337799e+03 4.8843453004701047e+01 -5.2882488987910619e+02 2.6161745940837613e+02 -3.5813115481930282e+01 1.9326777111423667e+01 -6.8066127399875359e+02 1.3908874931577174e+01 -2.9219403372932334e+01 2.1636032338882751e+03 1.1244897602028814e+04 -6.6410072586545709e+01 2.1769648841568305e+03 2.2188490301848437e+03 -4.3949056145356997e+02 -2.3063086982151466e+02 -1.9109868236184714e+03 -1.7278872488224104e+03 -5.9881814285492396e+01 -1.8928313149726230e+03 -5.9153885732584456e+02 -1.7288089772476315e+01 3.2860969414228059e+01 -2.9191558677696662e+03 -9.3382297781330692e+00 5.6886734718628741e+03 -2.4788558042174309e+01 -6.2829769505037554e+01 2.8897225306690352e+03 -6.2456467196629937e+01 3.5496778710844808e+02 3.1065905047885426e+01 5.6833879343385115e+03 1.5386122702624780e+03 3.2375035956150591e+03 -3.0576277960815730e+01 8.2763251060794460e+01 -2.2268399910193011e+02 -4.0249928768333639e+03 -2.1992540745150233e+01 9.4233540293814610e+02 -1.1307495538682240e+03 7.4723390427703198e+03 1.3043576518548306e+01 -1.0556748991303168e+03 3.2369919350197288e+03 -3.5093387603599075e+02 -2.2730683112142304e+02 -4.1196275265824643e+03 -1.2102911318088018e+03 2.7038097017357074e+01 -3.6433769678758881e+02 2.2669166411513930e+02 2.6035511957636544e+01 5.1001511648394036e+01 9.0831003235878052e+02 2.9413570508673615e+01 -2.9748358051411992e+03 -1.7776057398162166e+01 -9.5627360083545867e+01 3.4417769982251148e+03 2.2368015590116840e+01 7.9327667658660744e+01 -4.8605907045112815e+00 -4.2772446329980485e+03 7.3683298693017116e+02 3.4995199853534527e+03 -3.5994991224602877e+01 6.4678941340215374e+01 -3.9093534164821409e+02 2.6580024457857799e+03 -2.3944279170494084e+01 -7.1723726403984529e+01 -2.7283647617398137e+03 5.1766007764474907e+03 3.9786469791844816e+01 -4.0455981185014861e+02 -2.6563237644077071e+02 -2.2768141564701938e+02 -1.8518776769847875e+02 -1.3887118518285988e+03 9.9940521470293334e+01 -1.2727720075872949e+02 -5.6629583755080080e+02 -8.4464568672161590e+01 1.3411852297742819e+01 1.6284048235086715e+01 -2.0066368695572100e+03 -2.1661142532701305e+01 -1.6030248741285809e+03 -3.7114418555972492e+01 5.1370990125248795e+01 9.1141009191165392e+02 1.5428345399772354e+00 1.5858030890632315e+02 6.6921235958357554e+00 -3.5363483376857730e+03 1.4662827982578904e+02 -3.4916238548958813e+02 1.2428440123120531e+01 4.4161330425302712e+00 5.2095804861695655e+01 8.6242378108404318e+02 8.8843849179736054e+00 6.8770131033541361e+01 3.9949241063531372e+02 2.0020618592951528e+03 1.1844760117041775e+00 1.4071088814723174e+01 1.0056140954167099e+03 -1.5473894189952842e+01 -1.3783215998739283e+02 -3.8453383963319550e+02 2.1706473634273539e+02 -1.1995041622246429e+01 1.5937443291065117e+02 4.2043396830587518e+01 2.3305933232865552e+00 2.5222955109194658e+01 4.9778800201874623e+02 -3.6827508784695562e+00 -3.1514868531662125e+02 -1.0538052776910016e+01 3.4051837516635204e+00 -5.3548241051568095e+02 -4.3448639875047244e+00 7.5707504172233484e+01 2.7268218463606559e+00 -2.4338390969313528e+02 -2.5820400831276558e+01 -4.6975650467411924e+01 -1.9860035616689022e+01 4.4920015297269975e+00 -6.8680217736603151e+00 -8.0074605330787065e+01 -3.3233416351818001e+00 1.3848993267068388e+02 2.1787084981296343e+03 -8.7792876874014728e+03 -1.7881064526988437e+00 -1.8199855878423439e+03 -4.3323618694859251e+03 3.4204237609896886e+01 2.7523286965454481e+01 1.5326096358446862e+03 7.9078544029463092e+02 6.1396421828551162e+00 8.7853596981372061e+02 -5.7216365721176459e+01 9.2878969849266557e-01 1.9940405346016956e+01 -1.6480729916744654e+03 -1.4478995001292017e+00 1.9071524738970029e+03 -6.9370314528119215e+00 1.3879133476918589e+01 2.2294853475132754e+03 -1.6750390895745308e+00 2.1114069091762713e+02 3.1424826828369392e+00 2.6216506929723569e+03 -2.6323755120908623e+02 -1.3693202904752814e+03 -2.8116024068885583e+01 -9.8141808773841372e+00 1.9908465039922135e+01 -1.7072392315921652e+03 -9.5205677742113917e+00 4.3068405503964374e+02 -5.1785547760723011e+02 1.7020621363587597e+04 1.5602670872357265e+01 -2.1379928099284571e+03 1.4065869513219895e+03 -5.8033545759028016e+02 8.1252243240785447e+01 -2.2015381316820394e+03 -2.2486509955114188e+03 2.3035064766812474e+02 -2.2289324787712567e+03 -1.4693434783169575e+03 2.0900928861941082e+01 2.3679576426806136e+01 3.1052665177705394e+03 -8.3148399660518635e+00 9.3143111846814463e+02 -1.4193388326158578e+02 -1.7610607835752396e+02 5.9586245009441191e+03 4.2802393654378790e+01 9.8371630914923571e+00 1.5925914443949409e+01 -4.3967251746021784e+03 1.7915872632699602e+03 3.3598216019936008e+03 3.5131356568444033e+01 7.6564237433155938e+01 -6.3282367476409104e+02 -5.9909261954655103e+03 -5.0052445124329765e+01 -1.5568922647613385e+02 -1.3961803252438565e+03 4.6817791685382708e+03 6.0889211414490894e+01 7.2919661212377478e+03 -2.5985009070550923e+03 -4.0387104455690405e+01 2.7043755323656819e+02 -1.5184741222342013e+03 -4.7548765415206035e+03 -6.6429211801018323e+02 5.7283643997334684e+02 -5.2546444236878278e+02 2.5993278197340434e+01 1.0052272677580220e+01 4.3189830108089445e+03 4.6289571355055863e+01 -9.9163992436554167e+02 7.9677602645631396e+01 -1.0451505507174269e+02 -2.4388700415375624e+03 -8.5125592225178593e+01 3.2487186620968379e+02 3.4340933856217873e+01 -8.9390062126245039e+02 2.6376021160389973e+02 1.0884544503404454e+03 -2.5021162630345012e+02 -5.6321695000112282e+00 2.1753478242466326e+02 4.1548547218946715e+03 6.8494264462176943e+01 -5.5089646654727749e+03 
      </Row>
      <Row Index="3">
        2.2705227610064038e+00 1.5407420916681087e+01 -5.4693837401528356e+00 7.7564342545370941e+00 4.3121077571976208e+01 2.0459222929221369e+01 8.5733274918270252e-01 -6.5867760957185872e+00 -5.9359354115185270e-01 2.5207333427244993e-01 -5.5992341805940349e+00 3.0577589904074003e+01 -5.5518162648934988e+00 -4.2202747418479993e-03 2.6457027695524293e-01 3.5459474379513459e+01 1.1655160390409394e-01 -6.0304609014781008e+00 1.0423830089613071e+00 1.0373017545440923e+00 -4.4323203059195244e+01 6.2997204045149435e-01 -3.4771882558974854e+00 -2.4018786345570045e-01 1.5498435197656207e+01 -7.5035520640841327e+00 1.2858015572862410e+01 -5.9882017063939852e-01 7.8095855806240577e-01 -3.8691090078283169e-03 1.4896293849588535e+01 -2.3041686230330760e-02 -2.5019854388615537e+00 3.1564442043598184e+01 -6.0098055266014214e+01 -2.4923806728412062e-01 5.9689952256566215e+01 -8.3513480555383637e+01 -1.1205374776016899e+00 2.2848476608589494e+00 -4.0480492982887952e+00 -1.6089263766753938e+01 1.0488263769608281e+01 4.6338819853284988e+01 -1.0485281368814068e+01 4.0260024037592412e-01 8.1248704115886450e-01 -9.8396741379743027e+00 3.9438040133546148e-01 -1.7266324916027273e+01 -2.5437512033475760e+00 2.1451678092218267e+00 2.3947668666875977e+01 -1.2363955397632767e+00 6.5207384334734853e-01 1.3763274305041973e-01 -2.4537556512973442e+01 -2.1153583670087919e+01 1.8240786739144699e+01 1.3527413173254894e+00 -1.1474528776483581e+00 -1.8581997077960004e+00 -1.0714389823457564e+02 -7.1785699478549736e-02 -3.4614210571918362e+00 1.2180981598573020e+01 6.0617829698625059e-01 3.5341474091560887e-01 -2.1214306636103053e+01 -9.3812271606563868e+00 2.7183308059289200e+00 -1.4537328061842600e+00 -2.3583209332339475e+01 1.6731073496241674e+01 -2.8942385879449639e+00 -4.8145088847155925e+01 1.9258480427710701e+01 -4.9822904577322047e-01 -2.9342218661832142e-01 2.0820237952122636e+01 -1.6701862474227319e-01 2.4462229646865232e+01 1.6830398190058027e+00 -2.0883700295356444e+00 -5.1540582856439151e+01 1.2428458577299367e-01 -1.4541669130767567e+00 5.3055632790951912e-01 -6.0741587310397030e+01 5.5897453222716100e+00 -1.7972557992937215e+01 1.4857984593783116e+00 9.0351882626763380e-01 1.4852462000420372e+00 8.9411319356579483e+01 1.0035593346686766e-01 8.4561200322873287e-01 -7.5408313935886362e-01 5.4778696975725452e+01 -7.7791061968008868e-01 5.5398846850716396e+01 -4.7741946116472107e+01 2.0237739428582677e+00 -3.8807344975445366e+00 1.4878923810881506e+01 1.5348424286897382e+01 -2.6202335026951671e+00 1.5904975139421969e+01 -2.0567509311453387e+00 1.5748395444828665e-03 -6.4342151541569048e-01 -1.8363919294312012e+01 -4.5186278795215390e-02 2.5468518581861183e+01 9.1761933014528518e-01 1.3822584558660536e+00 2.4192039932253402e+00 4.0456194021782649e-01 -4.5962010566664713e-03 -2.6528666997060191e-03 1.4793249339204444e+01 1.6302459048622184e+00 3.3866826096468856e+01 -6.2655781144566902e-01 -6.1778047334209496e-01 2.2547387103806216e-01 -4.0002541373459920e+01 1.6481487440983747e-01 7.6529619780445035e+00 -2.2343936869036352e+01 -4.2261176808986775e+01 -5.8845104684788838e+00 8.0198126257431621e+00 9.1781829459967867e+01 2.0254720774672803e+00 1.7316154806832162e-01 2.5080026585075688e+00 1.5006086239326672e+01 -1.7758218246807695e+00 2.2972942215706588e+01 7.3124918834110177e+00 -2.4505469941586169e-01 2.0327442842288290e-01 2.6430229924963804e+00 -2.4345029125752696e-01 5.1424379860585184e+01 4.8393998518459869e-01 -1.3024640231647324e+00 8.6228866025302722e+00 -1.4299801758020778e+00 6.0996233425649233e+00 -2.4563914368228351e-01 -4.1362918667499507e+01 5.8241114329187127e+00 -1.2207574385869393e+01 -1.7629985280821145e-01 -7.1032325078463354e-01 1.6222878038745363e+00 -3.3454482776471572e+01 9.2102801958228897e-02 -4.2815706175466115e+00 3.4332156629526285e+00 -1.2920833626103899e+01 2.7425423314197115e+00 -3.0320150258856909e+01 -1.2627163752563586e+01 6.7216640318577658e-01 -1.7120066337926843e+01 -7.9136510707415457e+00 -1.2778952877875158e+00 -1.2475186375028344e+00 -4.2969567007537506e+01 1.2374685640768499e+00 -3.9614830058351806e-02 -7.0835522039481735e-02 1.7355211215183349e+01 1.7613483421104825e-01 3.1082054882037276e+01 1.0389027833560693e+00 -6.9348375500111281e-01 -5.8053552319139726e+01 1.7964687706150189e+00 1.6927022341582432e-01 6.3067150637616720e-01 -4.7505225466305689e+01 1.0035079177858510e+01 1.4426892614653390e+01 7.4276941406550656e-01 1.9227126140760937e+00 2.6751818343169318e+00 4.8271683554487140e+01 3.9907048949642282e-01 -9.0063551845341490e+00 5.8440304028017188e+01 -4.7042887911484655e+01 -6.1238512450362670e+00 9.4004665220467771e+01 -8.8705912597977488e-01 -2.1306186570884353e+00 2.7897305648638442e+00 1.1577277600551628e+01 -7.2499449806686798e+00 6.6577191950037351e-01 6.3948933970077633e+00 1.3973887830312719e+01 1.6265166300499523e-01 1.5622171910161858e-01 -2.4205507207676572e+01 5.0534918155946174e-01 6.7141731194459666e+01 -1.1387192352298889e+00 9.2205269933775036e-01 6.8589590814206673e+01 3.5668718331023452e+00 -3.2002862052660133e+00 -1.1348423529926861e+00 -3.9077066980983005e+01 7.3807459698069398e+00 5.8636270431500037e+01 -2.2357352950217546e+00 -7.6306081615762178e-01 1.0933670568808074e-01 -2.2667636818935790e+01 1.1495989658194114e-01 -6.8514210320165425e-01 -4.9685320286379479e+01 -1.5592493209455892e+01 3.4665977483804578e-01 2.4930287623884837e+01 -8.3538798061229098e+00 -1.4664399575518803e+00 -1.1631038695976352e+00 6.9384938143125829e+00 1.1896259277080475e+01 2.4861964125509348e+00 1.7037939918352674e+01 -4.4873211100739088e+00 -2.9742590602087504e-02 3.7822128966877588e-01 -5.1878462379937105e+00 -1.4682123314426165e-01 6.7023866001899606e+00 -6.2285827161253571e-01 5.6884876754058178e-02 2.3589274315245746e+01 1.0742818789257282e+00 -7.3643368988114788e-01 1.3820823918841030e-01 4.7639921712454793e+01 -7.5620608059351717e+00 -3.5414163433755718e+01 -2.5506790143044300e-01 -4.3544594991243984e-01 -2.3748121664129807e-01 -3.5976248427965913e+00 -9.5940630540062632e-02 -1.4170013009659962e-02 -1.4158229897333740e+01 1.2970909467369132e+00 -9.1521392411063507e-01 1.2301298866008890e+00 -3.4901778001503150e+00 -3.4084204914522848e-01 5.4160569021300486e-01 2.9371434116005384e+00 -1.2487736997225525e+00 -1.2251524919635583e-02 1.8510932708307293e+00 1.5251653647193733e-02 1.7185754610434352e-03 2.2260629096614362e-01 -5.0112289825256386e+00 2.1403295655245722e-02 -4.4669512610691053e-01 -1.5179429337336317e-01 3.8112325059564195e-01 1.1494404060205444e+01 1.5316946429747369e-01 1.4991789884878576e-01 5.9502538523656279e-02 -1.3116252300622195e+01 -1.5043165931653419e+00 4.4516045815810052e+00 7.5497166237113264e-02 1.5263888562801690e-02 -7.2386867914388933e-02 -3.7907133537692324e+00 -2.5301147981202844e-02 2.1790682405044426e-01 4.5745962172004567e+01 1.6068219734859213e+01 1.4196169259727695e-01 -5.2740854110547031e-01 -4.1354744873734688e+01 -9.4579931694204844e-01 4.9990857689203434e+00 6.3839468007602731e+00 -6.0374794901949480e+00 -6.1527750311998863e-02 1.2251900020396751e+00 6.0635580859736455e+00 3.0293661503088931e-02 8.8408136391777581e-02 7.1619731379186078e+00 -1.0958087849325801e-02 -2.3583079895181964e+01 -3.6347387109844048e-01 -8.8228518273063417e-01 7.6264193642312996e+00 6.7768245295073737e-01 1.2657753482746688e+00 6.5629224308743433e-02 -2.9263663440078123e+00 -9.1479018985360605e-01 -1.9629010515259065e+01 3.9135988117612786e-01 -2.1723335573325955e-01 -9.6233988965817946e-02 1.7518869827233356e+01 7.9979392434872364e-03 -4.7867501470018654e+00 -9.8378026858296295e+00 -7.4678603606536171e+01 -4.4126239063633363e+00 8.7770111690811504e+01 8.2057440544957075e+01 3.4450375292871187e+00 -1.1982161669397350e+01 1.2091665955955190e+01 7.1156575609087671e+00 -2.7809263164415348e+00 7.9288860312592021e+01 1.5636465360146808e+01 -2.0227364213414786e-01 6.0667164344853952e-01 1.8514764592548374e+01 4.2225846500983988e-01 1.1181078067074404e+02 6.0112431711743652e-01 1.8549946228034160e+00 4.3056788894952618e+00 2.3126990740300193e+00 -9.3526785543418356e-01 -6.6528796732021522e-01 -9.6241636710413388e+01 7.0053705370619097e+00 7.6789959134566317e+00 -6.9976538526486753e-01 -6.0086049317281409e-01 2.8511251644949738e+00 -3.1630136956302550e+00 4.7743905215228066e-01 -9.6315635409100402e+00 -1.5926636490579561e+01 -1.1866742285879710e+01 2.3418061407387118e+01 -1.3325077125027420e+02 2.1194605125631298e+01 -3.3712518907973337e+00 -1.3140246235808846e+01 5.1776620548523766e+00 2.8978525757104023e-01 9.7461599101669076e+00 -3.2815435725232085e+01 4.7862284978811358e+00 7.7738092107721779e-01 -1.0889471380835065e+00 2.1613643919135814e+00 3.7499806850355633e-01 -2.7994240102206973e+00 -3.3809482520995005e-01 3.3235910142673664e+00 1.6751711048076295e+01 7.7188965595818928e+00 9.6843512439879031e-01 2.1702105812199948e+00 8.4337401047502372e+00 -7.6334175154149317e+00 -8.0309318481615065e+01 -2.0223304081337705e+00 -7.5588925651871175e-01 -4.3051255386433240e-01 -8.7833181681843868e+00 -3.0859356733451904e-01 3.0484535889261966e+01 
      </Row>
      <Row Index="4">
        9.9615800915359060e+01 4.1915017572821000e+02 -1.1221326750538965e+03 4.3121077104096436e+01 6.0077483328809767e+03 1.7183879665053939e+03 -5.4282292978157258e+00 -6.9945344038536618e+01 5.8394904728491201e+02 -2.8316767276669765e+01 -4.6879086160947843e+01 4.6404903145595199e+02 -2.4859051301396551e+02 -5.9334491671996437e-01 9.5225189944880562e+00 -2.6805083143343757e+02 -1.8326427307990731e+00 1.5364784809977557e+03 -1.7772611631129422e+01 4.0925953792497921e+01 1.7965107779805132e+03 -1.8407015617631956e+01 2.5638770750424669e+01 -5.7448624434943332e+00 1.6038534612268609e+02 4.8299563751482293e+02 2.9087866900583062e+03 -1.3023830879741249e+01 -1.1468770668182225e+01 -1.3511623671684276e+00 -5.8659359441845339e+01 7.8169516733196520e-01 -2.0927878508019833e+02 -2.5378549720072515e+03 9.6881095139924810e+01 2.4656830786999580e+00 1.8546975233632525e+03 -2.1041228908881808e+03 2.5251812777461242e+02 9.7652826315058164e+01 -1.0760608060887665e+02 -7.3682852122254747e+02 1.4194075703066628e+02 4.2670244686973110e+03 -1.6740878050753238e+02 7.3105779157767028e+00 -7.8169748141526432e+00 1.9318130392683352e+03 3.4181122218161768e+00 -2.1967632626979771e+03 7.0785048144987627e+01 -5.0595027811305036e+00 -6.3122689090094639e+02 -1.0792639327008935e+01 2.1206361807747305e+02 -1.0518464677594022e+01 -9.7157844723367396e+02 -1.0953637456116167e+03 -1.7920901286209141e+03 -1.1661867433528965e+01 -1.0328358990015772e+01 4.2806934892888115e+01 -1.5791506135633535e+03 1.1719225749804210e+00 6.2310926302210268e-01 -4.8732288893799648e+01 9.5460003865968008e+02 2.7673710736716335e+00 -1.5911007327441832e+03 3.5840506404500065e+03 -2.0218179833483706e+01 -2.4104454176118898e+02 -5.4715792501238036e+02 1.1011948352084632e+03 -4.3360569832606181e+01 -3.0550459167591680e+03 -2.2059440786474929e+02 -3.0167843560240071e+00 -1.4019164806075519e+01 -1.4800887359584610e+02 2.4080557701448315e+00 2.2120930716658381e+03 2.3770108256166669e+00 -3.1086184175267363e+01 -1.6279524547588215e+02 -6.4196398439363236e+01 -2.8423670404713590e+02 -3.3203051304851916e-01 -1.7661402354763779e+03 1.4718925091582696e+03 4.9947959139735549e+03 -2.2745020099219353e+01 1.3032271845055391e+01 -5.0719573418669185e+01 1.7734214204070049e+03 -4.6990553666240462e+00 -2.6903668475938488e+01 7.2311307849764353e+02 -1.3165194952492845e+03 -1.2148810584593367e+01 4.6420588479424641e+03 -1.7671977244692877e+02 -8.9441504872702666e+01 -8.0183115760368082e+00 3.3485172020192749e+02 5.3746793224080045e+02 3.1736250028562245e+00 2.0527623874080308e+02 2.0037674523050165e+02 5.0925432511777933e+00 7.8274637441331478e+00 -2.3301469467635431e+02 1.5841573328978953e-01 -9.0363345076406901e+01 1.5623571618499144e-02 4.9716789697693336e+01 -5.8289867263172573e+02 6.6870631187346490e+01 7.6756206167775247e+01 1.2176511191391812e+00 -3.6927933948732209e+02 -2.8800918788095231e+02 -1.0018685468828809e+04 1.8041260624378047e+01 2.2668398910535537e-01 2.8411298334673361e+01 -6.6337459303727758e+02 1.6336270965789392e+00 1.7874971781732904e+02 2.5460628503501857e+03 1.1773193205668977e+03 -3.1042946638483894e+01 -1.0211001164909441e+03 1.1006964854317623e+03 -2.0058586845831127e+02 6.0336648441125817e+01 -7.9582306577321299e+02 -6.8594369093694775e+02 -2.1050091809393393e+01 2.1122446918456844e+03 9.8369528075940948e+01 -3.0823418242392191e+00 2.4642109160754188e+01 -1.0389806871533578e+03 -2.1543289800769645e+00 2.1130645915158111e+03 1.3526313492493317e+01 -1.0658582354780998e+01 1.5060063322327318e+02 -1.7286324379929674e-01 7.0101127014727041e+01 9.4048283189007655e+00 1.9753184007828083e+03 6.1349697384884882e+02 2.8445738324834283e+03 -4.1860497723287587e+01 3.9230052778276097e+00 -1.2445637491907071e+00 1.6074152838385955e+03 1.3229936324125655e+01 2.9432035570308940e+01 -1.5189977486515602e+02 3.3961465439626909e+02 8.0347383842541156e+00 -4.1364146474140689e+03 -2.8743543385003791e+03 9.4439320037764304e+01 -5.0138114085927373e+02 6.3701709731371906e+01 7.4226228173892980e+02 9.1313467863989715e+00 -5.9106563710187106e+02 -3.4695544954821071e+02 -1.3565678095457929e+00 1.9639739979596520e+00 6.8598098297551417e+02 -1.1546397384632998e+00 8.7034365000409150e+02 -5.5926706247486120e+00 -9.4076782144530355e+00 3.1638818542418164e+02 -9.7597269323778647e+01 -1.4479854488630653e+02 -1.1800500363174789e+01 -8.0624569269053268e+02 1.3165580606599981e+03 8.0213550210804497e+03 -5.3570341780937625e+00 1.8248946892923062e+01 -4.2493312968693282e+01 2.5175307578037750e+03 -4.1872356833232418e+00 -3.1832350096118546e+02 -3.0141095843731949e+02 -2.9396721451891835e+03 -9.3986703063411909e+01 -1.6711318521030589e+03 5.2578219040256408e+02 2.6447824094475550e+02 1.9983755940526754e+02 7.8231891467423225e+02 9.8759461687982210e+01 5.9667069722728954e+01 -2.3381359210387996e+03 6.2763727566956368e+02 1.1111684129979835e+00 6.0109277437783142e+00 4.9376622816339136e+02 -1.1791069248215997e+01 1.3172643144255135e+03 3.0913977160026633e+01 5.7006007020152907e+01 -1.9863299603541060e+02 8.9090882077063583e+01 7.0785390498325711e+01 5.4781711478592854e+00 2.0849989849687785e+02 -5.8426916119810971e+02 -1.4466980156367458e+03 9.9640956145198256e+00 4.4394600162964304e+00 7.3778037887768058e+00 -2.9146997937196461e+03 2.6620438754390019e+00 -9.5822640801615904e+01 -1.5715046898211654e+02 -9.0052525306854761e+01 -2.1398733100156200e+01 4.6603936342960997e+03 -3.9916527023708085e+02 -5.8677755157429296e+01 8.9137725287640652e+00 3.1130318555755821e+02 2.5924578442115580e+02 6.6389018829872896e+01 -2.3019300190772708e+02 7.4208403123245461e+01 1.0217307084763638e+00 1.6496648087087767e+01 2.1957197430146903e+02 -3.3757502057633992e+00 -3.8357935151309380e+02 -4.8495673202414800e+00 1.8446810581219495e+00 5.4875268628954393e+02 1.1828197705335235e+01 6.6781732390555263e+01 -5.5280264207027097e+00 2.6927752542263688e+03 -1.2478162454205888e+02 -1.0008626462706483e+04 -1.5053263954424665e+01 1.0540605466975437e+01 2.7324141900890346e+01 -2.2326185425835902e+03 -3.2940716119533215e+00 -4.3712790081898243e+00 2.0548736154159997e+01 -4.6517970273000299e+02 -7.4476784374808398e+00 2.5901579818746268e+02 1.4756929955868259e+02 -1.1035223031660339e+01 -1.2332722385310822e+01 5.7854279691291364e+00 -7.8397396178389158e+01 5.0457903670521613e+00 9.1800917589429815e+01 2.1486784631699987e+01 6.2645399938288204e-01 8.5673981951186318e-01 1.1858704314759402e+01 -7.3856962584209185e-01 -5.0200807945762534e+02 -3.0810665815487361e+00 -4.5786314314790960e-01 -8.4815404733337459e+01 1.3009052352978932e+01 1.9632016859015529e+01 -6.1077478457531320e-01 -1.5658604641622819e+02 -1.6869391680240369e+01 -9.9326314220093502e+02 8.8286540454945450e-01 -4.6740382453361837e+00 -1.7017264224122013e+00 -1.6631388286028562e+02 -1.6347399272417792e-01 4.2083515079580380e+01 1.3645810113251107e+03 -9.9909553757182789e+02 -1.2710609473500705e+00 1.9651685057420520e+03 2.2778988720714965e+03 -1.4263594627322231e+01 4.4618621251246196e+01 -1.6268309126663195e+02 9.2943708180889288e+01 -1.8806079360144281e+01 -9.8390540521190519e+02 7.6132053193546980e+00 1.4222887436878573e-01 -3.2701488395461817e+00 2.5986754672148720e+02 3.5344534413616574e-01 -4.9535672100414232e+01 -8.2147013752762330e+00 -1.9641218663355289e+01 -1.9198520010968454e+02 4.2763985822989703e+01 3.7654456984308126e+01 -5.7345069490332723e-01 -1.0048296471003290e+03 -2.0118045939057188e+02 4.2464504475092065e+02 -1.1230670743454423e+00 3.4721898115389132e+00 -2.9100860568206852e+00 -1.0852468037823169e+03 7.6203826233305294e-02 -2.0544805236638922e+02 -6.0599315460296339e+01 -3.3604886064395032e+03 -9.3266056056006562e+01 -2.2429323176133639e+03 -9.5559088602640986e+03 1.7535584104696383e+02 -1.4878278254957746e+02 5.7608971350537126e+02 8.1048166630159096e+02 8.0395099587552593e+01 2.4788326561864460e+03 8.4028061148432243e+01 4.7920156536934941e+00 3.1307375627304367e+01 1.2194486294070921e+03 -1.2633092527080944e+01 4.4829067536032353e+03 6.9905610070102796e+01 1.0240371538646978e+02 -7.5350822859313121e+02 -4.2253972656055510e+00 9.9357930289813453e+01 -5.8272361888324724e+00 1.9132454538102966e+03 8.5032636673572927e+02 -5.1063062055481641e+03 -6.2807252260860082e+01 1.5193410555140474e+01 7.6455606840204382e-01 -3.1260357694880659e+03 1.0864072446374347e+01 -2.3716377197820412e+02 -1.1295856384921476e+03 4.9808980167257687e+02 1.8249438840311925e+02 -2.5027995042553259e+04 -4.5872274529315946e+03 -2.9409549871391431e+02 -1.0052280786010294e+02 5.0939122078630203e+02 9.5240638955294548e+02 1.1113843994201795e+02 3.9246988639951301e+03 -4.4451134812027431e+02 -6.4969487935328347e+00 -1.1512494688952529e+01 -7.8043327838991900e+02 -2.5069757425489128e+00 9.1061940863439031e+02 -1.3664415455417088e+02 7.1534120482727801e+01 2.8261724375086906e+03 3.3726587790676695e+02 1.9651962541260559e+00 -2.4257250315453366e+01 4.7416790146680751e+02 3.4424550256420480e+02 -1.5470209302663243e+04 6.4181849370326688e+01 3.8909073414221417e+01 5.7027192733919584e+01 7.7954454026310577e+02 -1.0682883401856088e+01 6.4146587797567645e+03 
      </Row>
      <Row Index="5">
        -2.5357205868608037e+02 5.2466339824784809e+03 -7.4166985489786020e+02 2.0459225397310643e+01 1.7183888100742008e+03 5.1225697891065007e+04 8.3621405943654054e+01 1.9576914086607215e+02 -1.5153360266602842e+03 5.3030254610405327e+03 2.5772404331898997e+02 1.1339818417460947e+03 2.1917961167313007e+02 -1.3153450411139874e+01 5.0105818114440346e+01 -2.4093027943011361e+02 -2.2271669481715215e+01 1.3742212576817915e+03 5.9889290695414779e+01 2.6803943681053120e+01 -7.5388547648953568e+02 6.9132270783576502e+00 -1.3487488988545400e+02 2.4817580721828588e+01 -2.5042054645935737e+03 4.0309742575117730e+02 1.3747744633550928e+03 6.1248232005290596e+01 -1.2442355861203012e+01 -6.8382173601320744e+01 -3.6509417359840304e+03 5.5248312036106650e+00 4.4377852004444958e+02 -2.5847765761831379e+03 1.1530810587804781e+03 7.8211624321849513e+01 -2.3037811778746091e+03 -5.5163207850131846e+04 -1.4230554652870606e+02 4.1622144547314349e+02 2.6145936059789628e+03 -3.4815031316151972e+03 -4.4664786708209510e+02 -1.0601723123875236e+03 -6.6094369896748816e+01 1.7772791493681080e+01 1.7784509386906876e+02 1.0534140141108988e+04 3.6307595406802875e+00 -3.9373448986394251e+03 -2.0827422315831478e+02 2.9999907664301838e+02 7.9337746097083809e+03 -2.5607651160837293e+01 -1.4746004367830301e+02 -1.0171530511997814e+02 1.0334813601062831e+04 -1.9582507912594494e+03 -6.9852048384582949e+03 -1.3502774636723740e+02 -5.5440619998361512e+01 6.3021306007795218e+01 -2.1434598222343939e+03 3.9870805743901997e+01 -4.2308368802870700e+02 2.0740443436460482e+03 -1.6986191777452746e+02 5.8568418965269501e+01 2.5559910996405306e+03 2.3244454262714949e+04 1.6383669088183018e+02 -4.1143573308904502e+02 -1.2320124033322591e+03 3.1769178253629525e+02 4.9044567908970248e+02 2.3264493779796740e+03 1.5074031804896987e+02 2.9610606269489228e+00 -1.2619241895371378e+01 -3.0334582301311330e+03 -2.6706362190800315e+00 1.8507459843112706e+03 1.3140832453145489e+02 -4.5894703073221876e+01 -5.9749070631250072e+02 1.1170835356001513e+02 1.6130711942963671e+01 1.8588895435729285e+01 -3.2087396007305292e+03 4.6654400902938050e+02 1.7410089685803164e+03 -2.5559824996753406e+01 -4.2031043066724230e+01 -1.2693975330615435e+01 1.4823106956547433e+03 2.8087815506366898e+00 9.1156748523273535e+01 -4.6882268295962231e+03 -4.2062718341913624e+03 -4.5259448996427686e+01 -1.0340074165441069e+03 2.2716085501901991e+04 -1.0352699849064760e+02 -3.3696417594667781e+02 -1.8799637975695955e+03 -4.8527673862780210e+02 -1.8823530735462660e+02 -7.0754011071138507e+02 9.5539231748599263e+01 -1.2699400469237294e+00 -7.6237136094435257e+01 -6.4787570175048550e+03 1.5342610388331074e+01 -2.7948748796436109e+02 9.1359249023562370e+00 -1.6173937883007909e+02 -2.1781148907130059e+03 2.3775863699645981e+01 5.1056858510678330e+02 1.8757352849984881e+00 -3.7212420443700366e+03 1.1036985291950305e+03 -6.9847011022310726e+03 -8.4330119631182839e+01 3.2595380783346847e+01 4.5278957488372761e+01 9.2939760500311718e+02 -1.4647348095034774e+01 -1.0935942702322984e+02 3.0079852047069371e+03 2.3652843162303470e+03 -1.1110300631149761e+02 -4.0778012818392444e+03 3.2661963447816204e+04 -8.5731032324980561e+01 -5.6777045276985518e+00 -8.2417020583337955e+02 3.4024510913126815e+03 -2.4124904326519905e+02 7.2874828300534841e+02 4.5529542360224369e+01 9.6414839409809350e-01 -1.5864384556479934e+01 1.7343386167249519e+03 1.2281846265869632e+01 3.5066954776511147e+02 -6.7540985100917226e+00 -2.4650483585951883e+02 -3.2866508725040103e+03 -9.8381565876001645e+01 1.7096070554817493e+02 3.3752324872668524e+01 -4.7853078982107209e+03 1.1903329052639654e+03 -1.1914471202535415e+03 -1.0827639869767722e+00 5.3253002125789664e+01 -5.8020372555221201e+01 -1.2849618182996965e+03 -2.3955505786937195e+01 -5.5104559791034740e+02 9.5890686310419960e+02 1.9262248585192297e+03 1.0842564356546818e+02 3.3783368504659616e+03 1.1478154020199469e+04 3.4856810647313699e+02 -1.8732932430286996e+02 9.7340742973022805e+02 1.7600152822035118e+03 3.1147490132506789e+02 1.6284840880554107e+03 2.1363402124345174e+02 -1.7571075487309550e+01 -5.9364977851591604e+01 -7.0531479483599451e+03 -3.5197855941609241e+01 7.5335087598676228e+02 1.3729706295889531e+02 4.6662401183535096e+01 2.8890005437077848e+03 2.2340463447155847e+02 1.3280892348452772e+02 4.0893066548195911e-01 8.7847157941096475e+02 3.5370088170531893e+01 5.8957643000433163e+03 -1.0577717543308967e+02 -2.0255343149423624e+01 -3.2909006542220265e+00 2.1515950192179043e+03 1.4169695218146952e+01 -8.7465187506459927e+01 7.1863375729459040e+03 1.3817712935459854e+03 -7.1681626473116637e+01 -3.0790711868962389e+03 -3.0851476963739111e+04 6.8214048565897187e+01 3.8440532697392769e+01 2.0076940478235090e+03 -9.2130793900681056e+01 3.4218344606196592e+02 1.0317013144083621e+03 3.7486203641259397e+02 -6.6225187755494233e+00 7.1968870616254208e+01 4.3465741007774495e+03 -1.8528859595305349e+01 1.1157739876493908e+03 1.4836898686813711e+01 1.5842607817789548e+02 7.8897065676338730e+02 6.4237824453387404e+01 -2.8776912297019226e+02 -1.3375127431289258e+01 5.6560913213852891e+03 -1.6242654575497775e+03 -5.8155861748391417e+03 8.0010055616649097e+01 1.7844153939072143e+01 9.7415661907478153e+01 -2.6655620984252769e+03 3.4013863490971715e+01 -2.7116623314365717e+02 -2.0987909414785290e+03 -4.5744186887151973e+03 1.5233304508384609e+01 2.0554554154665193e+03 3.0308352739678121e+04 1.0185161154297737e+02 6.5830435985513418e+01 6.3722879270572810e+02 1.6735590842474535e+03 9.4575378645627410e+01 -2.1979162829517657e+02 1.8856094405491717e+02 -7.5236972306139611e+00 -7.2251034389449229e+00 -1.2774530066182638e+03 1.6056331800367929e+01 3.3071158335734644e+03 2.3637487819631076e+01 -5.2795536620066827e+01 -2.9804734758013569e+03 2.0083497871107980e+01 -8.1688835949442563e+01 -1.4762476376338213e+01 -7.0330900159541034e+02 -7.2673375869301879e+01 1.3303931353978965e+03 2.1060191346549640e+01 1.5216672939517803e+01 -5.3457730141180306e+01 -1.7912921917423992e+03 1.1463388590495137e+01 -1.4319838782232598e+01 -3.6492272331856657e+02 -1.8520153522356037e+02 1.5951879466949627e+01 7.7201946355094196e+02 2.1934654373629483e+03 -4.9900255372448257e+00 4.9741294022656476e+01 -6.0962023320522206e+01 -8.3110408131424151e+01 7.4873430472016684e+00 -2.5333383780924288e+02 1.2260618032078685e+02 -6.9803631610820338e-01 1.2108785020817484e+01 3.6485335281964399e+02 1.8032289341545364e+00 7.7302248513671384e+02 -6.4085072956498514e+00 2.1816416822672462e+01 1.3068712497590341e+03 -4.7314114992012524e+00 -3.7715745791422329e+01 -9.0787693026822982e+00 1.6341853874052023e+02 -6.2207254977391131e+01 7.8232513859195865e+02 2.2233572970190274e+01 -4.6283493874829267e+00 9.9635347744164999e+00 -9.5063499015315358e+01 5.9634616209546953e+00 2.8474202697972775e+01 3.2874905142004422e+03 1.6379949819568383e+03 9.7555347148859024e+00 3.7971339324515299e+02 -2.2742939105920650e+03 1.1593509949904188e+00 -4.4221119708586230e+01 2.3126017715638102e+02 -1.1588436382878568e+02 -4.4050536911070530e+01 -3.4585725019040734e+02 -2.7734035377199760e+01 2.8428569896926037e+00 -9.5672151540528478e+00 5.2404891883381526e+02 2.2159872855294815e+00 6.1527621342320927e+01 -1.3062147085717132e+01 7.7014669593274476e+00 1.5339858310083782e+03 3.5945764389916498e+01 -3.0731535469974915e+01 -1.5200909312199817e+01 -2.4907786668768389e+02 1.9801009444638299e+02 2.3184726837343342e+03 -1.3987329350735754e+01 -7.2141957249328978e+00 1.0234439966300812e+01 -1.2813124948300597e+03 8.3939880489077350e+00 -6.9957445916868255e+02 4.6971606229268273e+03 2.4777446665622301e+03 -3.7009866471111224e+01 -3.6060417987192991e+03 4.8535636229075637e+04 1.9307998513841630e+02 -2.5716138243275162e+02 4.9571323137760760e+02 3.1951218374875921e+03 3.6748796076085625e+02 3.7485788747901902e+03 9.3720428294705448e+02 -1.3027656339830539e+01 1.0372837545534077e+02 1.1896176410719163e+03 -1.9515028059075135e+01 4.2189793915429709e+03 9.3706716921226743e+01 1.6359900559167102e+01 7.3833512617005108e+03 1.7694464693242389e+02 1.3168117678878863e+02 -2.6331522417584281e+01 2.2584770531550921e+03 -1.3147336499534777e+02 -6.9061174894196374e+03 -1.0988241790442439e+02 7.7247802097338081e-01 4.9856684084914860e+01 -1.0054103205903224e+04 3.9611324628705930e+01 3.8051683597908095e+02 -3.1608788750923140e+03 2.9474252706640982e+02 3.8297534297655837e+01 -2.0337132131013586e+03 3.4882946125319511e+04 1.0718532537401734e+02 2.0948894189126736e+02 -1.4956260533579416e+02 -9.1318321941804079e+03 -1.8850891379418903e+02 1.5959814056428331e+03 -9.3624590468780482e+01 -3.6524725048044942e+01 -1.9071894020064036e+02 4.6887500738750387e+03 -2.8990065733946864e+01 -5.1216614924965143e+02 1.1685430424797232e+01 1.2412049593927961e+02 -1.6344690717670381e+04 1.6825198704489890e+02 8.1188591529166303e+01 -1.5487370711665690e+02 1.9734690204992251e+02 -4.7791188915048519e+02 7.3480253710316065e+03 3.4989130249282857e+02 4.9197674371742913e+01 -1.4547992791788454e+02 9.2038976627777356e+02 -2.6372900825996112e+01 -9.4784123294220735e+03 
      </Row>
      <Row Index="6">
        -9.4795148734794630e+00 9.2036254670933644e+01 -5.0837682952311525e+02 8.5733276705843986e-01 -5.4282247916343671e+00 8.3621399668978583e+01 1.5062476120800036e+02 -6.3127456431279771e+00 -2.7854915233814967e+01 6.7696701990239490e+01 1.0125508975224284e+00 6.6436649773342580e+01 -1.9404220904616608e+01 -4.3679709836354004e-02 -1.1133747045173870e-01 -1.0610689475886640e+02 -4.0537915595917062e-01 7.2794190370349909e+01 1.1617954908142416e+01 -1.2091211149424157e+00 -2.1359786298239140e+02 1.6129867683056474e+00 -5.0593047778018878e+00 -6.4984737493631839e-01 1.2224721104841436e+02 -1.4796876615941614e+00 -2.6929019517697419e+01 -4.1562735211427864e+00 6.6515010675183905e-01 -8.5448595454046039e-01 2.4432960223155737e+02 8.2096306988711976e-01 4.8713486216461689e+01 -1.9211370017042270e+02 5.1115780783952863e+02 -8.0578018734079526e-01 1.3843074052356758e+02 -3.7472446192268609e+02 -1.8407384557483178e+02 3.3903604581756184e+01 1.0543651707902180e+02 -1.0045973854081227e+02 -1.5027562445621129e+01 -8.7163153412301369e+01 -2.2912567218844465e+01 1.6063140874518556e+00 -1.1233619313710861e+00 -2.2300358729727350e+02 4.8105891003706347e-01 2.2828111989651086e+02 -3.2504891504214100e+01 -1.0740089264753092e+01 2.0811378002581512e+02 -1.3483151540880854e+01 -1.1380128638087378e+01 2.6803556907892379e-01 2.1524839698240010e+02 6.4747075194619867e+00 2.5196282937333945e+02 2.0320609978300546e+01 -5.6842867757683635e+00 -3.9207065150003921e+00 -6.0783460035264866e+01 1.1839701002771652e+00 -3.7223216178596964e+01 -3.7917542960613133e+01 -5.8193838462364613e+02 -3.4657771360156548e+00 -2.5716188566134846e+01 -3.1063046248743876e+02 1.0285619120881294e+02 -5.4217432755030472e+01 -2.6410133356132405e+01 4.8031391674883835e+01 2.5440582011110013e+01 5.2336018718084198e+01 9.7446453609258796e+00 6.3467673158615123e-01 -1.7422323756214957e+00 8.4415243879972763e+00 -6.1583704746182555e-01 -8.7219822587194244e+01 5.6419246347112455e+01 2.5573268226001886e+00 -2.3157534677723552e+02 -3.6759608078622916e+00 2.3871032621240150e+01 -2.0444867183530802e+00 -2.0212230387902363e+01 1.5646612465898224e+00 -1.1704878473490486e+02 -7.4261765295716273e+00 4.6071100453282536e+00 -2.2923940732692172e+00 -3.1072337892887026e+02 1.0068765723547413e+00 2.5369002756467683e+01 -1.0207075611725652e+02 1.1945426996694391e+02 2.7562105553289320e+00 1.8048545711312812e+01 1.4031467557221910e+02 -7.0085635768339998e+01 7.2258762748652039e+00 -1.0597245081998193e+02 1.8429946402518610e+01 -1.8675880960162910e+01 1.8142996912147204e+01 2.5952197353804859e+01 2.9423651833067110e-01 3.0585859549914582e+00 1.0864174117109661e+02 5.6748189891996814e-01 -1.2300609545323599e+02 -1.6383169908629071e+01 -8.0531674400988562e-01 -2.6454509442271848e+02 8.2862557679613111e+00 -1.4708352655692799e+01 1.1545046721155616e-01 -9.1430793782830193e+00 -3.6234379268749130e+01 -9.6181175986626045e+01 5.6158227433368788e+00 6.4358952090120380e-01 2.0070077020278188e+00 1.9552996477705460e+02 -1.0300178873986958e+00 1.4966797643834550e+01 -2.3809031240392347e+01 4.6163002403941755e+02 -3.4974797927186767e+00 1.1215515791828301e+02 -2.0150293865600031e+02 -5.6313709930207423e+01 -1.3574239939561838e+01 -6.7348514105480621e+00 -4.0636740480150706e+01 -1.0006590778929212e+01 6.5143451623243536e+01 -1.8048648889084049e+00 -7.2784507648712982e-01 1.6590124403636759e+00 -3.4575974193146635e+01 -4.4401371333326889e-01 8.4023277131614435e+01 1.6792507649691238e+01 4.2904118253404278e-01 3.1089604357699855e+01 -4.3491769506732805e+00 -2.8375484593848153e+01 1.4323285451474128e+00 -9.2872736523252371e+01 -5.6530252781963654e+01 3.3949996823854144e+02 9.5308356711474111e+00 -1.4172781396123932e+00 9.3459223731155161e-01 1.9520400517921502e+02 -9.1921567171887419e-01 -3.8223374542770067e+01 -4.8953376039118787e+01 -6.8423428112458350e+02 2.9460346203289931e+00 -2.0239104487841067e+02 2.1656881268766625e+02 1.5817899286017681e+02 -9.2107988762322410e+00 -1.5661261953180247e+02 7.8823729865417150e+01 2.0576327186933050e+01 1.2236443023868182e+02 9.7098964840959852e+00 5.8171127570927195e-01 -6.7324896599221962e+00 1.7830221807539817e+02 -2.6668656691132836e-01 -2.8950256187205127e+01 1.4203721508261609e+01 1.2103091924547131e+01 2.9558119698883303e+01 -1.1468033408507218e+01 6.5213047525074145e+01 -2.5852071032309003e+00 6.3601831455960721e+01 1.6602382208073365e+01 -1.3926742273027844e+02 -1.1078120152966983e+01 6.9551512491996519e+00 4.0153475053703120e+00 -5.2575948303847338e+02 9.3593117809988946e-01 -1.7077686267926154e+01 2.3482950078940632e+02 2.7638346564739351e+02 -2.9417515820999021e+00 -1.6910015537045183e+01 2.7838719682109672e+02 5.9645345451159166e+01 1.8116211509921740e+00 1.1728220324378222e+02 -1.6568738069834808e+01 1.0391345141314449e+01 3.9487970885808565e+01 -1.0733561797171802e+00 -7.7659048670445441e-01 -4.4863423950316808e+00 -6.5129553491194827e+01 5.7766299119284392e-01 9.8544156990096994e+01 1.7566133877499588e+01 -9.6379686427836830e+00 -2.8890660720414854e+02 2.4309314431454374e+00 1.2159558553894918e+01 3.4948907171252319e-01 -2.1248190135731704e+02 -1.1215607451909318e+02 -1.3482122575321733e+02 -6.1125362631190630e+00 2.6742648527636907e+00 -1.9422816905551983e+00 -8.9557403709892483e+01 9.9620564250134347e-01 -2.5427169261054960e+01 -8.0413115018501685e+01 3.4185442353235476e+02 -6.5681429537843561e-01 -1.3281896728605869e+01 1.2919618628219112e+02 5.1999202487631393e+01 3.5236367648023275e+01 8.7158653619712965e+01 2.9361284733638623e+01 2.0666510883053455e+01 4.8391482200479359e+01 -9.4906527135187559e+00 -3.1070001837919947e-01 -5.6237630259911882e+00 -1.1317039007347006e+01 -5.6806139123080479e-01 -9.2805465719165170e+01 1.1603262626408052e+01 2.2453036748279160e+00 -2.0732098838723843e+02 3.1249136171976062e+00 -3.2349747195011389e+00 -5.7008797281950663e-01 -8.4193630146156863e+01 6.8008769215381299e+00 -1.0114779664420554e+02 -2.5207071065400175e+00 -1.9269294160530095e+00 -3.1888096754648232e-01 2.4554893565852819e+02 -8.6619065851417165e-01 -2.0799607519601513e+00 -5.8883720956939214e+01 1.0473314183025542e+02 -4.1252164125868174e-01 7.3034047245953261e+01 3.4392875327523434e+01 1.8648645710277236e+01 1.5002785639612679e+01 2.1135544788258677e+01 -8.9659100223811024e+00 2.1934235000168942e+00 -1.6663872659921971e+01 3.2262038733050682e+00 1.5445821486668995e-02 -3.6448911815650364e-04 -4.0185679764740364e+01 5.4952119553656739e-02 6.1061166985683599e+01 4.0908008981610031e+00 -2.1271669778755085e+00 4.1147751770306968e+01 -2.0219560791286133e+00 3.8689271084217545e+00 -2.2225923855078072e-01 -2.1888322251575719e+01 1.6683208914935221e+01 1.6723567884848680e+02 -7.4510495890376005e-02 -1.0586846973785353e+00 -4.5382993853659381e-01 1.4198004606081213e+02 1.4465609225491385e-01 4.6639632097089851e+00 1.4162006779713553e+02 3.5248102972296067e+02 -5.2485957061494970e-01 1.1097932654570727e+01 6.9312445601915513e+01 4.8272551465335578e+00 4.0865386866792246e+00 1.3560413546297935e+01 -2.4601002626048775e+01 -3.8962638941181762e+00 -3.0652340125931474e+01 3.4052015177043593e-01 2.3611261304089631e-01 -8.8590607486921036e-01 5.0091012017597578e+01 -1.4751950818078494e-01 -4.9598163650104972e+01 -6.3239159654396371e-01 2.7275199357293256e+00 -1.5222594517979402e+02 4.7019477975148813e+00 6.5673220441582316e+00 -9.8155734807501047e-02 -1.3595804301067992e+02 1.1652785298035234e+01 -6.8265067833723165e+01 2.4185336311269929e+00 -9.8406186896959169e-01 -7.1207720182831491e-01 5.7668963038836573e+01 1.1950847006229339e+00 -5.8754009428252658e+00 -2.2942857711845750e+02 1.0356463626536998e+02 -5.4347722908873788e+00 8.8206010185610907e+01 -5.0669369856093164e+02 1.0219842299006017e+02 -2.2772016769612364e+01 -4.4152235324205726e+01 5.4512071461642790e+01 6.2147224375461150e+00 2.8237094201797538e+02 -1.9172635073272104e+01 6.8891106352835330e-01 -7.9274309580177409e+00 -2.2652532220599295e+02 -4.6241728596617016e-01 -6.5560593351453122e+01 6.1050212492269623e+01 -1.3748472591324560e+01 -3.1846756056678464e+02 -1.1393553433200179e+01 -4.9470286999701329e-01 -1.7127757766952634e+00 5.5650065577720511e+01 -1.5083534898263690e+02 1.0231233542260907e+02 9.1566401398185882e+00 4.6472058790245363e+00 -3.4492567928057447e+00 1.1972943389052580e+02 6.8399217726181405e-01 -2.6951371019019078e+01 -8.2087827793007520e+01 1.3851765258094773e+01 5.6616429610799175e+00 -1.2744871646618564e+02 -6.2056040933882514e+01 -8.2211678193573547e+00 7.6838799196021128e+00 -6.8358374233500214e+00 -1.1124771478795543e+02 2.7920426089879179e+01 -1.2434898852838214e+02 -2.9691533597072766e+01 -2.6787951019922009e+00 -3.6658217918713980e+00 -1.9497429124749078e+02 1.4802377627556642e+00 7.9033626965560984e+01 -8.9867770502284060e+01 -1.4752251108108910e+01 -9.6974427995934690e+01 5.9068182473128360e+01 4.2748193416427029e+01 -2.3729785190443113e+00 -3.4413656509081981e+01 -1.4692019711841482e+00 1.8508693403244308e+01 -1.3525547204321512e+01 -7.3314879376578601e-01 1.5407935778438571e+00 2.0084544836953910e+02 -5.6998835191413946e+00 4.8355815035699408e+02 
      </Row>
      <Row Index="7">
        3.5808465991164162e+00 6.2407656883271947e+01 -1.0051607033756326e+02 -6.5867760322857754e+00 -6.9945324332873170e+01 1.9576913073319872e+02 -6.3127456204842485e+00 1.4785979492816989e+02 1.0049932983532447e+02 8.0469519262044713e+01 1.5093826029086712e+00 -2.6683238704924628e+02 1.5764532819877157e+00 5.6111831655595534e-01 -7.7522199791396549e+00 7.0940717885994445e+01 -1.9228316008607804e-01 -1.0614674491015978e+02 3.6754823784874358e+00 -4.6040611247631613e+00 -3.8925218282798028e+01 3.0771556025597140e+00 2.5681793874606377e+01 2.3856304413411555e-01 -1.2986636783964695e+02 7.2910571016738899e+01 -1.4567794457118993e+02 3.1079733302375274e+00 -3.2071609009603064e-01 -1.1919911142053621e+00 2.4711872066380684e+02 -7.5050982357593377e-01 1.1213406007667469e+01 -7.1711943130364247e+01 4.4756748737533394e+02 1.0742342876427515e+00 -2.3550631280134814e+02 -5.9340448991782034e+02 -1.1874788641049712e+01 -4.5907601954944070e+01 -3.8873559385468454e+01 -1.2061032725645804e+02 -1.1926253493203117e+01 -2.6659049791932654e+02 -4.1992116999813129e+00 -1.8365576899409759e+00 1.4637402080926256e+01 2.5859986749524046e+02 -3.0273202196705169e+00 -3.3251330731317864e+02 -1.5944211815216823e+01 -1.5520803951345208e-01 -8.2861810676082200e+01 -3.6928718763070236e+00 3.9493157132018965e+01 1.7316192375599815e+00 2.3221326013354928e+02 1.4310175587898712e+02 -2.2665363982658607e+02 -4.6666013821425860e+00 1.0174336204664735e+01 4.3860471737497519e-02 -1.2233407184005755e+02 3.3814173332365627e-01 9.9128455172516183e+00 -1.4003165096755251e+02 -9.2900607853432973e+01 6.9368401064043983e-01 1.4724784835194382e+02 2.5297749747737527e+02 -4.4138046661926786e+01 -1.6714947830107729e+01 4.3313519354509040e+00 -1.1645518827893179e+01 -4.2294854353872422e+00 1.1075568307710998e+02 -2.7929188903480071e+01 1.0164748534922257e+00 -1.6809086570050390e+01 -2.0626723792450892e+02 1.9907818773949570e+00 -1.8079886807445286e+02 2.1987019983531129e+00 -6.6586389047966357e+00 2.3527705619832352e+02 -4.1026645370514023e+00 -4.0941790783248756e+01 -9.0478511431035780e-01 -4.3436658636459754e+02 8.3208796841049335e+01 2.8885539894425199e+02 -4.1184685392217517e+00 -6.8873633723004790e+00 -2.5419686984121603e+00 1.6665996645477105e+02 -1.3452353206740428e+00 -1.0832968432808627e+00 9.7379226024945549e+00 3.6430230123059368e+02 2.2749930679579240e+00 -4.4530505742308407e+01 2.4567204586597668e+01 4.6077022856143380e+01 -1.9462685079864208e+00 8.2967969411945461e+01 -4.1052646965936475e+01 1.9527694474286532e+00 -2.4991454523674639e+02 2.9691226984770477e+01 -7.4883992570293256e-01 9.2114864067160447e+00 2.2273185687612198e+02 -3.8768217093133384e-02 5.6929961838717688e+01 8.4172340834459032e+00 4.2674169540965234e+00 -1.3897848292999194e+02 2.1121873241772802e+00 -4.7235281514513296e+00 8.0822248526740026e-02 -1.9135293966802706e+01 -3.7450475967779965e+01 2.3217733525141981e+01 3.2037270329767535e+00 7.4327177995770866e-01 2.9839929450912184e+00 6.2882209434944222e+01 1.5394542150784316e+00 -2.6982856265652408e+00 5.9980112471797895e+02 1.9198166784380419e+02 9.7047490202282702e+00 -3.1782011141781760e+02 1.5148219646907626e+02 2.7985010843960570e+01 4.8062537907597545e+01 -9.5477220651958405e+01 1.0175288273282649e+02 2.4618780329986851e+00 2.4155121210532616e+02 -4.4543161919876724e+00 3.2358275443227030e-01 -9.5660576432939379e+00 1.9762865317914117e+02 1.3419810253043938e+00 3.7897234557614603e+01 5.7097995000467590e+00 1.1385222068799798e+01 -6.5709820326034830e+01 6.7336412719473282e+00 1.8047247229316394e+01 4.3527999562922748e-02 1.2914073008976902e+02 -4.1824437539706608e+01 -3.4067995230630686e+02 -1.4542345803375412e-01 1.6680619706464577e+00 1.7372415486744424e+00 -2.3434080520402091e+01 1.4452995640404644e+00 1.8975066653980306e+01 -6.3638288344972898e+02 -6.1381094396135495e+01 -7.0971632846975492e+00 2.5418770142946556e+02 2.6149640485721375e+02 9.4138130639203688e-01 1.2134829123678399e+02 6.7325654633222541e+01 -1.2273615700108260e+02 -1.1193458985478342e+01 5.4754780203971805e+01 -3.5545065697929211e+01 1.1337132372185643e-02 -7.7435826892929214e+00 -2.8984288315830980e+02 -9.6270003324492537e-01 -2.0163478028299465e+02 7.1632151703153069e+00 -1.2110134677449441e+01 3.7786309926878943e+02 -1.4941458496640292e+01 -3.2645665233103260e+00 -1.0047261948069339e+00 1.2033855177223755e+01 1.2592704167091416e+02 4.2014565157671836e+02 -5.4540496880709730e+00 -6.7974632165458431e+00 1.5530092429269837e-01 -1.5532144459638096e+02 -3.2139533632485202e+00 -9.5358494068232780e+00 -2.2429166414078546e+02 -2.2594993174850504e+02 3.7754131722747770e+00 -5.1271311443016089e+01 -1.2701419514114775e+02 -1.9383522893217759e+01 -1.5466874602862370e+02 1.0807274880176513e+02 1.1435042666701212e+02 4.2715725086770258e+00 -1.8059377457090150e+02 2.6774294101178846e+01 8.8978724482721816e-01 -5.1935489987111438e-01 -2.0448129958806342e+02 -7.7605702599550552e-01 -2.2223065322585217e+02 1.7584476357931784e+00 -3.9541371833387178e+00 -2.8811081002835596e+02 1.5361601185502241e+01 -4.5513335953035060e+01 -6.9327480507561434e-01 3.1318902888391949e+02 -1.2355577486550683e+02 -2.8263349445352384e+02 8.5616347255904799e+00 3.5040393040339284e+00 -6.9367510243363402e+00 -3.8640110468593631e+00 -8.7513978588047547e-01 -8.8382850595880882e+00 2.3905126194631382e+02 -1.1093343627456414e+02 2.4907323912330503e-01 3.1424508411402069e+01 3.2917491934830105e+02 2.6269645301617221e+01 2.3675770282491715e+01 2.4598854618666593e+01 -5.6080054754291567e+01 6.0041671477383396e-01 -1.6683301766352574e+02 1.0134773614328971e+01 4.4380056716459393e-02 -5.7936844577594004e-01 -5.0052250818456017e+00 -7.0766098593850657e-01 -2.3009896707152677e+01 4.3817601251211089e+00 -1.0849119343866995e+00 -1.0792429045216470e+02 7.4496179514997252e+00 -7.3974146709271240e+00 -4.7776463398696434e-01 2.0744602305685805e+02 8.3832710347090355e+01 -8.9569491493473947e+00 3.3778586615497952e+00 -1.0438967872616955e-01 -1.1267542357823637e+00 7.3978975163702785e+00 7.4247071794381281e-01 2.6812123254833065e-01 -1.3690088918952824e+01 -2.1277759517297593e+01 1.5872963715800132e+00 -8.4855961916826850e+00 -4.2964684975224571e+01 5.4946968124527986e+00 -2.2080631596370388e+00 4.3468640682822519e+00 5.2748069941450506e+00 -2.3674937481982283e-01 -1.4862429084263587e+01 7.0663122459065271e+00 -1.7201635869473142e-01 -2.5160378066747768e-01 4.2608138166063600e+00 -3.3850398164617976e-02 1.7027839632714322e+01 5.5168369403830431e-01 -9.2787641845039115e-01 -2.4650238499801389e+01 3.2819655033236472e-01 -4.3256568211883053e+00 7.0000014854294870e-02 2.6454472775242674e+01 1.8805709884618693e+01 5.4523924368965751e+01 1.1147620585628997e+00 1.0720678481252011e+00 7.7277270668135750e-02 1.8638139586069865e+01 -9.6602978858399385e-02 1.0116569953698500e+00 -1.9275512652997318e+02 7.7574328003171644e+01 -9.1019494879133778e-01 1.0580384835688804e+02 -2.6973470814737951e+01 3.6830801023418429e+00 -3.7338634637856828e+01 -4.7134655865207606e+01 1.0759449068617092e+01 7.8417233787011686e-01 -1.1270309552801862e+02 -5.7854800091753678e+00 3.7839667285904502e-02 9.7136240565483867e-01 -6.7685523610598366e+01 -1.1450576437746852e-01 2.7900157779667518e+02 -3.7842554703483305e-01 3.1886951203564579e-01 -7.5259942784160557e+01 1.7019641981545428e+00 -1.0723874937145496e+01 -3.2864719579413554e-01 -1.1643791596247695e+02 -3.4199342323594406e+00 4.9176394221267707e+01 -1.6101540025702565e+00 6.2720109218473274e-01 -6.6899103299763160e-02 -8.4766011317660883e+01 -4.7757133339841246e-01 1.6161063044976622e+01 1.1458425433342160e+02 4.1303398088144718e+02 6.9954122790787547e+00 -1.0390172958718300e+02 4.6842453577151775e+02 7.6625572092320127e+00 -9.9162748622825383e+00 1.6988079786103998e+02 7.0727450049760918e+01 -7.5060044001967725e+00 -4.4668275072136890e+02 7.2007966269637791e+00 3.7502283493738225e-01 -1.3990174318671000e+01 1.0045186280328426e+02 -1.2889313541310468e+00 -1.4735762377732681e+02 1.2880365634886033e+01 -6.1886132870077457e+00 -5.5090716846925943e+01 1.3796629971641021e+01 -1.2993072070855447e+01 -2.4607535839491668e-01 4.4968520256309057e+02 5.9929940746781824e+01 -1.7758294261198793e+02 3.2238848642188946e+00 4.1879339467414560e+00 -5.5566670976642385e+00 -3.6147970311779943e+01 -1.1340216477624843e-01 -1.0767549988210554e+01 1.3453924520235884e+02 -1.2709420683082735e+02 -2.4861219545012993e+01 5.1419694516233506e+01 3.0536605277948058e+02 6.2361616886411959e+01 1.6266577884777806e+02 1.1443392992393896e+02 -1.1745359606252875e+02 -4.1847708459100730e+00 2.9184673674181226e+02 -3.4833541451330966e+01 -5.7861698009986051e-01 2.1778849144625667e+00 1.4933205101635977e+02 1.1519636041563142e+00 -2.4187797664769320e+01 6.5159187322630601e+00 -4.2962632668439191e+00 -2.0844133237498625e+02 9.9888880464722334e+00 -3.7052141768679370e+01 -2.8764780160197998e+00 2.2893365815015436e+01 1.2148607792697474e+02 3.4781521187576095e+02 1.1201220048967047e+01 -4.4505150713502548e+00 -2.0199440821120014e+00 1.1659238998429643e+02 2.9082689785780360e+00 -1.5573881200414274e+02 
      </Row>
      <Row Index="8">
