<?xml version="1.0"?>
<MethodSetup Method="MLP::MLPBNN_MuTau_MZP600_MA0400_MDM100_nodes32_epoch500">
  <GeneralInfo>
    <Info name="TMVA Release" value="4.2.1 [262657]"/>
    <Info name="ROOT Release" value="6.06/01 [394753]"/>
    <Info name="Creator" value="jhoward"/>
    <Info name="Date" value="Mon May 15 00:13:14 2017"/>
    <Info name="Host" value="Linux vocms0301.cern.ch 2.6.32-642.11.1.el6.x86_64 #1 SMP Wed Nov 16 09:40:09 CET 2016 x86_64 x86_64 x86_64 GNU/Linux"/>
    <Info name="Dir" value="/uscms_data/d3/jhoward/WORKING_DIR/AprilProductionV1_8_0_26p1_V1/HonorsThesis2/ANNs"/>
    <Info name="Training events" value="82187"/>
    <Info name="TrainingTime" value="3.29988818e+04"/>
    <Info name="AnalysisType" value="Classification"/>
  </GeneralInfo>
  <Options>
    <Option name="NCycles" modified="Yes">500</Option>
    <Option name="HiddenLayers" modified="Yes">32</Option>
    <Option name="NeuronType" modified="Yes">tanh</Option>
    <Option name="RandomSeed" modified="No">1</Option>
    <Option name="EstimatorType" modified="No">CE</Option>
    <Option name="NeuronInputType" modified="No">sum</Option>
    <Option name="V" modified="Yes">False</Option>
    <Option name="VerbosityLevel" modified="No">Default</Option>
    <Option name="VarTransform" modified="Yes">N</Option>
    <Option name="H" modified="Yes">False</Option>
    <Option name="CreateMVAPdfs" modified="No">False</Option>
    <Option name="IgnoreNegWeightsInTraining" modified="No">False</Option>
    <Option name="TrainingMethod" modified="Yes">BFGS</Option>
    <Option name="LearningRate" modified="No">2.000000e-02</Option>
    <Option name="DecayRate" modified="No">1.000000e-02</Option>
    <Option name="TestRate" modified="Yes">5</Option>
    <Option name="EpochMonitoring" modified="No">False</Option>
    <Option name="Sampling" modified="No">1.000000e+00</Option>
    <Option name="SamplingEpoch" modified="No">1.000000e+00</Option>
    <Option name="SamplingImportance" modified="No">1.000000e+00</Option>
    <Option name="SamplingTraining" modified="No">True</Option>
    <Option name="SamplingTesting" modified="No">False</Option>
    <Option name="ResetStep" modified="No">50</Option>
    <Option name="Tau" modified="No">3.000000e+00</Option>
    <Option name="BPMode" modified="No">sequential</Option>
    <Option name="BatchSize" modified="No">-1</Option>
    <Option name="ConvergenceImprove" modified="No">1.000000e-30</Option>
    <Option name="ConvergenceTests" modified="No">-1</Option>
    <Option name="UseRegulator" modified="Yes">True</Option>
    <Option name="UpdateLimit" modified="No">10000</Option>
    <Option name="CalculateErrors" modified="No">False</Option>
    <Option name="WeightRange" modified="No">1.000000e+00</Option>
  </Options>
  <Variables NVar="10">
    <Variable VarIndex="0" Expression="read_pt_2" Label="read_pt_2" Title="read_pt_2" Unit="" Internal="read_pt_2" Type="F" Min="2.00001564e+01" Max="5.61796387e+02"/>
    <Variable VarIndex="1" Expression="read_mt_tot" Label="read_mt_tot" Title="read_mt_tot" Unit="" Internal="read_mt_tot" Type="F" Min="1.50823832e-01" Max="1.28993567e+03"/>
    <Variable VarIndex="2" Expression="read_pfmt_1" Label="read_pfmt_1" Title="read_pfmt_1" Unit="" Internal="read_pfmt_1" Type="F" Min="3.23421624e-03" Max="1.20356714e+03"/>
    <Variable VarIndex="3" Expression="read_pt_tt" Label="read_pt_tt" Title="read_pt_tt" Unit="" Internal="read_pt_tt" Type="F" Min="1.63056836e-01" Max="1.48447656e+03"/>
    <Variable VarIndex="4" Expression="read_met" Label="read_met" Title="read_met" Unit="" Internal="read_met" Type="F" Min="8.00005112e+01" Max="1.49046631e+03"/>
    <Variable VarIndex="5" Expression="read_P_chi_pf" Label="read_P_chi_pf" Title="read_P_chi_pf" Unit="" Internal="read_P_chi_pf" Type="F" Min="-6.82150146e+02" Max="1.48956006e+03"/>
    <Variable VarIndex="6" Expression="read_LPT" Label="read_LPT" Title="read_LPT" Unit="" Internal="read_LPT" Type="F" Min="0.00000000e+00" Max="4.57679297e+03"/>
    <Variable VarIndex="7" Expression="read_DeltaR_leg1_leg2" Label="read_DeltaR_leg1_leg2" Title="read_DeltaR_leg1_leg2" Unit="" Internal="read_DeltaR_leg1_leg2" Type="F" Min="3.13293278e-01" Max="5.46172619e+00"/>
    <Variable VarIndex="8" Expression="read_cos_DeltaPhi_leg1_leg2" Label="read_cos_DeltaPhi_leg1_leg2" Title="read_cos_DeltaPhi_leg1_leg2" Unit="" Internal="read_cos_DeltaPhi_leg1_leg2" Type="F" Min="-1.00000000e+00" Max="1.00000000e+00"/>
    <Variable VarIndex="9" Expression="read_cos_DeltaPhi_PFMET_Higgs" Label="read_cos_DeltaPhi_PFMET_Higgs" Title="read_cos_DeltaPhi_PFMET_Higgs" Unit="" Internal="read_cos_DeltaPhi_PFMET_Higgs" Type="F" Min="-1.00000000e+00" Max="1.00000000e+00"/>
  </Variables>
  <Spectators NSpec="10">
    <Spectator SpecIndex="0" Expression="read_ratio_weight" Label="read_ratio_weight" Title="read_ratio_weight" Unit="" Internal="read_ratio_weight" Type="F" Min="7.96436844e+01" Max="7.96436844e+01"/>
    <Spectator SpecIndex="1" Expression="read_final_weight" Label="read_final_weight" Title="read_final_weight" Unit="" Internal="read_final_weight" Type="F" Min="1.17934240e-08" Max="9.73647714e-01"/>
    <Spectator SpecIndex="2" Expression="read_npu" Label="read_npu" Title="read_npu" Unit="" Internal="read_npu" Type="F" Min="1.43964458e+00" Max="7.43828812e+01"/>
    <Spectator SpecIndex="3" Expression="read_event" Label="read_event" Title="read_event" Unit="" Internal="read_event" Type="F" Min="6.30000000e+01" Max="7.30883456e+08"/>
    <Spectator SpecIndex="4" Expression="read_randNum" Label="read_randNum" Title="read_randNum" Unit="" Internal="read_randNum" Type="F" Min="2.26544216e-07" Max="9.99171555e-01"/>
    <Spectator SpecIndex="5" Expression="read_DataCardInt" Label="read_DataCardInt" Title="read_DataCardInt" Unit="" Internal="read_DataCardInt" Type="F" Min="1.00000000e+00" Max="9.00000000e+00"/>
    <Spectator SpecIndex="6" Expression="read_IsZTT" Label="read_IsZTT" Title="read_IsZTT" Unit="" Internal="read_IsZTT" Type="F" Min="0.00000000e+00" Max="1.00000000e+00"/>
    <Spectator SpecIndex="7" Expression="read_IsZJ" Label="read_IsZJ" Title="read_IsZJ" Unit="" Internal="read_IsZJ" Type="F" Min="0.00000000e+00" Max="1.00000000e+00"/>
    <Spectator SpecIndex="8" Expression="read_IsZL" Label="read_IsZL" Title="read_IsZL" Unit="" Internal="read_IsZL" Type="F" Min="0.00000000e+00" Max="1.00000000e+00"/>
    <Spectator SpecIndex="9" Expression="read_IsTTT" Label="read_IsTTT" Title="read_IsTTT" Unit="" Internal="read_IsTTT" Type="F" Min="0.00000000e+00" Max="1.00000000e+00"/>
  </Spectators>
  <Classes NClass="2">
    <Class Name="Signal" Index="0"/>
    <Class Name="Background" Index="1"/>
  </Classes>
  <Transformations NTransformations="1">
    <Transform Name="Normalize">
      <Selection>
        <Input NInputs="10">
          <Input Type="Variable" Label="read_pt_2" Expression="read_pt_2"/>
          <Input Type="Variable" Label="read_mt_tot" Expression="read_mt_tot"/>
          <Input Type="Variable" Label="read_pfmt_1" Expression="read_pfmt_1"/>
          <Input Type="Variable" Label="read_pt_tt" Expression="read_pt_tt"/>
          <Input Type="Variable" Label="read_met" Expression="read_met"/>
          <Input Type="Variable" Label="read_P_chi_pf" Expression="read_P_chi_pf"/>
          <Input Type="Variable" Label="read_LPT" Expression="read_LPT"/>
          <Input Type="Variable" Label="read_DeltaR_leg1_leg2" Expression="read_DeltaR_leg1_leg2"/>
          <Input Type="Variable" Label="read_cos_DeltaPhi_leg1_leg2" Expression="read_cos_DeltaPhi_leg1_leg2"/>
          <Input Type="Variable" Label="read_cos_DeltaPhi_PFMET_Higgs" Expression="read_cos_DeltaPhi_PFMET_Higgs"/>
        </Input>
        <Output NOutputs="10">
          <Output Type="Variable" Label="read_pt_2" Expression="read_pt_2"/>
          <Output Type="Variable" Label="read_mt_tot" Expression="read_mt_tot"/>
          <Output Type="Variable" Label="read_pfmt_1" Expression="read_pfmt_1"/>
          <Output Type="Variable" Label="read_pt_tt" Expression="read_pt_tt"/>
          <Output Type="Variable" Label="read_met" Expression="read_met"/>
          <Output Type="Variable" Label="read_P_chi_pf" Expression="read_P_chi_pf"/>
          <Output Type="Variable" Label="read_LPT" Expression="read_LPT"/>
          <Output Type="Variable" Label="read_DeltaR_leg1_leg2" Expression="read_DeltaR_leg1_leg2"/>
          <Output Type="Variable" Label="read_cos_DeltaPhi_leg1_leg2" Expression="read_cos_DeltaPhi_leg1_leg2"/>
          <Output Type="Variable" Label="read_cos_DeltaPhi_PFMET_Higgs" Expression="read_cos_DeltaPhi_PFMET_Higgs"/>
        </Output>
      </Selection>
      <Class ClassIndex="0">
        <Ranges>
          <Range Index="0" Min="2.0021486282348633e+01" Max="3.5253744506835938e+02"/>
          <Range Index="1" Min="1.5298347473144531e+01" Max="1.2899356689453125e+03"/>
          <Range Index="2" Min="2.7730190753936768e-01" Max="1.2034987792968750e+03"/>
          <Range Index="3" Min="7.6667771339416504e+00" Max="6.0420629882812500e+02"/>
          <Range Index="4" Min="8.0006225585937500e+01" Max="1.0806077880859375e+03"/>
          <Range Index="5" Min="-6.8215014648437500e+02" Max="1.0020668945312500e+03"/>
          <Range Index="6" Min="0.0000000000000000e+00" Max="2.1649169921875000e+03"/>
          <Range Index="7" Min="4.1147986054420471e-01" Max="3.8464906215667725e+00"/>
          <Range Index="8" Min="-9.9997842311859131e-01" Max="9.9999469518661499e-01"/>
          <Range Index="9" Min="-1.0000000000000000e+00" Max="9.9986183643341064e-01"/>
        </Ranges>
      </Class>
      <Class ClassIndex="1">
        <Ranges>
          <Range Index="0" Min="2.0000156402587891e+01" Max="5.6179638671875000e+02"/>
          <Range Index="1" Min="1.5082383155822754e-01" Max="1.2427003173828125e+03"/>
          <Range Index="2" Min="3.2342162448912859e-03" Max="1.2035671386718750e+03"/>
          <Range Index="3" Min="1.6305683553218842e-01" Max="1.4844765625000000e+03"/>
          <Range Index="4" Min="8.0000511169433594e+01" Max="1.4904663085937500e+03"/>
          <Range Index="5" Min="-6.6478735351562500e+02" Max="1.4895600585937500e+03"/>
          <Range Index="6" Min="0.0000000000000000e+00" Max="4.5767929687500000e+03"/>
          <Range Index="7" Min="3.1329327821731567e-01" Max="5.4617261886596680e+00"/>
          <Range Index="8" Min="-1.0000000000000000e+00" Max="1.0000000000000000e+00"/>
          <Range Index="9" Min="-1.0000000000000000e+00" Max="1.0000000000000000e+00"/>
        </Ranges>
      </Class>
      <Class ClassIndex="2">
        <Ranges>
          <Range Index="0" Min="2.0000156402587891e+01" Max="5.6179638671875000e+02"/>
          <Range Index="1" Min="1.5082383155822754e-01" Max="1.2899356689453125e+03"/>
          <Range Index="2" Min="3.2342162448912859e-03" Max="1.2035671386718750e+03"/>
          <Range Index="3" Min="1.6305683553218842e-01" Max="1.4844765625000000e+03"/>
          <Range Index="4" Min="8.0000511169433594e+01" Max="1.4904663085937500e+03"/>
          <Range Index="5" Min="-6.8215014648437500e+02" Max="1.4895600585937500e+03"/>
          <Range Index="6" Min="0.0000000000000000e+00" Max="4.5767929687500000e+03"/>
          <Range Index="7" Min="3.1329327821731567e-01" Max="5.4617261886596680e+00"/>
          <Range Index="8" Min="-1.0000000000000000e+00" Max="1.0000000000000000e+00"/>
          <Range Index="9" Min="-1.0000000000000000e+00" Max="1.0000000000000000e+00"/>
        </Ranges>
      </Class>
    </Transform>
  </Transformations>
  <MVAPdfs/>
  <Weights>
    <Layout NLayers="3">
      <Layer Index="0" NNeurons="11">
        <Neuron NSynapses="32">
          -5.1065213887286842e-01 1.0628121594024622e+00 3.1125083044566310e-01 1.4028801999307066e+00 -1.1680509933238929e+00 -8.8070054542079212e-01 -3.3874225674541492e-01 1.5342974361391783e+00 -1.6391186736375165e+00 -1.1350062597983641e+00 -1.8773782177292386e-01 -4.9606458401257902e-01 -9.2859792293980958e-01 -1.6147258091440762e+00 -5.1191161145394171e-01 7.2260717153766740e-01 -1.2630236722612390e-01 1.1478232371605248e+00 5.1861854057446755e-01 6.1183234713842038e-01 1.3637151566199648e-02 -7.6504265829162121e-01 3.8953187268217387e-01 2.1070017025729787e-01 -4.7104124902738587e-01 -3.7037377626630569e-01 8.9814065681224386e-01 -6.8055207258851902e-01 -9.6425594151245309e-01 -1.9236320123369705e-01 4.6156847175094984e-01 1.1994665184011943e+00 
        </Neuron>
        <Neuron NSynapses="32">
          -4.8817442154551882e-01 -4.2353011109406052e-01 2.3340427741357767e-02 8.7002673733509661e-01 -1.0344946570233136e+00 1.2756648277794833e+00 -8.0675896943209080e-01 1.0918207574895864e+00 6.4981805732485176e-01 8.2891419649513701e-02 1.8556704675886333e+00 6.2275992834514848e-01 -4.3962502936898806e-01 -4.9115506242481848e+00 1.0523670026395354e-01 4.4107537797493973e-01 8.8532679104677448e-01 9.8507552115272656e-01 1.8528320321297591e+00 8.2398483693692937e-01 -9.9608345979560076e-01 4.9842431890650296e-01 -1.5290466812847874e+00 -2.6369352993494513e+00 -1.2157265588562234e+00 -1.4098867994289757e+00 1.1078886278474329e+00 6.6000127252472451e-01 -1.4659659464582717e+00 7.0863231231592688e-02 -7.7873889024934917e-01 4.0642170291689284e-01 
        </Neuron>
        <Neuron NSynapses="32">
          8.8037670529890155e-01 -4.5282936280525593e-01 1.4977512820299169e-01 3.5219232314680535e-02 4.4445828513237173e-01 -4.9785089257189419e-01 -2.2273261636293948e-01 -5.0515365683555891e-01 5.7321719509321400e-01 2.9657297917079589e-01 6.0900368169865715e-01 -4.6196573159858045e-01 -1.0212824365693005e+00 -2.2676984821113724e+00 2.8838508692111392e-01 6.0873552747820991e-01 1.2047156683358959e+00 3.4125528731104626e-01 4.7182845785899175e-01 -2.5196211638101379e-01 -4.0778382975623090e-01 -3.8795554828275863e-01 5.3475049145149267e-01 -1.9140134514552356e+00 -1.1526192598212426e+00 -1.2149691051303051e+00 -1.1235382567302093e-02 -2.3370049974126586e-01 3.5761074883210009e-01 -1.1172222221625954e+00 -1.1674312692788635e+00 8.5535576088639631e-01 
        </Neuron>
        <Neuron NSynapses="32">
          -7.8115165405356413e-01 -1.1567806585293789e+00 -8.9223817572214414e-01 4.5427424761227797e-01 -1.1867131131144359e+00 -1.0202532005441327e+00 7.5057100854882441e-01 1.4592451391525427e+00 -7.9620392787881933e-01 6.0198639505951268e-01 -6.0327265323057044e-01 -7.5100820032050830e-01 -1.6084975821997588e-01 -7.8340257069629593e-01 -1.2465315645904451e+00 3.8575768853932524e-01 4.1212986069149221e-01 3.6491619069078796e-01 -1.1642283506593911e+00 1.2518671289680365e+00 3.5754308683630259e-01 -1.0961746513874802e+00 3.1849367251169147e-01 -1.2069638461691570e+00 -9.5651989418249006e-01 -2.1670777870610899e-01 -1.0267596807048206e-01 1.0467057121262260e+00 2.1910202443415400e-01 -1.9884931105624015e-01 -4.7850879695597093e-01 -4.5539070212646492e-02 
        </Neuron>
        <Neuron NSynapses="32">
          -1.5124833674970086e+00 5.9901191776982443e-01 -4.2644258571514292e-02 -1.9486482255700646e+00 4.1268101614315678e-01 -9.3174413183359950e-01 3.5425031855523437e-01 1.2428583094889103e+00 1.8698827363155033e+00 -1.7092080991031839e+00 -1.4048573373510395e-01 6.3647485702192375e-01 7.4813855560895259e-01 7.9862875721039206e-01 -1.1212489068603315e+00 -2.3696092952406006e-01 -1.2955117161172789e+00 1.1188142802763328e+00 7.7595436694647224e-01 -4.6617983501494525e-01 -2.3199193307861782e-01 5.3785588948531549e-01 -9.9088697103370016e-01 1.3823863936444338e+00 1.3503615937152498e+00 -6.9348694054360049e-01 -2.6429103475414689e-01 1.0180544348868064e+00 6.6662762597044034e-01 4.2838177381582609e-01 1.0161502487207363e+00 -6.4334057603008754e-01 
        </Neuron>
        <Neuron NSynapses="32">
          7.8157648752974496e-01 4.7499829586099357e-01 2.8068734972806569e-01 6.5916048467769794e-01 6.1958624244849658e-01 -3.6264859469013777e-01 -1.9019102832669094e-01 9.0993639095032786e-01 -9.2691176102638939e-01 -4.8099489020136593e-01 1.1883199559951627e+00 5.1750415383073800e-01 -4.5530814653956092e-01 5.6004900398570057e-01 1.2826450443688500e+00 -1.1736988268209365e+00 -3.8000587432288341e-01 1.6840763522126781e-01 2.4486304885670296e-01 -9.4507348468398500e-01 -9.2927106994493047e-01 9.0001448825842023e-01 1.1332604958985990e+00 -1.6230675526057896e+00 1.5311134717207622e-01 -5.9988390896238830e-01 2.2708582957670367e-01 1.4279612851904535e+00 -1.5359965340939821e-01 -2.2105439602362759e-01 -5.3310324131156062e-01 8.3608725785361016e-01 
        </Neuron>
        <Neuron NSynapses="32">
          8.5457954438014028e-01 7.3901328869424521e-01 3.1975361150911680e-01 -1.2603711375151416e+00 -1.4522685565691638e+00 7.8966710332526646e-01 8.1580873736259163e-01 -3.8671485430312519e-01 -2.1262798018606116e-01 -1.0956580983093800e-01 -3.8026805800838842e-01 -1.7597944655428153e+00 7.1715355324557950e-01 3.6656060930783774e+00 -4.2304501536189032e-01 -1.1219153233257292e-01 2.0411941939796190e+00 9.0316727133203045e-01 -7.7856038093782665e-01 4.8521968039021535e-01 -1.3522052483039797e+00 -5.1939564119050141e-01 1.1990804227967691e+00 2.6135865719479323e+00 9.6214249268212981e-01 -2.8520405372494334e-01 1.5989209217945715e+00 -1.7283878042529093e+00 -1.1762632366999395e+00 -1.2698984713160774e-01 -1.0346930790770548e+00 8.7857294501201677e-01 
        </Neuron>
        <Neuron NSynapses="32">
          8.5232494391853819e-01 -8.3833640688205724e-01 5.4104226624552720e-01 3.4809782030852815e-01 -1.0573566658607603e+00 -6.6407085896318407e-01 5.2920945423060295e-01 3.6403089373786990e-01 1.7627143435956363e+00 -5.6999947114769556e-01 9.3761217878292347e-01 -9.7273241865160731e-01 4.2077267113031158e-01 -2.1357185514708157e-01 -8.0505007288397257e-01 -6.6439525629798424e-01 -2.9918053178897819e+00 -2.6530307941681954e-02 -2.6647005113181027e-01 -1.1107574173408401e+00 -1.1822997503109407e+00 -1.5089113011296446e-01 -8.9726965521791269e-01 -2.7740342130975413e+00 9.5805859078523370e-01 -9.2738065233154998e-01 8.2135177369132895e-02 1.0406555045878747e-01 1.2427330199236115e-01 1.5447608646935895e+00 7.5162995715642611e-01 -7.3470480923225645e-01 
        </Neuron>
        <Neuron NSynapses="32">
          -1.6234983391028010e-01 -1.9747501946704737e-01 5.4290808561646503e-02 -7.6142764068848745e-01 4.4081674274575038e-02 4.5429929350336115e-02 4.4571139924660508e-01 -3.4796532532735167e-02 -5.8055260538952114e-01 1.7582644869455221e-02 -5.5518230670220559e-01 1.4494809140455145e-01 9.6919195058100205e-02 -3.0842663883881894e-02 -2.6383957906374289e-01 3.0194262532401369e-02 5.1380697545099119e-01 -4.2803277952993282e-02 -6.1500558722942666e-01 1.1538533821646862e-01 3.2964680852308675e-01 1.6740848497170260e-01 2.2807529956986708e-01 -2.3039252579317304e-01 6.2444278252546177e-02 2.0183630671158762e-02 -1.8874479098099822e-01 -7.8877330129032225e-02 -4.5150404715462611e-01 -3.3718283244179387e-01 -3.8570154453604349e-01 4.3263815513316151e-01 
        </Neuron>
        <Neuron NSynapses="32">
          -1.1796370605187103e+00 8.4213322890496767e-01 -9.1457449506209443e-01 8.7628084164315978e-01 -5.4370143715566555e-01 2.3889905137166983e-01 7.8294085667565971e-01 -5.2596945345111690e-01 -1.3480300987902444e-01 1.3161635643469180e-01 -1.1913141794993358e+00 -6.8870749469481007e-01 -1.5812578711703924e+00 -7.6130940359898891e-01 1.0732168164652265e+00 -6.4593624408611738e-01 1.1191479420126704e-01 -2.7282613718650811e-01 -8.7115371165886657e-01 -1.0547884778343941e+00 -4.1805560059903007e-01 -1.2966832743857288e+00 4.4609942252872725e-01 -5.1504869776232653e-01 -5.5753645000113106e-01 5.3933850136717687e-01 2.2384345363799615e-01 6.1396455748188217e-01 1.2266562130057148e+00 -7.0388812143630886e-01 1.3454065364905765e+00 9.9761508656959086e-01 
        </Neuron>
        <Neuron NSynapses="32">
          -3.7075672540132121e-01 -4.5235341552190600e-01 -5.8876221062343949e-02 -4.3109577973409396e-01 3.4849470464479748e-01 1.3255020640874362e+00 4.5257141996914951e-01 4.6492843191773309e-01 -8.1159141695689307e-01 1.1136177479209513e+00 -1.2056434326837233e+00 7.4221531216500491e-01 -8.8401523348466216e-01 -4.2690188345579303e+00 -4.2129396589547619e-02 6.0337204047439963e-01 -1.9289468081639874e-01 4.9841182384778532e-01 1.1484195064841665e+00 -3.2538066835758744e-01 -5.8815537709762489e-01 8.8365125230977629e-02 1.3136708859457769e+00 -1.9205191499147305e+00 -1.4321548081727389e-01 -4.9664629521133746e-01 -4.8622389546716749e-01 5.6986099758764752e-01 2.4743305440564853e-01 -8.7447524884802075e-01 4.2777925315094101e-01 1.0434395865942161e+00 
        </Neuron>
      </Layer>
      <Layer Index="1" NNeurons="33">
        <Neuron NSynapses="1">
          -2.9220544354425720e-01 
        </Neuron>
        <Neuron NSynapses="1">
          9.6547346503747566e-01 
        </Neuron>
        <Neuron NSynapses="1">
          -2.1105866329814513e-01 
        </Neuron>
        <Neuron NSynapses="1">
          -2.3490628074185680e+00 
        </Neuron>
        <Neuron NSynapses="1">
          -1.1628828639207822e+00 
        </Neuron>
        <Neuron NSynapses="1">
          6.3943129898711792e-01 
        </Neuron>
        <Neuron NSynapses="1">
          -4.6678286408814762e-01 
        </Neuron>
        <Neuron NSynapses="1">
          -8.1134900039285543e-02 
        </Neuron>
        <Neuron NSynapses="1">
          2.3181332972191164e+00 
        </Neuron>
        <Neuron NSynapses="1">
          -8.0993819191199534e-01 
        </Neuron>
        <Neuron NSynapses="1">
          -1.5130692119958049e+00 
        </Neuron>
        <Neuron NSynapses="1">
          -6.8798472352098561e-01 
        </Neuron>
        <Neuron NSynapses="1">
          -5.5694809737411621e-01 
        </Neuron>
        <Neuron NSynapses="1">
          -5.3798951197921943e+00 
        </Neuron>
        <Neuron NSynapses="1">
          -1.0785456591012550e+00 
        </Neuron>
        <Neuron NSynapses="1">
          -9.9027845060275976e-01 
        </Neuron>
        <Neuron NSynapses="1">
          -1.8987898238690148e+00 
        </Neuron>
        <Neuron NSynapses="1">
          -6.6847887571582709e-01 
        </Neuron>
        <Neuron NSynapses="1">
          1.4880357071736405e+00 
        </Neuron>
        <Neuron NSynapses="1">
          8.1057156975208711e-01 
        </Neuron>
        <Neuron NSynapses="1">
          -8.2356638495623591e-01 
        </Neuron>
        <Neuron NSynapses="1">
          1.5887749527362727e+00 
        </Neuron>
        <Neuron NSynapses="1">
          -5.5088590504602308e-01 
        </Neuron>
        <Neuron NSynapses="1">
          4.3754689480470805e+00 
        </Neuron>
        <Neuron NSynapses="1">
          1.4366446902297254e+00 
        </Neuron>
        <Neuron NSynapses="1">
          2.7468515010290312e-01 
        </Neuron>
        <Neuron NSynapses="1">
          1.0864291034107760e+00 
        </Neuron>
        <Neuron NSynapses="1">
          1.2359929456045566e+00 
        </Neuron>
        <Neuron NSynapses="1">
          -9.9601872560744353e-01 
        </Neuron>
        <Neuron NSynapses="1">
          -8.9342113201541151e-01 
        </Neuron>
        <Neuron NSynapses="1">
          -2.0527296995695452e+00 
        </Neuron>
        <Neuron NSynapses="1">
          1.3883937354548268e+00 
        </Neuron>
        <Neuron NSynapses="1">
          5.6169952237431819e-01 
        </Neuron>
      </Layer>
      <Layer Index="2" NNeurons="1">
        <Neuron NSynapses="0"/>
      </Layer>
    </Layout>
    <InverseHessian NElements="148225" NRows="385" NCols="385">
      <Row Index="0">
        1.7200167959204052e+02 5.0059337179838455e+00 4.8439602831241388e+01 -6.1969384800606853e-01 -2.1555794875586219e+01 2.5379371478639356e+00 -2.0457978007121280e+01 2.6168524111408556e+02 1.7444446748860853e+00 -2.8137743462179259e+01 -3.0763117799504949e+00 -5.1726768148864224e+01 4.0985598275138374e-01 -7.8534766489992774e-02 1.5261416413025364e+00 2.8619804890796781e+00 -5.0792865840057666e-01 -8.4578564270037063e+01 -3.2186815552580521e+00 -4.9080423996124409e+00 -8.2991263547423308e+00 -3.0878168995890043e+00 1.7033857484382825e+01 -2.8163225533524733e-01 -6.5764107254771798e-01 -7.5060226250788929e+01 1.3560487615645181e+01 3.4176218806603598e+00 -1.3559819180188182e+00 -9.6611790837114011e+00 -3.8817758990640359e+00 4.2381832045665258e-01 -8.6294154770994766e+01 1.7129193642234841e+00 8.5512133206480328e+01 -1.4568000781860482e+00 2.8841511505701485e+00 -4.3626996449818307e+01 4.2247739426993377e+01 6.5707038051080872e+01 -4.1595449613512958e-01 8.7048253158472626e+00 3.8177316416761293e+00 1.8954770456481344e+02 1.9829767439014272e+01 -4.2107908867263877e-01 -6.7857958726175482e+00 -8.3035483799639476e+00 6.7258638737215115e-01 8.6089185698709727e+01 4.1724689796495262e+00 1.0552660263030884e+01 8.9024598142842670e+00 7.0335171213090497e+00 -2.7133818305560442e+01 1.8626487746135290e-02 -1.7331127134161903e+00 1.2616894494666120e+02 -1.2059809778557167e+01 1.2017872567756693e+00 1.0515624067256731e+01 8.4706705348390248e+00 8.6058613507261708e+00 -2.5083059562112560e+00 1.0685091274509232e+02 1.4553901219215680e+01 -9.5634228681163123e+01 1.0143046776181748e+00 -3.1536887350337064e+01 -1.2855582893093248e+02 -3.3007942796583251e+01 8.3443928955204001e+00 5.6974891899572122e-01 -3.0477422781536919e+01 -8.2173645196420741e-01 -2.1321489959720529e+02 1.8575090553968653e+01 2.8847987302225009e-01 -1.2691127418755240e+01 4.0856738025388619e+00 -6.7921273818205119e-02 -9.6279732917795116e+01 -4.1794537992821263e+00 -6.4557291267340045e+00 -2.8759339906958559e-01 -3.0403302013668716e+00 3.7579374213282328e+01 8.0429074964815994e-02 -1.1634063180505392e+00 -8.6322832002701446e+01 -8.9726478609437493e+01 7.2067850312307149e+00 5.6035167011278446e+00 -1.4179268791541661e+01 -8.4297150081586381e+00 -8.7945110432139995e-01 -6.8261298158038400e+01 -5.9502713165456900e-01 -2.9666090613215928e+01 -7.4466544159809711e-01 -3.1167266551192725e+01 1.3954380782731015e+01 9.9004079640114124e+00 1.1528772746345169e+02 1.6131405859257812e+00 3.2146126948031650e+00 2.4177101860604315e+00 -1.2204392050846032e+01 -3.0591412580755652e+01 3.3994581770532234e-01 6.4743877783047132e+00 -6.7980820438611964e+00 4.4695132125008374e-01 -3.4457177375740102e+01 1.8073381109476319e+00 4.3333827109305005e+00 5.2432471433406045e+00 -1.6217555216862891e+00 -1.0792140220143899e+01 8.4455292936746917e-02 1.7571451053425635e+00 -6.2461459573294832e+01 4.7462602611563000e+01 -6.1116483740303842e+00 6.7348023005294877e-01 4.3190421957040019e+00 1.7259901068309775e+00 1.5344475063719261e+00 1.6454045667710059e+01 -5.1363043843615301e+00 1.2373437608493245e+02 6.4136458583392875e-01 1.1779656467509002e+02 6.7877285858727006e+01 2.7190717556636557e+00 2.7775557194029034e+02 2.5101306853912875e-01 -3.8316409750946434e+01 3.6183145663312377e-01 7.8680854538160418e+01 -2.0771082681575876e+01 -3.9096491665178923e-02 1.7216464634866600e+01 -2.0928198398367726e+00 -8.1067016826647909e-02 -8.2739655802960357e+00 1.0141041522118632e+00 -8.8562047765146374e+00 -3.4901140935404840e-01 -4.6311150378630561e+00 -1.3589476412542469e+01 -8.7966656334033666e-03 3.7995200533830413e+00 -1.5852700473818558e+01 1.3595443132971218e+02 -5.8762673249420949e-01 -7.3647769725521206e+00 1.4793579781760529e+00 -6.1479666068298844e+00 -3.0179291421619219e+00 8.9691940332027499e+01 2.1737737344519239e+00 -1.4304081959737472e+01 7.2664166218827786e-01 -8.8910596039108270e+01 -7.3989738778751004e+01 -3.0667016492132348e+01 1.6768023005989886e+02 -6.3496513488965156e-01 -1.0074485351495646e+01 1.8363833483072769e+00 3.4410307256189014e+01 3.1853131977702676e-02 -1.9996773776014276e-03 2.3064303411008353e+00 9.5178641716382231e+00 -1.2786038307936836e+00 -7.7930935696740420e+00 -4.7722459065280276e+00 -2.7994759906659326e+00 4.1848106811695009e+00 3.3212625720560798e+00 1.6769854549606869e+01 1.1495473607534476e-01 4.4395741094630559e-01 7.0010863143011846e+01 -1.6248836160398079e+02 6.0856218782439697e+00 1.1964503352227169e+01 -7.6680789977959058e+00 -6.4429508087935661e+00 1.4851941202508459e+00 1.6390131188541687e+01 -3.7684920512241931e+00 -3.0643935022585651e+01 3.2615064396910054e-01 -9.9949205193540394e+01 1.0825707203228887e+01 7.6950365951789905e+00 -2.1469719297984284e+01 1.7123462473185741e-01 2.4105210608357268e+01 2.7197601544887995e+00 -1.2825807961922177e+02 -1.5510430449273310e+01 2.1922069397918820e-01 -1.2642910425622173e+01 4.4338896218516890e+00 1.2641999786564400e+00 2.1396643287548095e+01 8.2906814505714088e-01 1.9319210211445821e+00 1.6567743607995816e+01 4.5595682565090048e+00 1.2228090864271072e+01 -9.8594654911420299e-01 -3.9963511386440675e-01 6.1655961059735205e+01 5.9204543174304490e+01 -1.3521722005301959e+00 3.5025529359272305e+00 -2.0524922154483534e+00 -4.8833057425750370e-01 1.6017187790431739e+00 -1.9231995219269827e+01 1.5692434309727801e+00 9.6664027997101805e+00 -1.7629097958582585e-01 -5.2347135345966400e+01 4.5895141648343440e+01 -3.6860711402451249e+00 -1.0124799099350895e+01 2.5757286140492808e-01 1.6366667797410123e+01 1.0912425337841309e+00 -6.6289713130803932e+01 -1.2070331772630700e+00 1.9441194962751851e-01 1.0942530893470996e+00 1.6784102537439625e+00 -3.1533449148150094e-01 1.2537355146326085e+01 5.5424551009845047e-01 2.6638046066661309e+00 3.9434965301993583e+00 2.1231733769530425e-01 -1.3526403654306329e+00 -9.4284263628715115e-02 3.4861160975698624e-01 1.5168271427327660e+01 -3.5971247679926108e+01 -1.9768478603519688e+00 -1.2557937448663825e+00 2.9859502647152478e+00 1.9243817001971486e-01 6.5373842349493039e-01 1.8577187522766661e+00 1.5107908512464299e+00 1.4481473805680174e+01 2.8595408014654061e-01 1.2677444181434825e+00 3.7634350736418529e+00 7.2396564857770578e+00 -6.3884495894201592e+01 -1.4289122178206215e-01 2.3029541358144625e+00 -2.2239900817123112e-01 1.3051016873141601e+01 2.1359280046249784e+00 3.0462986442741102e-02 1.6371424945748743e+00 -9.6412628971017611e-01 1.0208927003168507e-01 9.5612705630730659e+00 1.0014861828602963e+00 -8.8840045239168441e-02 -3.9389655120398070e+00 8.3913109576906397e-02 -2.7127249215607070e+00 -2.1060501928916557e-02 2.1100729314315508e-01 7.3623994861773436e+00 -4.7861336973707516e+01 -1.5781193892202339e-02 -6.0871465816602810e-01 -4.6773099054582445e-01 -4.2575103720967988e-01 1.6469141647364272e-01 2.5097430065245963e+01 1.5061714742386085e+00 -1.4626153576264166e+01 -3.9704880801100262e-01 -3.2694328832304556e+01 -1.9997163649270487e+01 6.8868743724295571e+00 -4.7206468125975420e+01 1.1483410538128881e-02 1.1851962521575420e+01 -1.5414996812997050e+00 -8.0531118997470756e+01 8.7995944373540169e+00 -2.0754018268523199e-02 -1.0248107281006268e+01 -5.5949160155533084e-01 3.4883973750482672e-01 -3.0814589197208949e+01 1.5104843516387636e+00 2.1370141953605519e+00 -3.0381125442175843e+00 -1.7533459229465955e+00 7.8285483667935640e+00 -2.2739084233965187e-02 -5.6383602509874708e-01 7.1843427513982494e-01 -1.4538562426193309e+00 -3.9959122683905868e-01 -5.0894208039274014e-01 -8.0906811795017264e-01 1.1038315159486451e+00 -2.6843382979243704e+00 1.5855210750335851e+02 1.3092262001726329e+01 -3.8827909601918904e+00 -3.7720281199405026e-01 -9.3907207299285375e+01 -4.8798252775179236e+01 -6.7476944305446125e+00 2.7640981069423901e+02 3.2795832113127101e+00 -1.6756514505846440e+01 3.3296903897385057e+00 -6.4767337210344948e+01 -2.8376118077261218e+01 3.6909166752180189e-01 -6.9249838598310589e+00 -6.9154710771511674e-01 6.7201597068756869e-01 -8.3988103328604836e+01 -2.0726565994893198e+00 -2.3007336299314183e+00 2.0603162509801962e+01 1.9030874280068772e+00 2.7116589784046610e+01 -1.0290061044398229e+00 1.7562868922850274e+00 -1.3737486556569628e+01 -5.7909991357881609e+01 4.2110632033136142e+00 9.6575373778973699e+00 -1.4679943126926254e+01 -9.8671751289788876e+00 3.5581307024290822e+00 -1.8120587193139919e+01 7.3547723237572571e+00 3.8076831686390278e+01 -2.6787173023730357e+00 1.2765008679716776e+02 5.2542341304174187e+01 1.2232893845453674e-01 1.9487900861369717e+01 7.7287435734806431e-01 2.5254053601286948e+01 4.7776089166608608e+00 1.4709203564108384e+02 -1.4014500117235071e+01 1.8722291176906550e-01 -6.7786350445823444e+00 -8.2231914082876916e+00 8.7140721093925988e-01 -1.7486174047070655e+01 1.0338497105293656e+00 1.4088806471775852e+00 -1.1407723247859860e+01 -8.1167649764834806e+00 4.8358031814885294e+00 1.6333632272879511e-01 -2.5980429432126031e+00 1.3164486903280004e-01 1.7361823172642599e+02 -3.8680625875614552e+00 -1.3859623291410230e+00 5.0997559461566881e+00 7.6833952515042370e-01 -3.7812327814330331e+00 -1.5110642466074324e+02 
      </Row>
      <Row Index="1">
        5.0059337137651525e+00 1.4835506791810573e+01 -2.5656363907957513e+01 -3.0243729196814784e-02 -5.6737162014829936e+00 2.8567506819095755e+01 -3.8910085814894018e+00 -1.0358677537157815e+01 -4.9254011545402321e-02 1.6643716937835755e+01 -1.0750512863344985e-01 -1.6994162775969819e+01 7.8674902033236260e-01 -7.1062929771763067e-02 2.1530456306207593e+00 -7.7848349484185331e-01 2.0683940654987465e-01 -2.6159954037815432e+01 -6.6540028024836184e-01 -3.0521445802986751e+00 7.5675990398930431e+00 -1.4755872069450142e+00 3.9288874428048106e+00 -2.0562001863317336e-01 1.5044016987624502e+00 -1.4036946898899600e+00 1.8711772381969922e+00 2.5131737521222558e-01 -2.2163064609983367e+00 9.5138887657965832e-01 -4.8757198947291669e-01 -3.6401526450976149e+00 -1.2152533006833725e+01 -9.9213020599454058e+00 1.3268226816736089e+01 2.1408730729183954e-02 -2.9238294481273240e+01 -8.4846343762585860e+01 8.2755662336045326e+00 6.0397923473053751e+01 3.6604234471096231e-01 1.0390378507193690e+01 2.4684528864033672e-01 -6.4672701653696549e+00 -1.0235919977660668e+00 -2.0567321763683497e-01 -2.2816847964001683e+00 -1.1750963821351572e+00 2.2102238010727127e-01 -1.6690089048324218e+01 -3.1355483284387475e-01 1.7545591270642058e+00 -6.7229513230095215e+00 2.9941565564013648e+00 -5.0206103696305435e+00 4.7747311708923440e-01 3.3129892221139912e-01 2.2465643239484141e+00 -9.5907473572919386e+00 3.0065588930824605e-01 -6.6267536414345252e-01 -2.3853066647271595e+00 -7.3252876243487730e-01 4.0231184138225151e+00 1.7614993554613186e+01 7.0953896330555120e+00 -2.6626583604890357e+01 1.1814475394875351e-01 -1.9330390300202507e+00 1.3028972452102309e+01 1.9839576549046840e+00 -2.0234207867027419e+02 -5.2514224814731814e-01 1.1664872103575437e+01 -9.7332513191827275e-01 -2.9567791180998469e+01 3.9171326447059580e+00 -7.6800786320096931e-02 -1.4757330424054671e+00 -5.0577530603039556e-01 3.1353928896077793e-01 -1.4236355434475172e+00 1.9897504377416392e-01 -4.0801088901623892e+00 3.8319779111415961e+00 -2.7578114136023961e+00 1.7664852835914508e+00 -1.8718699643272790e-01 1.6617227854219965e+00 -1.8269763641910295e+01 -1.3450993870973122e+01 5.1571166429838322e-01 -2.3128368945248052e+00 2.8936809335877278e-01 -4.0865929217534835e-01 -1.7018250183191497e+00 3.9498259891392378e+00 -8.2288268090101262e+00 2.9559823268006195e+01 2.7164927767460101e-02 2.6162303943172294e+01 3.9748250227819085e+01 -2.3222159118483976e+00 5.9126199037776253e+01 -9.6001583619791553e-02 -4.9313457884714289e+00 1.2524496048321110e+00 1.5204273350752633e+01 -1.3006305398764626e+00 -2.8404266123922023e-02 4.6551385486089565e+00 6.1879505086369679e-01 -6.9483491579920134e-02 2.3963322291736972e+01 6.0111402354840926e-01 5.0725585583625925e+00 3.1810338294649725e+00 -1.0909782509718071e+00 -2.5171658573936142e+00 1.4042660737396317e-01 1.6815679616543722e+00 -4.4665454518849632e+00 -4.1719347457893669e+01 1.5097739219312505e+00 5.0680656972414209e+00 5.7677343492975885e-01 1.1086665164855778e+00 1.5028559978117295e-01 -7.6345562691187059e+00 7.9265344732178955e-01 -7.5796713218380374e-01 -8.2056027354595829e-02 1.6977331194329963e+00 6.3384529839112290e+01 -5.4000745180755922e+00 3.0562760873111529e+01 1.2841318833879528e-01 4.5942135551193218e+01 4.2714450648083646e-01 3.5251094840359105e+00 -1.1823870779138828e+00 -4.7725391527397576e-03 7.1276503003396074e+00 -6.2737655487879485e-01 -2.7420077960894318e-01 -5.2587900422182088e+01 -6.8503617368373537e-01 4.6114201140454671e+00 2.4637558426880695e+00 1.1774387652977365e+00 4.8732645851560310e+00 -1.3166336486836497e-01 -1.4571347443308813e+00 -1.1256058484000571e+01 5.0566722146521109e+01 -4.4540699974802522e-01 5.6120657799318705e+00 1.4944540567297571e+00 1.2950869507092497e+00 -9.1112649156350245e-01 1.3449145557022735e+01 8.7956955423523784e+00 -1.3264648336366122e+01 2.0131522933525225e-01 -2.2701466208795484e+01 -5.1959236009899648e+01 -5.3397635980781821e-01 -1.0326551865040841e+02 -3.9933372060412242e-01 -6.4555052411180966e+00 -7.3101660233311394e-01 -1.0777294285216556e+01 3.3241436158349047e+00 2.0073392490567860e-03 -1.1177569659652056e+01 -1.2205998742349977e-01 -2.6345161139859585e-01 7.8985874726119247e+00 2.7489905736076048e-01 -5.6774792786583594e-01 -2.3645198555609030e+00 -7.0752450733459227e-01 6.6084680676877605e-01 -4.9152122071715383e-02 -4.9098590855260449e-01 -1.4764656330229769e+01 -3.5176079385129199e+01 9.0083637318282017e-01 -1.1458506190196083e-01 -1.4082319146879243e+00 -2.6740299666009715e-01 -1.6069500019033245e+00 9.9025027232026375e-01 5.6874512790161216e+00 -1.0591848974215125e+01 2.8322923156650071e-01 -7.2835095582444808e+01 2.2098432837621175e+01 -4.0251877757282397e+00 1.6354749527492402e+02 1.6557730425156297e-01 1.4581816904471239e+01 1.7069740620192597e+00 -1.7913601481972567e+01 1.4614113901281920e+00 1.1001411150482671e-01 1.5225304809687792e+00 -7.5881033258125896e-02 7.6867506919680417e-01 1.8719464500363010e+00 -9.0132021203362012e-01 -8.9380960312335445e-01 -7.6398995124810938e+00 -6.6063675470613914e-01 3.5115746291023955e+00 -1.7565785260493905e-01 -1.1776605980960366e+00 4.4686593151340674e+01 -4.7430017028303403e+01 -5.5631960604367037e-01 -2.0124524004096100e-01 3.0817068207910969e-01 -2.3402067001884674e-01 -1.7872408330776062e+00 2.9443125670774775e+00 -1.1879532241922908e+00 -1.2856622825852117e+01 4.6576714239849909e-02 1.6161117346715548e+00 8.2093322527486805e+00 -3.0842387453025566e-01 -2.4515731187834291e+00 9.2088604651764550e-02 1.2132609593595355e+01 2.7223681575610392e-01 -1.3390994204794231e+01 -7.8784686845151164e-02 4.8380652116678802e-02 3.9637188290954355e+00 8.7827097594339798e-01 1.0924409469491736e-01 1.0276700314677047e+00 1.3478936587405044e-01 -6.5315918980503385e-01 -2.9893753501783527e-01 -6.4244264293572662e-01 2.2585836164367823e-01 4.7756632749465511e-02 -8.7102633805951868e-01 -5.4750080798289460e+00 -6.9322801124465130e+01 -1.6817321262236717e-01 2.6723471512929908e-01 -6.7145774556228888e-01 -3.9995624559693660e-02 -5.6450996920683405e-01 -9.0500927213676377e-02 -1.5154763811736458e+00 -2.8763622475295794e+00 1.5990834264164124e-02 -4.5861279038773359e+00 -2.1144245102925520e+01 -3.1802685227112670e-01 -1.3052253770754060e+01 2.1980873765837239e-02 -2.1723584857707685e+00 5.0008396923495499e-02 1.7022576055281609e+00 -9.8098768134758138e-02 7.3947140906643408e-03 2.4985251502411376e-01 3.0862118497179569e-01 9.9732400719226885e-02 1.2108673410334863e+01 2.5249407063543577e-01 -5.3222459106877329e-01 -1.2143105737141013e+00 5.2101025521865220e-02 -2.6314524799176103e-01 1.3013471274991625e-02 -3.3955855940541113e-01 -2.2321319679230447e+00 8.3202237032196358e+00 9.3799320579837447e-02 1.8016612210088093e-01 -3.8208828151768348e-02 -7.4243153245805965e-02 2.3162947013391136e-01 -9.7143616451480086e-01 1.1726007782037977e+00 1.5080422778547108e+01 -1.2322171159428102e-02 9.5774373017556602e+00 -1.2301711629517711e+00 -8.7574065286149083e-02 8.0301828080511726e+00 -1.2755848576859130e-02 -1.3801814282027044e+01 -3.6912551954035999e-01 1.7512718045382361e+01 6.9134384139592220e-01 -2.5893897159031082e-02 -3.9096309441973478e+00 3.4900735504641600e-01 3.6733562353431080e-02 1.6064291533915629e+01 -1.0810373391646644e-02 -1.8132575120098906e+00 -4.4949119160191892e-01 1.0411260424494104e+00 -6.4363397467463512e-01 4.4031090071177059e-02 3.4965358847470362e-01 1.2317006322437281e+01 -6.2301421344489931e+00 1.0962283308483334e-01 -6.0420915720029900e-01 1.3464959978378155e-01 -1.8964831763621015e-01 -2.5826858133326347e-01 1.4486821040099624e+01 1.1884068423811662e+01 -1.4417852922124275e+01 3.4128511061685973e-01 -9.7054782512990855e+01 1.3157176092469678e+02 -7.0318430300789245e+00 1.9176355700562226e+01 -1.4495710999693223e-01 5.1316536972525839e+01 1.8541343611724486e+00 -5.6372467033431775e+01 3.6105833115472441e+00 -2.0983339912198656e-01 6.3265573913278672e-01 -1.2186134086508051e+00 9.3055301313883465e-01 1.9030844276019931e+01 -1.4283419075753963e+00 1.2449436234921123e+00 2.4902092377559129e+00 -3.6702334168806852e+00 6.3944614853671826e+00 -1.4564574783930717e-01 1.1844244870210121e+00 3.5058992639885460e+01 -6.0074894666798826e+01 1.4555351662166647e+00 4.7835871656289042e+00 1.0808018382800912e+00 4.9713509516280058e-01 -4.3042151949618974e+00 1.5685219727268755e+00 -8.3418281505754397e+00 -9.7667389811561929e+00 -9.6194882483716326e-02 1.1230570766765258e+01 1.3387548070529533e+02 -1.7688751328922749e+00 4.0135767879889421e+00 7.9532815154998771e-02 -2.6229033535992542e+01 5.4262356572520076e-01 9.0380326765343799e-01 -9.7352125391147082e-01 3.6948502702663472e-01 -8.9381477720938385e+00 -2.0789682523510722e+00 5.7292460084193497e-01 -1.9664180245193972e+01 1.0360609576439452e+00 -2.8020318513738607e-01 1.4849082807976854e+00 -2.2658744931619168e+00 1.4466725729436902e-01 4.3557027747083615e-01 4.4749935676963668e+00 -4.8123604220551126e+00 -3.6815920495394607e+01 -1.2147840984662621e+00 1.9945508953869684e+00 -1.6148477981379221e+00 5.6792378243571129e-01 1.4004792893383389e+00 -1.6538974428445724e+02 
      </Row>
      <Row Index="2">
        4.8439602778158644e+01 -2.5656364020309400e+01 1.6912654125365584e+03 1.3288848665229835e-02 -4.7397765334041333e+00 -2.2845598805561852e+02 3.0521977104858355e+01 -2.1066135775268395e+02 -1.4159556345794506e+00 -2.2824360759486098e+01 2.4204588395674094e+01 1.3194732577492479e+02 1.6217372061678009e+02 -9.2569946423952942e-02 7.6122589245683699e+01 -2.3750368928177615e+01 1.1486925901354579e+00 2.9280086556136212e+01 1.4774460198412193e+01 -2.4741860660971170e+01 -5.5966095932371061e+01 1.3850357934434292e+01 -8.6706333000407255e+01 1.3377884588000882e-01 -1.5607270232082486e+01 1.1011313225581617e+02 3.8226170679308007e+02 1.5940068127233934e+01 -2.0028982157627713e+01 -2.0920724468891088e+01 -1.6961749343685430e+01 7.4075497682230855e+00 1.1171602121573966e+02 -9.8345815707200330e+00 -4.5499195325458231e+02 2.2273283871793179e+00 1.3383556076235493e+02 8.3343231400028799e+02 -1.8483332155511164e+01 -7.8048510793744310e+02 1.2510500942288867e+00 -2.0350121996417067e+02 -3.1946256130382615e+01 -9.2616718925852297e+01 1.9030323601151636e+02 -7.6179402337940028e-01 -1.7687371495638524e+02 -2.4053165857371868e+00 2.6274010249565172e+00 1.8119754822185095e+02 -1.3624061074446963e+01 5.0363256677569204e+01 4.1585233847140437e+01 6.7376141505453964e+00 5.7020470624924954e+01 -7.3015684448121210e-01 -7.6012655226806345e+00 -3.6458041020012638e+02 -9.2859690648129387e+01 -2.5884687358873812e+01 8.0187503221619465e+01 2.7592299691244335e+00 1.5522849247986837e+01 3.5015965320262499e-01 -1.3490850354488666e+02 8.3411518582805400e+00 1.2161270658402032e+03 -1.9223368120689601e+00 -1.0144496727727261e+02 -1.0163933882116488e+03 -6.6293760130772199e+00 1.8222828711729771e+03 -2.8084824946746672e+00 -3.0978790303639988e+02 2.3737818857852211e+01 -1.3424065201345954e+02 1.9190872613132186e+02 1.7491453459275446e+00 5.0492441319661523e+01 -2.2658508684908249e+01 1.3813564484867191e-01 -1.5049007193535729e+01 8.6507396853321925e+00 -5.7602336892409113e+01 2.3136361409519651e+01 9.3490558043750802e+00 -1.0400865307372341e+02 3.1761088296070056e-01 -1.1676150763404971e+01 3.0775573150410935e+01 -3.4944221288075801e+02 1.0760300547964182e+01 -8.5484107291444118e+01 4.7611713446908652e+00 -5.4187356437473547e+01 -4.2084449690715218e+00 -6.2706342263719392e+00 1.1297228568391979e+01 -6.9366212558107941e+02 -1.7817887257411655e+00 -1.4548412105105413e+02 -5.6909989141405163e+02 -2.8033755450159120e+01 -1.4921472822236542e+03 3.2233708971178547e+00 1.4903667408566045e+02 -7.4493671134133166e+00 -1.0711983263217314e+02 -1.9042698021618617e+02 3.7197660491992424e-01 8.8750243603036978e+01 2.8899514314642090e+01 -6.9744162454221215e+00 -5.1030414457546249e+02 5.3702627448956797e-01 -6.0224327784663529e+00 -1.5589574506686091e+01 2.1778055163357237e+00 6.8672051191952434e+01 1.0192493802223128e+00 -2.6597553546127606e-01 1.6173682103354767e+02 3.0790283685821254e+02 -1.0657263766134449e+01 -3.8856062531906588e+01 7.6500270691928893e+00 1.1020720366745833e+01 -5.9514371958190146e+00 1.4176890382578580e+02 -2.0574888736613900e+01 -2.8350727543850830e+01 -1.1179868934371839e+00 4.4571144523391683e+02 1.2944267363244785e+02 2.7829170567039164e+01 -5.6139315981942298e+02 1.9082436927203226e+00 7.8298102477593090e+01 -4.3792465778201652e+00 2.4810541044060662e+02 -2.1340898649893370e+02 -5.8350616320945847e-01 1.3428552448943134e+02 1.3997612295247563e+01 -3.0286714457421464e+00 1.5867772047605200e+02 -3.2969823471877469e+00 -2.4430981790306653e+01 -2.1225426567986204e+01 -9.4271957618685569e+00 -4.1746561875184796e-01 1.6515654968741353e+00 4.3734731683519037e+00 2.1686576937722916e+02 6.4278767309200259e+02 9.9298007423211878e+00 -3.5541260104118308e+01 -3.7388695751141734e+00 2.2114263923382779e+01 -4.5551714394997767e-01 -1.1124046871323333e+02 5.2129195497295804e+00 6.3964510841477193e+02 1.4795855059851801e+00 -1.5436683051153076e+02 -7.5214164537404940e+02 -1.3973364105888209e+00 6.3273837549427628e+02 -2.8407635934687714e+00 -1.5793059000361259e+02 2.2211457399038693e+01 1.3963719685077319e+02 1.6132229510044854e+02 1.5522542709328104e+00 5.0631363433784628e+01 -2.1075985001015717e+01 7.0995817167667248e+00 -1.3401676366932651e+02 4.3431591650355488e+00 -3.6943475352597957e+01 6.6338438010304444e+01 4.9736973951929109e-02 -8.6842378156297244e+01 -1.1052127390373376e+00 8.3732333778270114e+00 3.4640388376096872e+01 -7.4935085505637221e+02 -8.2826269023585777e+00 -9.8087648307234616e+01 1.8615726937637827e+01 -3.4181633027822983e+01 -4.8740851655102091e+00 -1.2407913567592993e+02 -2.8645474302847553e+00 -9.1630376984774557e+01 -3.2397140568361413e+00 7.3826551349846710e+01 3.2807739472653560e+02 8.0131295579470276e+01 -4.0490716471967016e+02 3.5017554200608991e+00 -7.4773719086069065e+01 -1.1591968080567586e+01 1.6758674729812898e+02 -1.1526158118434266e+02 -7.5623200704450344e-01 -2.3360091827618604e+01 -1.6135047248532096e+01 2.8163111121538389e+00 -7.4884704616619558e+01 7.7829479064114198e+00 3.0519046545877828e+01 1.0487012378346256e+02 4.1311502425090483e+00 1.1602337754360178e+01 -6.5369427513125533e-01 -6.5624193499908738e+00 -4.1239476278723419e+02 4.1741868994504966e+02 4.1411456322005664e+00 9.6323854386815952e+00 5.3833188586733609e+00 -1.3160423210758283e+01 1.1732707333158199e+01 -3.0020350965128245e+01 3.8605800185278416e+00 3.0211905031401761e+02 -1.7891816201758033e+00 -1.1636181373155699e+02 -2.8976574187228721e+00 3.5308738996117242e+01 -2.0283646695825502e+02 1.4151651966519840e+00 6.2270662355077889e+01 -2.7034854383797180e+00 1.2357823543895945e+02 -9.8431283848146123e+00 2.1411976919881948e-02 3.5615386716854594e+01 -2.0617751426882247e+01 2.4373300336776698e+00 2.1579033550609736e+00 2.5307576066914628e+00 5.5711178313903076e+01 2.3078236258176453e+01 4.8372701033421652e+00 4.1657455354835591e+00 5.0907171946121910e-01 -8.9111542328884692e+00 5.0684139795550294e+01 6.7890167573898327e+02 -5.8768895246132935e-01 3.4259376519617881e+01 -8.0151076519304105e+00 6.8088919777293686e+00 -3.0201952403698895e+00 2.2358836185386529e+01 -4.6542924227810190e-01 1.6320862283460983e+01 1.5957285326063830e-01 2.2643784692345239e+01 1.0905825319380071e+02 2.1613165685561469e+01 7.7864555150108487e+01 1.9932719255101605e-01 -2.9652014322979877e+01 3.2242642104058157e+00 -2.4119227391695045e+01 2.3951594445470161e+00 7.3713105567059969e-02 -2.2034784684848930e+01 -3.5048149190985645e+00 1.2421142360129136e+00 -8.5411622368942197e+00 1.7025630875356645e-01 8.0829184212342078e+00 6.4112822386923654e+00 -8.3683828044052366e-01 8.8926837684240976e+00 -3.6746400888277089e-02 -1.6863720896800560e+00 -5.9595779004282186e+01 1.0018453290968635e+02 -7.5344432630351132e-01 1.0461382748016264e+01 1.7787481305866848e+00 -3.8565948309035991e+00 1.8787178973400003e+00 6.7030401855951027e+01 -8.1584467869644470e+00 1.3970828333714667e+02 9.0406464789621860e-02 -1.6785897482639024e+02 6.6047237386772323e+01 9.6258820612831606e+00 -2.8200753068185293e+01 1.8647406790914742e-01 6.3150341147152020e+01 1.6027518198792823e+00 -2.5043249346857925e+02 1.4404687045535081e+02 -5.5661501233529989e-02 1.1804090472801906e+01 1.8746760665206299e+00 2.7014296814366584e-01 -7.1915617446841210e+01 1.5001240304276544e+00 1.4523858712699869e+01 -1.2356845535594298e+01 3.5958780478562100e+00 1.1658771420242866e+01 6.7268731345051125e-02 -6.3297122170944355e+00 -1.3983393650388163e+02 1.4286299832071302e+02 -2.4349578153500819e+00 -6.4306608353125636e+00 -1.5541137532508007e+00 1.3625058416959046e+01 -5.9263055026838174e-01 -6.4802111712114780e+01 -2.7476892126321133e+01 1.4470208809683290e+03 -5.2591303511009047e+00 5.3328831693051075e+02 -4.9624848289389047e+02 7.7296406064954823e+01 -3.5328663432723988e+02 4.7815201473942892e+00 -3.4385231369211266e+02 1.1428747448644707e+01 2.7229750979588312e+02 1.4158268514185181e+01 3.7635890941685712e-01 1.9907547379008577e+02 -2.9219106710941517e+01 3.0022208160227137e-01 -6.0561279791608536e+02 1.7440281099587054e+01 -7.9512052078446231e+00 8.1578970173136796e+01 2.9082593435166558e+01 -6.6454928158436530e+01 1.3506462431743373e+00 -2.9259867165792684e+01 -2.3852625575829472e+02 7.9286583693078092e+02 5.6880018824630012e+00 -1.2188032013313358e+02 -1.2618061281787263e-01 -2.7498484183169772e+01 4.2303325086888215e+00 -6.2004087671476228e+01 1.3406995556558760e+01 3.5569113215813610e+02 2.0492439140410923e-01 1.6526423545690278e+02 -7.9473417962890926e+02 4.3076854181338831e+01 -9.4378750322617464e+01 -3.2627036746456781e+00 4.1734091809156126e+01 -1.2007585297656647e+01 1.6640249474230831e+02 -2.2515224500490578e+02 -1.7192167369033924e+00 5.6134479944321356e+00 7.7048468677587039e+00 -4.9166845729237352e-02 -8.4689537258800499e+01 8.8658711947106301e+00 1.8067590829374133e+01 -1.9724082645929272e+01 1.2938782669376476e+01 1.9324828746235205e+00 1.1312076761298613e+00 -1.5160452504841922e+01 -2.1289949706745276e+01 4.1376010131873915e+02 1.1322463179702961e+01 -3.3991703916396361e+00 -1.0651246657421552e+01 5.9459754305376947e+01 -4.2069023323834926e+00 6.4081968544712765e+02 
      </Row>
      <Row Index="3">
        -6.1969384732653121e-01 -3.0243724052825605e-02 1.3288824091827578e-02 7.0073593331659567e-01 8.1512508374364501e-01 -2.1161432135361959e+00 6.7483475094255752e-01 -1.0376121972275907e+01 1.0255786917652987e-01 1.0161377062834749e+00 1.3182623957474837e-01 3.1977645736542950e+00 4.8282990156446087e-01 -5.0308953104047614e-02 -4.2166589809160754e-01 -2.5943735753957614e-01 6.2942543195887435e-02 -5.4183762844619512e+00 7.9062890904939176e-02 4.0918298416360316e-01 -9.9762221839927145e-01 9.0372363154498786e-02 1.3652388839639884e-01 3.1071540562417135e-03 3.4780060202425467e-01 -3.6067668175102536e+00 -7.7642112451173197e+00 -1.7419220101834854e-01 2.3998920420291603e-01 5.2585951826253596e-01 3.2687297175904173e-01 -2.0738667771709716e-02 -2.9375613321793215e-01 -1.0599063547249343e-01 2.6896501072081715e+00 -2.7055161203441430e-01 6.9900229568763894e+00 8.3816347032844263e-01 -4.5031129465683217e-01 -1.2841489806706118e+01 -8.7533645740942995e-02 -2.8961528182464147e-01 -1.8368585508735905e-01 -4.4636384546101961e+00 5.0485521024873581e-01 4.7985047835246583e-02 1.4892679694551139e+00 5.8070690745637377e-01 2.6462903748021543e-02 1.2383363999837274e+01 8.4732027380473057e-02 -1.0378479286644480e+00 1.2335503834899986e+00 -1.3457918789391043e-01 -1.0774833854221959e+00 4.3702253487712221e-03 -1.6516199781164920e-01 5.4142699025381660e+00 1.0820926967384683e+01 1.7758133559245445e-01 1.0553483491107940e-01 -8.1220255115360873e-01 -4.8071268141542156e-01 -2.1166656048548516e-01 -1.6290031598324348e-01 -2.2762803602225767e-02 -7.9848684342626020e-01 4.5726312289058896e-01 1.1757129031690383e+00 -1.6563085786100586e+00 1.1831858144721685e-01 4.0166245994156853e+00 4.9831139392833554e-02 6.8305535362736247e+00 -2.4425342362968630e-01 1.9578601129801356e+00 8.0265342094961001e-02 -8.8376633678217284e-02 -1.5901412384563862e+00 -6.6765258999941290e-01 -6.2904727981539510e-02 -8.3004398968780269e+00 -9.2220929085753522e-02 1.7728369843543998e+00 -1.6279187689018171e+00 -3.1514221490037853e-02 6.6482035768326508e-01 9.2116975195005918e-02 3.1669578002736748e-01 -4.0374918753496107e+00 -4.3303142999380810e+00 -1.4982367507512936e-01 -2.1424769935494070e-01 7.0036992670651610e-01 4.6792429746531627e-01 1.0768752461112935e-01 8.9659053522181120e-02 3.1518460719976993e-03 -1.1740611678211483e+00 -8.9765428414607884e-02 1.7251362684493059e+00 -2.3747706188425255e-02 2.5719150633046250e-01 -6.1190833175071582e+00 9.2771941794720536e-02 1.2935017531033211e+00 3.2827067571423030e-01 9.0662383784665579e-01 -8.2016245514505637e-01 1.1030043615198735e-02 1.0382749393107102e+00 -1.3865742157944849e-01 8.2154258987834211e-02 -2.1840677812042237e+00 -8.0113917797949907e-02 -7.5732645498300155e-01 -3.0446381883617768e-01 1.0476332208875465e-01 4.5890941224280446e-02 -4.0230731622758531e-02 8.0293772727879090e-02 -3.3420964070741377e-01 -1.5099516474106638e+00 -3.4997516488096903e-02 -6.5341759799541588e-01 2.7148692932861784e-01 -3.0673509233670843e-01 -1.4766817319650338e-01 3.0692131940680334e-01 1.2674161839126985e-01 -3.2698789618025725e+00 -4.8553049392031294e-01 -6.2937903547784195e+00 1.2589411014288400e+01 6.2933346891932929e-01 -5.2989213089496374e+00 8.8592328952913912e-03 -1.4555788190673837e+00 2.5050123470335528e-02 2.7851034827741721e+00 -4.3483510553232907e-01 -1.2657335655665281e-02 -4.7471233408312064e-01 3.9567851554425104e-03 6.4573158492499116e-03 -5.2211382716753825e+00 7.7948551063095062e-03 6.1781207919980874e-01 8.2341493173872848e-02 9.5148143095265814e-03 4.5268656382800565e-01 -4.6273841372233893e-02 -7.2527628265386668e-02 -1.1017341566391887e+00 -4.3201928988278340e+00 1.2080163618183858e-01 -2.8540156189096111e-02 7.1110186985660934e-02 5.1305119559093115e-01 2.5471513900153642e-01 -2.0173450737242415e-01 -2.0158479701659804e-01 -6.7900506824945639e-02 4.1646520927781988e-01 6.2288656487015226e-01 -1.7697025735797990e+01 -2.0600137638864391e-01 -1.0125105460766262e+01 2.0065539646153419e-02 -3.4294641735033982e-01 -3.7915617549009345e-01 -2.1428370964950636e+00 2.8087690385190134e-01 -4.6415961891522514e-02 -2.9645137434252860e+00 -5.4225083860096157e-01 -2.2378016549792221e-01 -6.9811411639550354e+00 -1.2271918838945037e-01 1.4740799640437148e+00 -1.0623098097943120e+00 -3.0714640843928703e-01 1.8802376877923974e-01 8.1979449716615832e-02 5.5844716232789443e-02 -3.2500933054841212e+00 6.4465934202902841e-01 -9.9511076071095994e-02 -4.8764317122614825e-01 3.7849955279684144e-01 6.9072520240123203e-01 1.8053260283998016e-01 1.3652364081888912e-02 -1.8153257942702819e-01 -1.3089457966513667e+00 -3.8869622509163787e-03 2.5473577548585635e+00 5.8284650401165123e+00 2.3662735618316424e-01 1.4424711325591158e+01 -4.6724143097439899e-02 2.4047173462411147e+00 6.7397583805692187e-03 -8.1635654084813680e-01 4.0355001049416828e-01 -7.3618228036393916e-03 9.8753179424995485e-01 1.6855681558952396e-01 9.2823995061521100e-02 4.8064598415759789e+00 -1.7763475235248272e-01 2.2682778512788548e-02 -1.0985225225190354e-01 1.2457641417904869e-01 5.1253837292816296e-01 2.9446005617564303e-02 2.7869591794573462e-02 1.6128744239806441e+00 1.6261606676752844e+00 5.5838154919018224e-02 6.7343624749097525e-02 -2.6350012044892912e-01 -9.0832937220228172e-02 1.1985546777287992e-01 -5.2007954479815009e-02 -1.9365617773949049e-02 -4.8808180820922686e-01 7.1950647504601964e-02 5.6897090680508811e+00 2.4249817906252757e-01 3.5298986839036983e-01 -8.5689186352120750e+00 -3.8377652317139049e-02 -1.2093795484204004e+00 -1.1310326859568035e-01 2.1249550724003496e-01 2.2617024358052856e-01 -5.9299654890282438e-03 1.9757431475901416e-01 1.0590736076151985e-01 -3.5406617527770134e-02 1.5438559119735062e+00 2.6827939958219138e-02 1.7454643571333242e-01 -6.9824520616930286e-02 -2.4786101680290329e-02 1.7883583761898214e-01 2.8296797257076733e-02 -8.4553217901099376e-03 4.3458675056207463e-01 -1.2337318808705573e-01 -2.4254982202427056e-02 1.1948796470626533e-01 -1.8698378202002497e-01 5.5254490005067380e-02 9.8659446482626145e-02 -1.8334755752549808e-02 -3.8020221874064536e-02 -8.5096210544565720e-01 -1.4221080910288211e-01 2.7879872696449146e+00 1.4490090600148640e+00 1.3763890386227351e-01 -1.2269989560433880e+00 1.4406755443458940e-02 7.7752959523308574e-01 2.8228564073097887e-02 9.8718800800544548e-01 7.9513190515582644e-02 -1.1793084530434383e-03 -3.0616021726793397e-02 2.7821289940385373e-02 1.9225388219455609e-02 -7.3427774948965963e-01 4.0626927664219402e-02 1.4116951976896916e-01 2.8885597127820972e-01 3.4072716332775817e-02 -5.4078240354232018e-02 6.8723946680187172e-03 -1.0463496884516916e-02 -4.1198993708718123e-01 -1.4064754060884181e+00 8.0800313936956747e-02 2.2703921631511276e-01 9.0394869037465561e-03 1.5627445332817923e-02 4.6716593601910952e-02 -2.3813882294765363e-02 -4.2482391209761328e-02 4.3999103011433172e-01 9.7782994860480282e-02 3.6340428927910926e+00 4.3956330233325369e+00 -7.0768470841073017e-02 -4.9328058705842182e-01 -2.7236739131111971e-04 1.1666981546287964e+00 1.0417862405766225e-01 -1.0622352496026473e+00 -5.7608489390305495e-02 4.9769415542758270e-03 -3.1704740507554313e-02 2.2844568199147583e-02 5.8611562345933831e-03 2.1602968200301280e+00 3.4118729932462247e-03 -7.2143011979742377e-02 -1.6938314203470600e-01 1.0971331931611858e-02 1.7131945104887791e-01 9.6974984261950857e-05 4.5353178371286523e-02 -2.8291194827397703e-01 1.5838630947426053e+00 -5.0594434020576763e-02 -3.4712496453662596e-02 5.8518466539109582e-02 6.1723413331915694e-02 -7.0328464636014498e-02 -4.3364130281165852e-01 -1.4733907891671560e-01 -4.1695605714494635e+00 4.2806372230698186e-01 3.3244192625605304e+00 5.6989431594714164e+00 1.5635779567706483e+00 2.1875038764003563e+00 1.3321999784803340e-01 9.0749129445686094e+00 1.2860856545883520e-01 3.8941899557223039e+00 1.9682473158016622e-01 -1.0802847026184695e-01 -6.5622975422713292e-01 -4.9714526812474319e-01 6.9544160153185250e-02 -9.7692311157557583e+00 -1.8207758933095175e-01 1.5868763863038038e+00 -1.6866829200891447e+00 8.2479532045784759e-02 1.0248073676231013e+00 6.7088453556982730e-02 4.8648677353625530e-01 -4.9960951007490024e+00 -1.3622088503156959e-01 -6.4095186581011918e-02 -5.4554358525213231e-01 6.6614676897461511e-01 8.1490896277220026e-01 2.3821383272758379e-01 -8.0399100404404678e-04 -1.0935781681008744e-01 5.7263292158025347e-01 9.6626578231022553e-01 -1.4903190899876449e+01 1.4190949242266675e+00 2.4462476604923422e-01 -1.4449570634306594e+00 2.0086501318256572e-01 2.4613183132306000e+00 -3.2256084021110054e-01 9.9042071380794827e-01 -1.7524342203436571e-02 4.7324632673112169e-02 -1.2332898178284228e+00 -4.9657207559513639e-03 1.3338251247456601e-01 3.2134137646134159e-01 7.3003201283491304e-02 3.9662959202751835e-01 2.3417300878472924e-01 2.6414453399469651e-01 1.9721471329767493e-01 7.9718713007130404e-02 2.9595764045246259e-01 1.5124173161897236e-01 -1.2795507479192455e+01 -1.6046658873779313e-01 -9.2079335112180694e-02 -3.1107650779571239e-01 6.5027630214901500e-01 8.1433578082063640e-02 -3.4956043802684147e+00 
      </Row>
      <Row Index="4">
        -2.1555795228180546e+01 -5.6737106355914655e+00 -4.7398010592824988e+00 8.1512528965485465e-01 4.1253322055892550e+03 9.5015082748153850e+02 7.4811578547009319e+00 -9.6788189961983721e+02 -5.0822097023145796e+00 1.6974372605449003e+02 -1.4812580508130311e+00 -1.0283484177449964e+01 -1.9059225519577168e+01 9.7570963873150796e-01 2.5755604047655769e+01 -7.8058850029292914e+00 4.2084074833356150e-01 -2.4970395510289390e+02 3.4077560209356879e+00 -1.1386693008542252e+00 7.9577829994300174e+01 7.6878372269402515e+00 -7.8837791055372657e+00 3.3991943995126339e-02 9.5869064331566864e+00 5.8013506654476055e+02 1.5475651148831062e+03 -7.3143351243927786e+00 2.9995030341289755e+01 4.6631795411156105e+00 3.8418469228069796e-03 -9.9983379429342611e-01 -3.8188737891559825e+01 5.6454483229230632e+01 -2.2601143504915049e+02 6.0185097081559666e+00 1.6911293913500685e+03 -1.7518795117178825e+03 -2.8065131619134270e+01 2.3171455647995072e+03 8.7976740846669510e-02 -1.5780135445612109e+02 2.1125769376090840e+01 1.3552507537690287e+03 3.8243626989933986e+01 2.8062089063902818e+00 -1.2020401589649410e+01 2.5711607934271811e+01 -2.7694816994758717e+00 -4.5410586775682322e+02 -2.7504253193371067e+01 2.6184758634316569e+01 1.6080206261463786e+01 -3.8875158566517101e+01 9.3503267006884144e+01 5.6319618214697442e-03 2.2104792108797682e+00 -9.1763904580645749e+02 1.6199665258597229e+03 4.5236613819887079e+00 2.0757460150487841e+01 6.3031746608076098e+00 1.1135376887890715e+01 -2.5607158063623515e+01 3.6521404149144551e+01 -3.9645122267778376e+01 1.0673528523564944e+02 1.4966982159875610e+00 -3.0439697990616673e+02 1.1670964419241645e+03 1.4371491245430668e+01 -1.2864976120902159e+03 2.3407871058254748e-01 -5.5986263612033099e+02 -1.3929955567655531e+01 -1.1962859929859915e+03 -1.5687662846757560e+01 1.6846962926821316e+00 1.1463274956258463e+01 -2.5211285037153637e+01 -1.0649018687527358e+00 4.4321682497102188e+02 1.6167486096782251e+00 -3.0176493171102603e+00 -4.9224515004889199e+01 -2.9205568590431925e+00 -5.0864390327766223e+01 -1.0341917669933707e+00 -5.0479056260129793e+00 3.2943521232217171e+02 2.9054126054379608e+03 -1.2464365577653066e+01 3.5879356071924747e+01 -2.2583999185202046e+01 -6.3181562122019477e+00 3.6184106009693032e+01 -4.6564231464364696e+01 1.2985521301634375e+01 1.8831353867500582e+02 -4.4565165515831477e+00 4.2515007765918144e+03 9.0389192931603145e+02 3.6179024439304470e+01 1.6698360110453771e+03 -1.0993333153807541e+00 -1.1021526360200731e+02 -6.9674279447229477e+00 4.0583404623615240e+02 -5.0035993867858942e+01 -5.4224299301591805e-01 5.6680167818577587e+01 9.2509505729157162e+00 1.2016795940492568e+00 -9.9379207192298304e+02 1.4003736769418694e+01 -7.8444911317635828e+01 9.8095215438573589e+01 2.0626441448300014e+01 -5.5531147524815999e+01 1.3737708771132564e+00 -1.4403536488076163e+01 2.7049917453304363e+02 -3.1388774035499077e+03 1.9437196113689836e+00 -7.3235383656514301e+01 1.6223350971907088e+01 -2.3211010593578500e+01 1.3220431466152966e+00 -6.9794080845318575e+01 9.7650247989215853e+00 8.4097915945394135e+00 -8.2084325329447019e+00 -1.7799752127976506e+03 4.6132743121539937e+02 8.7363739421414252e+01 -1.9710729353615534e+03 3.2516626873815238e+00 6.7663183974367348e+02 -6.7713274642704251e+00 6.1763764139502155e+02 -3.6215093577266003e+01 -1.2432279446438796e+00 -2.4049814705290935e+01 -9.0133920933685219e-01 3.0170028982811816e+00 -6.4305264709115863e+02 -1.5304983636115068e+01 -2.3022008485434142e+01 2.9609565216931905e+01 1.5041709293084562e+01 -5.9702036567566445e+01 7.6448816850528989e-01 5.8932439648928323e+00 6.1131228362889738e+02 -5.2854777789038383e+02 -2.4668745533241321e-01 -6.0774391126916385e+01 -1.9872775865107690e+00 5.3670810298070410e+00 -9.6539297278664922e+00 4.8628329754957463e+01 -3.7839057687978084e+01 2.3742818418684178e+02 5.1217931185788990e+00 -6.3145767051445227e+02 -4.8916805788390997e+02 3.1875781636780921e+01 1.3043883390806343e+03 -7.4977036735058511e-01 -6.9168376286184161e+02 -1.6039812559816010e+01 -6.7474208125331052e+02 -2.8027832740208073e+01 -2.6852247041382704e-01 -4.9873363741473696e+01 -1.6980265931269273e+01 -1.4198002353363335e+00 1.2837407144054810e+03 1.0626329415235366e+01 -1.1296608272948642e+01 -1.0369492298592769e+02 -3.2355121982678149e+01 -3.4952639412809958e+01 -7.1562078423413222e-01 2.0652554438498223e+00 2.9054480244228131e+02 3.7550348878517593e+03 -3.9361435838749808e+00 -1.3080645582210700e+01 -2.7686672903167921e+01 6.6746789619092235e+00 3.2445430088235362e+01 2.1676969111989504e+01 1.5891444123817099e+01 3.2144761704453231e+01 -3.0837242012316994e+00 2.0140161598705959e+03 -4.5217636473154704e+02 6.6134696408792834e+01 2.6245805353609848e+02 1.0797933482477323e+01 -1.2981008823386259e+02 4.3943312779953425e+00 7.1771369685083101e+01 -8.9680831976146500e+00 -2.7534337994642177e-01 4.7211348073536193e+01 -1.3326615826208968e+01 -1.6397441729357869e+00 8.0893295963847527e+02 5.2258408058409493e+00 3.7399373264076928e+01 9.9088101926337316e+01 3.8293306671710553e+01 -4.2335045962926131e+01 -2.8426268193901367e+00 2.8579064253485960e+01 9.4756351319667101e+02 2.8799863176149302e+03 -7.6599726862317867e+00 1.8988849284949527e+01 2.3275765498122009e+01 8.2240200521529623e+00 -1.3462999247965989e+01 -1.1537924839855087e+00 1.6070089332808472e+01 2.3314966919736094e+01 -1.7374258444149426e+00 3.4075456340634464e+03 3.7639065824525903e+02 5.5918214443220670e+01 6.4661008813317062e+02 3.7488182959127285e+00 -1.4178605134425460e+01 -3.4319790610424885e+00 1.2559614157035972e+02 1.0615481339130167e+01 3.7679807880149452e-01 -1.8267833584751983e+01 3.4683475604401472e+00 1.5603340515478612e+00 7.4150048148313374e+01 -9.3048689149931718e-01 -1.7920170644687266e+00 2.6781267885302453e+00 1.6089008377786722e+00 -2.2281841937443570e+01 -1.0871281150746537e-01 1.5457238841243406e+01 -1.4138026601140442e+02 -2.9971592063003841e+03 -5.3933472312461435e+00 -1.3843671082424482e+01 -2.3714586639417692e+00 4.3152056199866946e+00 -3.7062867892662079e+00 -1.3438472900915258e+01 8.9480858114480970e+00 -1.8087142453320126e-01 -2.9625301271261200e+00 -9.4697355423177910e+01 -1.8929448581533416e+02 1.0128131434182368e+01 3.8557596464757773e+02 -1.1823210167378737e+00 -7.8442934602705549e+01 4.1804336366052510e+00 1.2238221694995279e+02 6.6349738919964398e+00 2.2827706899768957e-01 -6.4194049069407413e+00 2.7255052169062024e+00 -1.3562860811896698e+00 -1.0813595035535738e+02 1.0851454708810058e+00 8.0511553876835542e+00 2.0593828522840340e+01 -8.0451166815858990e+00 6.4247253682375076e+00 1.2924657281753171e-01 7.9405650658749916e-01 -4.0858351285881369e+00 -1.1802683739077399e+03 -4.8710393066687302e-01 1.7483101604829361e+01 1.9800350613021558e+00 2.1362454413803382e+00 -3.3597989749984740e+00 -2.2119376123849349e+01 3.7488178504054783e+00 1.6028770608498618e+01 2.0014879313034011e+00 1.9628354146895601e+03 5.2213744966181207e+02 1.5018536121549147e+01 -4.3108791783915899e+02 -5.2523855411725062e-01 7.5066265019831661e+01 2.5608887608307387e+00 -3.8572732682392495e+02 -1.5813172360032183e+01 5.1334241120588486e-01 4.3930996142198424e+01 1.9080480829692372e+00 -4.4262476589402577e-01 -6.8856325107459469e+01 2.4829717251459176e+00 1.7518526885663832e+00 2.3552555400415514e+01 1.4273772073190077e+01 -1.8731249975578951e+01 -1.9004308560398731e-01 -2.9903148305062044e-01 -2.0737130157390493e+02 1.3812334378578760e+02 6.1598230227875916e-02 -1.9302181391262728e+01 5.6244298913890134e-01 2.1194662561661795e+00 -4.0211723143600011e+00 -6.9047037575375555e+01 3.6770556022963163e+01 3.1175592610709100e+02 -6.8959382327814156e+00 7.4784463182013524e+03 -5.2692107599972132e+02 1.7233531617878020e+02 2.5621837347007255e+02 7.7186558616287879e+00 -5.7650714439018566e+02 -1.0007358145655568e+01 1.3994010920146443e+03 -1.0148330117749610e+02 2.7091905931054208e+00 5.5816692702780898e+01 -1.9420881726878537e+01 9.5461564013418077e-01 1.0857390888673183e+03 -5.4463591982849096e+00 -4.6364336410253067e+01 2.2415076438916861e+02 2.5774000729714437e+01 -1.4019471507325778e+02 -1.9313441147261727e+00 3.0649766301093337e+01 1.9899030527479015e+03 7.9057091537317547e+03 -2.0903915251662383e+01 -5.8891239886358861e+01 1.6794202095150894e+01 1.8844792358983522e+00 2.1291638465921281e-01 2.7176066114304188e+01 1.6438696708609601e+01 5.8192919453650802e+00 1.7397901964972206e+01 -1.7730087146099060e+04 -3.1261728882122952e+02 7.6500344896120225e+01 1.6733129101597260e+02 -1.8189997695421795e+01 -1.4943474138960437e+02 -1.1167614233331221e+01 1.9749774340805641e+02 2.1433107417600446e+01 -4.9005898167655690e+00 9.1500567048441980e+01 -9.3326635572479333e-02 -5.6257362780974098e+00 -4.0061890792587337e+02 3.7690809763382738e+01 9.2163745962927806e+00 3.8197976501269295e+01 7.0683354287735142e+01 -2.1708341898890126e+01 -4.3160864873764498e-02 -2.5352284757832390e+01 -8.7360385875636098e+01 -1.6494696805050797e+04 4.4420666049429700e+00 -4.7921297464907184e+01 -7.6772327120995998e+00 1.0067929559911136e+01 3.5196725925379724e+00 1.2578772740751906e+03 
      </Row>
      <Row Index="5">
        2.5379377988297307e+00 2.8567508986954842e+01 -2.2845598536756813e+02 -2.1161440713270445e+00 9.5014987936689874e+02 8.4176332027487697e+03 5.1027202019589168e+00 1.6605764794653987e+03 -7.8891988704207652e+00 1.8114252433559311e+03 1.2367442994182365e+01 1.7998233322763457e+02 6.1754222135576562e+00 -8.6276298867340417e-01 1.1109880267016624e+02 -2.6247744583867508e+01 -4.9588667548130667e+00 -1.8873073991061355e+02 -2.9894874159261637e+00 -4.1769888402640596e+01 -3.8275397304817012e+01 2.0768459903822492e+01 -5.4126934823892483e+01 1.2428448631267930e+00 -2.8876731793748651e+00 1.5087931383214116e+03 1.3358609158600309e+03 -3.6441010791206111e+01 -5.3456525391230670e+01 3.6645092374880881e+00 -1.5518435942607402e+01 -2.2984585529514550e+01 -1.5466947707703116e+02 -2.1598075399542438e+01 5.0774013436866215e+02 4.4640801171828350e+00 -5.8232400090893725e+02 -8.2864323775785597e+03 -1.3122750911258095e+02 -4.6021432751792099e+03 7.7654103169423445e+00 -2.2664954917191030e+03 2.0227056612089505e+01 -1.1091891832356396e+02 8.2153480553509254e+01 -1.1654284597555638e+00 5.5117980923874853e+01 4.0861544299307191e+01 -3.9992853121152878e+00 -2.3516301314562307e+02 -4.4706227600189948e+01 4.8575439510675139e+01 1.0891376711940322e+02 -7.3849142017000474e+01 1.8957826192087418e+02 -1.0108658483718029e+00 1.2216379890100324e+01 -2.7693954691729941e+03 -1.3313408313985965e+03 6.9134831664829647e+01 -7.2548765253017109e+00 1.7083764613114958e+01 -1.0914811501571293e+01 -2.0495232894521799e+01 6.1925816923168085e+01 9.6928326929780049e+00 -2.4711469230033831e+02 -3.4687144546223601e+00 4.7370957740824542e+02 1.2823531223324082e+03 3.8776674807352236e+01 1.6947447459645100e+03 -5.9992476932382939e+00 -2.1503954049395350e+02 -3.9499649769075766e+01 2.4783284444884850e+02 -1.8797791287527364e+01 -8.0293266097373317e-01 3.6231918606335782e+01 -5.4439526918613126e+01 2.4920621188625649e+00 8.9256601057116001e+01 7.6338881401373619e+00 -6.1007106863498521e+01 -7.8281009835307017e+01 3.4143727268138242e+01 -9.9732179754000938e+01 -7.1215176303022243e-01 -8.6835394903847849e+00 1.3486286476129990e+03 2.9624182532593045e+02 -6.1078098020975396e+01 -5.6646309279633854e+01 -1.0816030178728647e+01 -1.2565427206837713e+01 2.1560380761989784e+00 8.7622505895986379e+01 1.4116715448845666e+01 -5.9507096867669119e+01 -4.8826313185980919e-01 2.2331367741163638e+02 3.9515907062411115e+03 1.2444729343435654e+02 -4.5495674542272627e+02 -6.0596039359747671e+00 1.1253910783288516e+03 2.4936726450724844e+00 -2.6982491245016206e+02 -5.9108887560668030e+01 1.4392406098981223e+00 -1.5990598801204655e+01 -4.6895885865332161e+01 8.6046268924910656e+00 -5.4519848369374449e+02 2.6188813189732350e+01 5.5629854030694567e+01 -1.3372459810685785e+02 2.2173872371523039e+01 -8.5969534804286369e+01 -2.4872860206270939e+00 -4.3466766991757897e+00 1.0979578984444720e+03 7.0133543255260884e+02 -8.9017026364788876e-01 9.5030492505161106e+01 -1.1105659712555648e+01 2.5460195385364859e+01 6.0205201279370421e+01 -1.8856495373231716e+01 1.7017993901974325e+01 -2.3474611530492257e+02 -6.8129152738526315e+00 -1.3381954983482785e+02 6.4615044087120141e+03 1.8756623066000770e+02 1.4597193701687688e+03 -5.1783152869368376e-01 9.5585470614174983e+02 1.2296597473887928e+01 -3.3812666681696851e+02 -7.0466997803522247e+01 -6.3605004759750861e-01 5.6899660741628239e+01 -7.3292918510218881e+00 6.9562820702711736e-01 -5.4297616342555568e+02 4.7096767210894033e+00 -2.0615914777097441e+01 6.0114692465836121e+01 4.1223708691754794e+01 -9.5757493225354651e-01 1.8314907441855992e+00 -8.7350562163185117e+00 9.4751044351028690e+02 3.7404367772362184e+02 -8.2530448397258507e+00 -5.2477297850537497e+00 -2.4068830627863651e+00 1.3579800008685956e+01 1.5484957656040729e+01 4.7040494652551821e+01 -3.8367167467953216e+00 -3.8132532342506892e+01 3.4894853791767204e+00 1.8350636986687448e+02 3.0199549995710495e+03 2.2240983517218069e+01 -6.0110467632303812e+02 -1.5438854074199357e+00 -2.1326158984073211e+02 -4.4601342942966433e+01 4.7767157843638341e+02 -1.6818815516073265e+01 -1.5273312708832760e+00 -2.2877008419102054e+02 -6.1411804194038254e+01 9.8744031584008507e+00 1.3788681991692707e+02 1.4848148668841917e+01 -1.7629268474133823e+01 -1.0605675501080069e+02 1.9973306028063966e+01 -1.1847797354747317e+02 -1.0371893138892878e+00 1.9153164919778711e+00 -1.8378428716600757e+02 -9.6000066738158944e+02 -4.3531401222332818e+01 -6.7199699492357524e+01 -1.9478383104002237e+01 -1.6398275004829415e+01 -1.5981850145672851e+00 -1.8016556446370748e+02 2.5056124030931777e+00 -2.1074842109951123e+02 -1.5362690907869414e+00 4.9775713100501628e+02 -3.6786789876294415e+03 -1.1305916424827345e+02 1.1286806757993154e+03 3.5321824844830561e+00 -5.9435805957732452e+02 5.4002129075392190e+01 8.0052239685727795e+02 1.3771396148813486e+02 1.7577228424094997e+00 1.7269177888700955e+02 5.5223530540701915e+01 1.3045387057758173e-01 -4.3492147784499730e+02 -2.1909993046921848e+01 -1.2173783369753881e+01 1.6159220496824193e+02 -4.3520334233431427e+01 -9.3224633712623643e+01 -5.2021535710769440e+00 1.8925359950127415e+01 1.0246967723319399e+03 7.4066006495749684e+02 -2.3701303453063503e+01 1.0194625674899385e+00 1.7262074813598367e+01 -1.8273408530923545e+00 -2.7743539072058820e+01 -6.8829713715044178e+00 6.2494122986103378e+00 -5.3595566094089946e+01 -5.6879725773620411e+00 -3.3785294431024136e+02 2.7176557898159917e+03 -2.4224637700478834e+01 1.0611704049837963e+03 1.1200600121861850e+00 3.8248927390614710e+02 -7.1172446152843225e+00 1.4896612282628161e+02 2.4065191369287881e+01 1.3136128252147821e+00 5.1659673370148695e+01 -1.8143649196410010e+00 2.9124590472269105e+00 1.0305471044028593e+01 -7.0901019993751389e+00 3.2715257872941947e+00 -4.4766981101104946e+01 4.5254721100637214e+00 1.6897680811185623e+01 -3.2491844457079111e+00 1.8533391502495036e+00 -4.8529674209756863e+01 5.2021323779470390e+02 -2.0288459293557079e+01 6.8040288621307248e+00 1.2708755465273398e+01 -8.1861711339041232e-01 -5.7039957081525161e-01 -2.0434724927482492e+01 3.7827884732322872e+00 -1.0384384190576608e+02 -2.3541239751263308e+00 -4.3513082666974515e+02 -9.7012575075663597e+02 3.0361368417197276e-01 -5.4209364082011484e+02 1.4461228423870387e-01 -2.4754044541868700e+02 4.0706636514427164e+00 -2.0536550431254653e+02 6.1003847369044024e+00 6.7976427754695656e-01 1.6861164816000596e+01 5.3925575142995985e+00 1.5050486622692762e+00 7.8551959670326937e+01 -1.0155677387331443e+00 -2.9856500873201952e-01 1.3104609790258110e+01 -3.3480109187878284e+00 1.2973843973569059e+01 -4.1952890333984066e-01 -1.0639354324878874e+00 1.4424669187429707e+01 -3.9697425658946787e+02 -3.2311758455521304e+00 -2.8648948678787760e+00 1.1942609365811290e+00 3.8161967561766963e-01 -3.4957628741907878e+00 -3.8859450781735454e+01 -4.1147729008890099e+00 7.7150736501698162e+01 5.1329889195211820e-01 1.1327659384745996e+02 -1.1501570313063887e+03 -2.8339914344088513e-01 2.0157848555339336e+02 6.0451325925116706e-02 -2.2159024405855652e+02 4.2929412376542375e+00 -1.1838590350953311e+00 1.5796001258598945e+01 1.4506874047095771e-02 -1.1512920444095764e+02 -1.4388739147294327e+00 -1.0706448494713301e+00 1.8152830539439572e+02 -2.8897477072642390e+00 2.7466847928952163e+00 5.2852368126151873e+01 2.2945730094171815e+00 -2.6274634098293070e+01 -5.6168096092627673e-01 4.2972372712402027e+00 -4.8289392736600712e+02 4.5947902753223616e+02 1.0341933691603668e+01 8.5385424187232211e+00 -6.7497366960196814e-02 -5.4837664127499108e-01 9.5355214930714283e-01 -1.2671904102057447e+02 5.1509161848424569e+01 -5.2441607611774725e+02 -1.0909602783093909e+01 2.7063178661114734e+03 2.0506121601917082e+04 1.0486502701270072e+02 3.1302611331767239e+03 -9.5432469113281417e+00 6.9250103045261153e+02 4.9211586441862693e+01 1.3518865702044650e+02 5.8220544254680874e+01 -2.6574461861610699e-01 8.6436734388751745e+01 -5.9360604202026494e+01 7.0482209758337930e+00 -2.7066576844284771e+02 -1.5445200729261273e+01 -3.2468741980818592e+01 1.3362411913363189e+01 9.2831009402248323e+00 -2.2103019001997933e+02 -7.2341874844777436e+00 8.1922073071526498e+00 3.1156939314015417e+03 4.4349714060430633e+03 -8.6098592046509552e+01 -1.0874037422941427e+01 5.6092703681773770e+00 -4.8591466101902228e+00 4.5830350481506912e+00 1.0502476705697834e+01 2.2760026077049793e+00 7.1671327895926424e+00 7.9952258514907362e+00 -3.1255752692799297e+03 2.4534985580886918e+04 4.2827122642906744e+01 2.7447629825024393e+01 -9.3885138930674401e+00 1.7852258862529197e+01 -3.2300681565520534e+01 1.1446494739522262e+02 -1.0514381576310157e+01 5.7198779758455132e-01 -1.8037029858309566e+02 -6.4625010434076877e+00 -1.5581702892455418e-01 -1.9944237419838737e+02 1.9195655906558557e+01 2.3766150396006651e+00 6.5755128692032372e+00 3.9545016303125806e+01 -6.2025805485280102e+01 -6.0028487345567925e+00 -6.4203674829232895e+00 -1.0197087940819779e+02 -3.5815486213524255e+03 -1.3507445098757767e+01 1.6894188160597423e+01 9.2477410660210051e+00 -2.8672720074978315e+00 2.4799808662349534e+00 -2.5003276057331517e+04 
      </Row>
      <Row Index="6">
        -2.0457978054947759e+01 -3.8910086067411731e+00 3.0521977221935089e+01 6.7483475117538383e-01 7.4811584055870961e+00 5.1027165148480336e+00 8.8784793729692851e+01 -8.8931032905032254e+01 -7.1884187678989164e-01 -1.6223767641012127e+01 1.9205268532344313e+00 3.0766406108299925e+01 -4.7633422142435693e+00 3.8718357677178844e-01 -6.7338605091389558e+00 -6.1250033564484365e+00 -3.0612447631503903e-01 6.5956677326215299e+01 1.2192738891573166e+01 1.1714936178836549e+01 -7.1355118869266905e+00 3.5329317572082264e-01 -9.2809452509885908e+00 1.9531333012917212e-01 8.8087015808995561e-01 9.4417244768663977e-01 3.6369721832982862e+01 2.7286248651967497e+00 7.0282383932903754e+00 3.0841552458854973e+00 2.4647032375104092e+00 -3.1736528665072958e+00 4.3950944385888519e+01 -5.2820551454148443e+00 -4.9762629998500451e+01 -4.7542416581965741e-01 1.9540170066971395e+01 1.7947585913803323e+02 -2.7947360041454274e+01 -9.0598060886957171e+01 -2.4117316294255953e-01 1.7079527642359061e+01 -1.9288544459525241e+00 -9.1954810339913138e+00 6.3089842711830784e+00 2.6980836929393365e-01 1.9786435703579940e+01 -5.9093728642121923e-02 6.0141043967480101e-01 1.0040887132193660e+01 -8.4940195997264176e+00 -2.3023765255632711e+01 1.5937864813057629e+01 -3.5475222228908669e+00 1.5327354749424099e+01 -7.9846856476619044e-01 -2.1483910442006300e+00 2.2037432792475990e+01 1.5758404697371873e+01 -4.7558348495069698e+00 -1.7314049048125955e+01 -1.9037673706954124e+00 -8.4148727497966149e+00 -7.7441369174866992e+00 -3.6289710358687479e+01 2.0106281084366202e+00 2.1294831861732391e+01 9.6006627199821160e-01 5.8342874741956678e+01 -1.0364397962010244e+02 6.9329605663231519e+01 2.3344272906900613e+02 2.4317918595093246e-01 -2.4726313198993910e+01 6.4765725449850042e-01 6.9281700710937542e+01 -6.2484925752814835e+00 2.9818263212672913e-01 -1.7776287543706072e+01 -3.9252597212184090e+00 -3.8038996736568348e-01 -2.2209761983327354e+01 1.2414332768433445e+01 2.0825977923837677e+01 -9.3697122010588778e+00 3.0353980930653099e+00 -3.1061623344010627e+00 3.5939546899756519e-01 1.4616946859175250e+00 -5.7923806225150969e+01 2.7079428465146293e+01 2.5213856804282377e+00 1.7161681821020913e+01 5.5889228167902303e+00 9.4443450765903094e+00 -3.7548350377901780e+00 2.2279679314625213e+01 3.2852258989050824e+00 1.5076662633790356e+01 -1.2169666323071684e+00 -4.7599570590067273e+01 -5.4206928345224952e+01 -4.8544967734129159e+01 -5.4569216854108504e+01 7.1162342430851044e-01 3.9022225324904355e+01 -8.6716678762970290e-01 -4.0439445328733704e+01 -6.3238837290588492e+00 -3.0062363880079973e-01 6.2683032540909576e+00 4.5371826752563518e+00 -1.0263039970609680e+00 4.7460231398550036e+01 -7.5464158263429280e+00 -9.5600426306437782e+00 -8.5082093987722143e+00 6.2554668954591142e-01 -4.4550979229089052e+00 4.7951453844750858e-02 -2.0460486924088173e+00 5.1739871153231213e+01 4.0697226389493409e+01 1.9712258281854300e-01 -9.2132466214969906e+00 -8.2241390304450412e-01 -2.1237721449835214e+00 2.2056181971175253e+00 2.4286494556215590e+01 -1.9254881161471484e+00 7.3805232451830989e+00 -1.8577397290338138e-01 -4.0437937760263551e+01 -6.5283159117005312e+00 -1.6520693350605345e+01 -9.7831774210832350e+01 9.2821992845746326e-02 -1.1797726216193041e+01 -3.6044776735989714e-02 -3.0459654062827909e+01 6.2388137698844215e-01 -2.4683222424447399e-01 -1.4304853360836951e+00 2.3109510425131137e+00 2.9694963236895777e-01 8.6373487615007420e+01 -3.3993484068111992e+00 9.9963956505549820e+00 1.4181556893895415e+01 5.1263514648932862e-02 -7.9526479775855909e+00 1.5445565424138197e-01 9.8490569728870225e-01 3.0320431843904714e+01 -2.9456996336193924e+01 -1.0901267799443612e+00 4.5727263650449608e+00 -1.0519196626549299e+00 2.6091919954120568e+00 3.9293884361518190e+00 -3.7003648610600415e+01 6.5325338553844503e-01 2.2422592060378257e+01 5.4494963128945151e-01 9.6116141046593711e+01 7.2356961179194244e+01 6.4360631139059123e+01 -1.9305582225206308e+00 -3.0638094893720352e-01 -1.6408114241274795e+01 -4.2827802893080086e-01 1.0351408670676994e+02 -4.2941585352775444e+00 3.2685247725871541e-01 -1.9262400104838441e+01 -1.2596308955215294e+00 2.2717438705545945e-01 -6.9828894862761800e+01 1.1771210172504846e+01 9.4469566657756623e+00 -4.9743203040126307e+00 6.9034513176340484e-01 -5.4876949710481959e-02 1.8354607306684001e-01 1.7316917604050190e+00 -6.5518836738615022e+01 1.8487986749724428e+01 2.7411018243976728e+00 1.4477826944031399e+01 2.8628542701648394e+00 6.0832208297946506e+00 -3.8777284284371372e+00 -3.8730327333944395e+01 3.9999438237361602e+00 -7.1754134459632724e+00 -3.4196515926518933e-01 1.0466441498368971e+02 -8.5824976750145197e+01 2.1551411187073519e+00 9.1992921848449328e+01 -4.4493778579585114e-02 1.2162197079169655e+01 3.8825391150722108e+00 4.0607219448802454e+01 -6.7746755218995114e-01 -2.8185730404568121e-01 1.1859811288167990e+00 -3.1148669363955950e+00 -1.0628309476136659e+00 9.6765055182541758e+01 3.1574909021866047e+00 8.9060546798832441e-01 -3.7444504845711037e+00 1.4362906443577361e-01 -6.5374035923407376e+00 7.8907848637794764e-03 9.0272833990591128e-01 -9.3275013934811568e+00 3.9876595535091610e+01 7.6420761659911740e-02 7.1727138746425823e-01 -5.7572777601213865e-01 1.0791898626306828e+00 1.1936088410096302e+00 -1.6135786294941251e+01 2.4640371740709037e+00 -6.3748086828877106e+00 -4.1917288079675608e-01 1.1460835506082958e+00 -3.9191058976406225e+01 -1.9580120043393290e+01 3.1780243454795723e+01 6.5289419173102492e-02 1.3438891904675254e+01 -1.6584898346127169e-01 1.3806604927510309e+01 -3.9098548565213225e+00 -1.2651483495725535e-01 -6.3121847313940851e+00 2.2102465872342383e+00 9.2126120292783242e-01 4.5244110264206796e+01 -2.3033765379524329e+00 -1.2562065437375678e+00 -3.4584248519133937e-01 4.0250690787527948e-01 3.2684539003078918e+00 -2.3071041259916703e-01 7.8843595102119268e-01 -2.2237176480083470e+01 1.3606996169988096e+02 3.7994878987922998e-01 -2.6265113627912129e-01 2.0660900499327184e-01 1.8093958515642850e-01 6.0165678034652714e+00 1.0440831204649208e+00 2.0199206683729232e-01 -5.0452881276190524e+00 8.2242741252292251e-02 -9.9328107065039148e+00 -1.7182303549810062e+01 -1.5962402208523056e+01 -3.3408827628955660e+00 -2.6185083432339329e-02 1.1161488482322387e+01 1.0259322354320926e+00 -7.8582973357877286e+00 -1.0103101562378802e-01 -2.4528453500393038e-02 1.3972469463213288e+00 4.7183946478021010e-01 -1.4559227606989783e-01 6.1854726217853635e+00 -1.2132900234199582e+00 2.1651779891936451e-02 -3.1109363772320648e+00 2.6107287995331135e-01 -1.2860753873380684e+00 -6.8894944138415362e-02 4.6392834596934718e-03 -1.2489254274405827e+01 5.9119346929638446e+01 2.3414756448554730e-02 -2.6126496773400038e-01 -5.6256550909426994e-01 6.2701431649609896e-01 7.0159418361316861e-01 5.6013298793439805e+00 -1.8726465235311884e+00 -2.4165678534512750e+01 8.4846628493019383e-02 -3.7684853104931970e+00 7.7381899407087261e+01 -1.0559324361505471e+01 6.0120709768696685e+01 4.1662842470429950e-02 1.6154250388475983e+01 9.8292321982644060e-01 1.4104151071627502e+01 -5.2630602202650500e-01 2.8453062057406039e-02 -6.1267937569519608e+00 5.5444121448467198e-01 -3.5710139321136841e-02 1.2651032273911973e+01 -1.0954878100512599e+00 1.7828663745912472e+00 -2.3064533851423326e+00 -1.0007837935892894e-01 -3.3108987874243088e+00 -5.4252408835606579e-02 -4.4746230089778360e-01 1.5089612501650663e+01 1.5443480470832711e+01 -4.4463150903615734e-01 1.4477177067881661e+00 -1.0328520788522919e+00 -6.4384382706627497e-01 -9.2228296480283944e-01 -3.0702170068027442e+01 -8.4404347199792529e-01 2.7957752734129656e+01 -4.6951784213362124e-01 1.5770085980099779e+02 -9.9353198816977226e+01 7.7069758520133178e+01 2.2972394807987394e+02 -2.3673705397507128e-02 9.8744857226778748e+00 5.3934558939732007e+00 8.7055481162374335e+01 -1.3453892433087013e+01 1.4512688269859708e-01 -1.4365271744585698e+01 -5.1555612345217137e+00 -9.4761913899307681e-01 1.4965937561037379e+02 1.2123929300959599e+01 1.7928821576863662e+01 -8.3025602153185218e+00 1.9684062380579768e+00 -2.2897525741459887e+01 4.1436460843478462e-02 1.4301539761020723e+00 7.8622114710339019e+00 1.9675753761852872e+02 1.6142842848480241e+00 1.3527248483805321e+01 4.8240828673197083e+00 7.1218481323702392e+00 -2.4198656884246148e+00 -9.1587577029648202e+00 4.0540737512413978e+00 2.1984691059537611e+00 -1.0431631237246710e+00 -3.2027318900603632e+01 1.8790627001633105e+01 -2.7095436543168539e+01 -1.1988289272490402e+01 -4.9371987958407554e-01 2.9980364147962163e+01 -3.5574468337469263e+00 -2.1883560765748058e+01 2.5534541577414309e+00 -8.5699241778712076e-01 -8.6227224344351843e+00 -3.5373000411566844e+00 -1.6374468585626927e+00 3.5320020717727630e+01 -3.5840290753079556e+00 -1.9914094756800651e+00 -1.1160902559373735e+01 9.9637423688029436e-01 -1.3044906252419803e+00 -7.1987173388016423e-01 -3.4723584214480749e+00 1.4991818370137260e+00 -7.9690153074882659e+01 6.8075815031485742e-01 -3.6160118716824741e-01 4.1530715970748755e-01 -5.1030984499183880e+00 8.9537173209668772e+00 -3.2522788287561873e+01 
      </Row>
      <Row Index="7">
        2.6168524264497682e+02 -1.0358674613536252e+01 -2.1066137863603706e+02 -1.0376121769878985e+01 -9.6788168213762731e+02 1.6605769909312614e+03 -8.8931032423997124e+01 3.9856062056533701e+04 8.7052251938130158e+00 -1.3528234503304182e+03 4.0813496588803119e+01 9.7124491560116962e+02 -2.7998373484307528e+01 -7.1949372243949306e-01 -1.4333503995720412e+02 2.0556172692217295e+01 1.0491891571741922e+01 -7.0864549587600404e+03 -1.5652448525362033e+01 2.1623999282303814e+01 6.0579041998653622e+01 -1.5547936893477491e+01 -3.5149355172167795e+01 -2.0118038100005338e+00 1.6467494398376182e+01 -1.9068711625373976e+02 2.2847759539361277e+03 8.8398055923304266e+00 -1.5686571671047807e+02 -2.3303670566519386e+01 8.2681915026860011e+01 -4.4572910168883915e+01 -2.6306658783935461e+02 -2.6598944005548617e+01 4.5591375740872763e+02 -2.5581503651853851e+01 5.5520848309142161e+02 -2.3911272279650047e+03 9.4371868873379881e+01 -1.3755739864146864e+04 -1.6520857678102807e+01 -1.5636322379010900e+02 -3.5841874633388429e+01 -5.6117051970184900e+02 -1.5147398911352914e+02 1.1726447610708398e+01 2.9242005907245527e+02 1.3788999652747754e+02 -3.1671758261961362e+01 2.5603900966872325e+03 3.3921700320120721e+01 -2.7063814042202978e+02 -8.1214677198251323e+01 -3.2855334192773384e+01 -2.5264784919056794e+02 -2.2946257560676728e+00 -9.1639346008905122e+01 3.2303117762788662e+02 -3.1223045635865597e+03 7.3843648578119073e+01 1.3840582317055714e+02 2.9183192069794543e+01 -1.6914977028313484e+02 -1.8528464564110358e+01 -6.0599141829150284e+01 4.9853298350530807e+01 -5.0988019848201770e+02 -2.9172812173856028e-01 -7.3207795766337210e+02 -2.3890468883880671e+03 -4.8408664828045318e+01 -5.2017277129653553e+02 2.5890644983364908e+00 4.3075403245255984e+01 5.9612010287276654e+01 7.3474583308171782e+02 -1.2054996245936013e+02 -2.2127074708423198e+00 -2.1674161615136444e+02 -6.7223151168339797e+01 2.6835784238420195e+00 -1.0904909988529804e+04 -2.8058518697458524e+01 2.2435110066227031e+02 -1.2855119601605767e+02 3.1017216486082859e+01 7.2015765692251804e+01 -8.4671091474734759e+00 -6.3501331419462730e+01 1.9722506665939591e+02 -4.3367223487794945e+01 -8.2313812457013171e+01 -3.4494346871444304e+02 -1.0100403335377194e+02 1.6519348543580148e+02 -9.7332274339481799e+00 1.4139888767517746e+02 4.9752925869333382e+01 -2.9886000290398010e+02 1.8704691422081424e+01 3.0424937974761747e+01 -8.7257597520176023e+02 1.2424798550541777e+02 1.9338050100962639e+04 2.0441986851302246e+01 4.5072101225656576e+02 5.3898866800043322e+01 -9.7349216408535176e+02 1.8646326706676558e+02 -1.2647719566503870e+00 -3.0437608743965683e+02 -2.4923104034025954e+01 6.7721745154847568e+00 4.9421581040517485e+03 -9.1410796573484063e+00 -4.2093355803898461e+01 -2.5263128334468547e+01 2.0774183061175890e+01 2.7670021589861346e+02 -2.2555756864963938e+00 1.4842800494111655e+01 -2.5059446162145555e+03 3.4453231440371796e+03 -1.0030846220983354e+02 4.8571113026622783e+02 -1.2950714701932693e+01 -2.0201488067492765e+01 1.6992083366462701e+01 1.2889097017417595e+02 -3.6527972767572564e+01 2.4709342836553782e+02 1.6038599850294688e+01 3.4322552801788443e+03 3.8855756711988483e+03 6.9265855362741632e+01 2.6440042136237542e+04 3.2579735988501639e+00 -2.9010155046308082e+03 -5.4377001522532815e+00 -9.3194621652998160e+02 1.0672478266027467e+02 -4.7195531407581193e-01 -1.2589532894188113e+02 2.6411093782309649e+00 1.5996576396667660e+01 -8.8080408375353873e+03 4.7036815518305943e+01 1.0161761391752025e+02 2.7436260528339392e+02 -4.2436731321429811e+01 -6.6237424133427965e+01 7.1834405130943608e+00 7.1409783256326136e+01 -1.1104182973925820e+03 6.0327794401106403e+03 -4.0481364923717791e+01 2.6353838572365879e+02 -6.9474880578206459e+00 -3.1254556034099039e+01 1.2871698824002774e+01 -4.6264554836327775e+01 1.2128327563745739e+01 -3.4300647135849204e+02 -5.3679624926190401e+00 -1.9882690523403808e+03 -2.5047648895908324e+03 -1.1232333028747935e+02 2.8210533494677395e+04 -1.3545641857602364e+01 2.1679382373786316e+03 8.0199920302562333e+01 2.8055144311895338e+03 -6.6871416309598160e+01 -1.7943576055334240e+00 1.1712963734089715e+02 -1.3102305370478803e+01 3.9510611259501514e+00 -3.8151535891467743e+03 -2.1697661560415813e+01 1.1790648780140762e+02 -1.2152160795761324e+02 -8.0084699620639590e+00 -1.1196603358654521e+01 -6.4369664054768014e+00 -7.9178087792500591e+01 -1.1424625124355753e+03 -2.7119978147946840e+03 -3.6457200261318519e+01 -7.2925077784280575e+01 -1.4135479575685849e+01 2.0602909012344892e+01 -3.1532453630923534e+01 -1.5029645515952564e+02 -3.5022765507996013e+01 -7.5166488717210905e+02 4.5967429372201405e+00 1.5435469618847594e+02 4.2300369668714302e+02 -7.7531171131077059e+01 -3.1865926373598795e+04 -1.2771291399264666e+01 -8.7300558814977126e+02 8.1086892699427239e+01 -1.3489265965269685e+03 -7.6815110648340124e-02 -3.2942511537390415e+00 -8.4280227023748932e+02 -1.0724494209139444e+01 -2.0190713587591279e+01 -9.6272134180032958e+02 -3.6722701356248422e-01 -4.0102124521208196e+01 5.5042966482823340e+02 1.2093623624861340e+02 -7.7257474839639599e+01 -3.0021892027438946e+00 -7.1993832750924653e+00 1.3869661706715938e+03 4.5885933578119057e+02 6.7061484322402663e+01 -5.1801153405422980e+01 9.4682579027303959e+01 2.4020181662110637e+01 1.9025675827300219e+00 -1.0201636584875317e+02 2.6797642643074283e+01 -3.5713537862554165e+02 -1.4051171354821257e-01 -1.0727602504746380e+03 1.1645366751993340e+03 -1.0657169046625206e+02 5.8360487171504838e+03 1.0272348509592399e+00 -9.3899994692085002e+01 -1.4906654835536756e+01 -6.8820325927448198e+02 2.2884918015891841e+01 -9.2861927675738798e-01 -6.2533491786754382e+01 -3.1784934477779935e+01 2.8427605730441936e+01 3.5192605912792833e+03 3.9112467745528079e+00 1.6039484595131469e+02 6.8279942682839177e+01 4.7776383078499251e+01 -5.7215356462443296e+01 -4.9549133636167078e+00 2.7350780838431934e+01 1.6654275454393905e+02 -2.8940405236825205e+02 2.6935266878830760e+01 4.5040541560732848e+01 7.8385774163417551e+01 2.3968602124763819e+01 2.9932239440706663e+01 -5.3962864301205284e+00 1.2764759226570582e+01 -6.8567336806883247e+01 2.5026416092904435e+00 -3.3386112522101030e+02 -7.7585142187492374e+02 -1.1848698443698289e+01 -4.2264733797655972e+03 3.4828897796807623e-01 3.1648400627648255e+02 -7.9573991388381753e+00 -7.1674917289481783e+01 1.7984428426581811e-01 6.3265868551446380e-01 -4.7603871839492221e+01 -4.2808422344454442e+00 -4.8518494134171197e-02 -4.2872546504500144e+02 4.2085209776579671e+00 5.0896404503667014e-01 -6.6493742984370328e+01 -5.9600968437789614e+00 -2.3706443100399213e+01 -1.2273763619083260e+00 -3.7188993929497842e+00 4.7932886451720390e+02 -1.8896916470236715e+03 9.4144219116676542e+00 -3.7599357733278218e+01 -1.0062778629998583e+01 5.9001148446009282e+00 -8.9879753806552163e+00 6.8405635539571989e+01 -2.4724840639078472e+01 3.1709313801085636e+02 -5.0989689812438828e+00 -8.4303843251086721e+02 -6.6317851611154219e+02 9.3853384897152168e+00 -7.3108097220503032e+03 -1.6187444994018505e+00 1.2313325752118638e+02 -5.5369911464695960e+00 -3.3893771577266790e+02 -1.0535438668090936e+02 5.9089192755163589e-01 1.3830925132397743e+02 1.4782616226617462e+01 1.8061121322017842e-01 1.8623043344303319e+03 -2.7556698075487840e-01 3.7459753537429329e+01 -4.7270976776212464e+01 -3.3043291461379809e+00 7.7338011766692560e+01 -9.5719707335049442e-01 -1.1205896943854619e+01 1.1703428738715593e+02 -6.7259360546391144e+02 -8.7730739659511237e-01 3.2376562344199677e+01 -3.0432691532777653e+01 -6.4465651626626146e+00 -2.8203097940202497e+01 3.0303361149334023e+01 2.8577321443435522e+01 -1.3789550494644964e+03 5.0059073782449559e+00 2.8841649040265679e+03 -1.4838237621139638e+03 1.8567012576684959e+01 6.8227528127240439e+03 3.0717693666825383e+00 -2.5859060939648880e+03 2.0653559906460058e+02 -6.3768542051332315e+02 1.8906569566342739e+01 1.0316072168096646e+00 -1.2293438225289258e+03 3.3911417888873530e-01 8.9776331880682960e+00 -3.5562314528722154e+03 9.8665008534096330e+00 1.8030925434529962e+02 5.1887772222189164e+02 9.2901622564245770e+01 9.1038166487816312e+00 -1.3038754930261973e+01 -4.8472873809256100e+01 -1.6629826403529307e+03 4.9587405596092522e+03 -6.4982406530529985e+01 2.3809537360188045e+02 -2.6412224499296997e+00 6.9647247340969798e+01 -2.6477905491397333e+00 -5.5468535901130210e+01 7.0605826894359311e+01 -2.2339867444531785e+02 -2.5786882403341700e+01 8.8248665384809237e+02 -1.7501065339876973e+03 -1.1042922925229806e+02 3.4322823132110316e+03 7.3779932547390672e+00 1.0801926494636773e+03 4.3849609593430785e+01 1.1237751912520023e+03 1.0074586219142770e+02 -7.3023084359416730e+00 3.3370314200202108e+02 4.2670555277947464e+01 -3.9302459918494847e+01 -6.0593579661172880e+03 -3.6245122088092344e+01 1.1890166033184920e+02 -8.3530324234500313e+01 6.0209438462728684e+01 9.9220667644647847e+01 -1.5730645478865691e+01 -1.0228477110296274e+02 -2.4990676250065553e+02 8.1139147239578961e+03 7.1332798001717052e+01 1.6210035340968898e+02 1.2752841798963352e+02 8.7897901426458702e+00 8.0953535068285959e+01 4.1107124061289542e+03 
      </Row>
      <Row Index="8">
