<?xml version="1.0"?>
<MethodSetup Method="MLP::MLPBNN_TauTau_MZP1200_MA0400_MDM100_nodes23_epoch500">
  <GeneralInfo>
    <Info name="TMVA Release" value="4.2.1 [262657]"/>
    <Info name="ROOT Release" value="6.06/01 [394753]"/>
    <Info name="Creator" value="jhoward"/>
    <Info name="Date" value="Mon May 15 01:50:59 2017"/>
    <Info name="Host" value="Linux vocms0301.cern.ch 2.6.32-642.11.1.el6.x86_64 #1 SMP Wed Nov 16 09:40:09 CET 2016 x86_64 x86_64 x86_64 GNU/Linux"/>
    <Info name="Dir" value="/uscms_data/d3/jhoward/WORKING_DIR/AprilProductionV1_8_0_26p1_V1/HonorsThesis2/ANNs"/>
    <Info name="Training events" value="14197"/>
    <Info name="TrainingTime" value="3.44791908e+03"/>
    <Info name="AnalysisType" value="Classification"/>
  </GeneralInfo>
  <Options>
    <Option name="NCycles" modified="Yes">500</Option>
    <Option name="HiddenLayers" modified="Yes">23</Option>
    <Option name="NeuronType" modified="Yes">tanh</Option>
    <Option name="RandomSeed" modified="No">1</Option>
    <Option name="EstimatorType" modified="No">CE</Option>
    <Option name="NeuronInputType" modified="No">sum</Option>
    <Option name="V" modified="Yes">False</Option>
    <Option name="VerbosityLevel" modified="No">Default</Option>
    <Option name="VarTransform" modified="Yes">N</Option>
    <Option name="H" modified="Yes">False</Option>
    <Option name="CreateMVAPdfs" modified="No">False</Option>
    <Option name="IgnoreNegWeightsInTraining" modified="No">False</Option>
    <Option name="TrainingMethod" modified="Yes">BFGS</Option>
    <Option name="LearningRate" modified="No">2.000000e-02</Option>
    <Option name="DecayRate" modified="No">1.000000e-02</Option>
    <Option name="TestRate" modified="Yes">5</Option>
    <Option name="EpochMonitoring" modified="No">False</Option>
    <Option name="Sampling" modified="No">1.000000e+00</Option>
    <Option name="SamplingEpoch" modified="No">1.000000e+00</Option>
    <Option name="SamplingImportance" modified="No">1.000000e+00</Option>
    <Option name="SamplingTraining" modified="No">True</Option>
    <Option name="SamplingTesting" modified="No">False</Option>
    <Option name="ResetStep" modified="No">50</Option>
    <Option name="Tau" modified="No">3.000000e+00</Option>
    <Option name="BPMode" modified="No">sequential</Option>
    <Option name="BatchSize" modified="No">-1</Option>
    <Option name="ConvergenceImprove" modified="No">1.000000e-30</Option>
    <Option name="ConvergenceTests" modified="No">-1</Option>
    <Option name="UseRegulator" modified="Yes">True</Option>
    <Option name="UpdateLimit" modified="No">10000</Option>
    <Option name="CalculateErrors" modified="No">False</Option>
    <Option name="WeightRange" modified="No">1.000000e+00</Option>
  </Options>
  <Variables NVar="11">
    <Variable VarIndex="0" Expression="read_pt_1" Label="read_pt_1" Title="read_pt_1" Unit="" Internal="read_pt_1" Type="F" Min="4.03492584e+01" Max="7.21327087e+02"/>
    <Variable VarIndex="1" Expression="read_pt_2" Label="read_pt_2" Title="read_pt_2" Unit="" Internal="read_pt_2" Type="F" Min="4.00004082e+01" Max="5.09528198e+02"/>
    <Variable VarIndex="2" Expression="read_mt_tot" Label="read_mt_tot" Title="read_mt_tot" Unit="" Internal="read_mt_tot" Type="F" Min="7.87086964e-01" Max="1.31683020e+03"/>
    <Variable VarIndex="3" Expression="read_pfmt_1" Label="read_pfmt_1" Title="read_pfmt_1" Unit="" Internal="read_pfmt_1" Type="F" Min="8.37231148e-03" Max="1.24571765e+03"/>
    <Variable VarIndex="4" Expression="read_pt_tt" Label="read_pt_tt" Title="read_pt_tt" Unit="" Internal="read_pt_tt" Type="F" Min="1.06182730e+00" Max="6.83582275e+02"/>
    <Variable VarIndex="5" Expression="read_m_vis" Label="read_m_vis" Title="read_m_vis" Unit="" Internal="read_m_vis" Type="F" Min="2.25126476e+01" Max="1.21391516e+03"/>
    <Variable VarIndex="6" Expression="read_met" Label="read_met" Title="read_met" Unit="" Internal="read_met" Type="F" Min="8.00035248e+01" Max="1.31413757e+03"/>
    <Variable VarIndex="7" Expression="read_LPT" Label="read_LPT" Title="read_LPT" Unit="" Internal="read_LPT" Type="F" Min="0.00000000e+00" Max="1.82265125e+03"/>
    <Variable VarIndex="8" Expression="read_DeltaR_leg1_leg2" Label="read_DeltaR_leg1_leg2" Title="read_DeltaR_leg1_leg2" Unit="" Internal="read_DeltaR_leg1_leg2" Type="F" Min="3.94515663e-01" Max="4.65956020e+00"/>
    <Variable VarIndex="9" Expression="read_cos_DeltaPhi_leg1_leg2" Label="read_cos_DeltaPhi_leg1_leg2" Title="read_cos_DeltaPhi_leg1_leg2" Unit="" Internal="read_cos_DeltaPhi_leg1_leg2" Type="F" Min="-9.99999940e-01" Max="1.00000000e+00"/>
    <Variable VarIndex="10" Expression="read_cos_DeltaPhi_PFMET_Higgs" Label="read_cos_DeltaPhi_PFMET_Higgs" Title="read_cos_DeltaPhi_PFMET_Higgs" Unit="" Internal="read_cos_DeltaPhi_PFMET_Higgs" Type="F" Min="-1.00000000e+00" Max="1.00000000e+00"/>
  </Variables>
  <Spectators NSpec="10">
    <Spectator SpecIndex="0" Expression="read_ratio_weight" Label="read_ratio_weight" Title="read_ratio_weight" Unit="" Internal="read_ratio_weight" Type="F" Min="1.65195990e+00" Max="1.65195990e+00"/>
    <Spectator SpecIndex="1" Expression="read_final_weight" Label="read_final_weight" Title="read_final_weight" Unit="" Internal="read_final_weight" Type="F" Min="8.80112765e-08" Max="3.62674236e-01"/>
    <Spectator SpecIndex="2" Expression="read_npu" Label="read_npu" Title="read_npu" Unit="" Internal="read_npu" Type="F" Min="1.66816786e-01" Max="6.99461060e+01"/>
    <Spectator SpecIndex="3" Expression="read_event" Label="read_event" Title="read_event" Unit="" Internal="read_event" Type="F" Min="3.00000000e+01" Max="7.24089536e+08"/>
    <Spectator SpecIndex="4" Expression="read_randNum" Label="read_randNum" Title="read_randNum" Unit="" Internal="read_randNum" Type="F" Min="6.14274759e-05" Max="9.99022424e-01"/>
    <Spectator SpecIndex="5" Expression="read_DataCardInt" Label="read_DataCardInt" Title="read_DataCardInt" Unit="" Internal="read_DataCardInt" Type="F" Min="1.00000000e+00" Max="9.00000000e+00"/>
    <Spectator SpecIndex="6" Expression="read_IsZTT" Label="read_IsZTT" Title="read_IsZTT" Unit="" Internal="read_IsZTT" Type="F" Min="0.00000000e+00" Max="1.00000000e+00"/>
    <Spectator SpecIndex="7" Expression="read_IsZJ" Label="read_IsZJ" Title="read_IsZJ" Unit="" Internal="read_IsZJ" Type="F" Min="0.00000000e+00" Max="1.00000000e+00"/>
    <Spectator SpecIndex="8" Expression="read_IsZL" Label="read_IsZL" Title="read_IsZL" Unit="" Internal="read_IsZL" Type="F" Min="0.00000000e+00" Max="1.00000000e+00"/>
    <Spectator SpecIndex="9" Expression="read_IsTTT" Label="read_IsTTT" Title="read_IsTTT" Unit="" Internal="read_IsTTT" Type="F" Min="0.00000000e+00" Max="1.00000000e+00"/>
  </Spectators>
  <Classes NClass="2">
    <Class Name="Signal" Index="0"/>
    <Class Name="Background" Index="1"/>
  </Classes>
  <Transformations NTransformations="1">
    <Transform Name="Normalize">
      <Selection>
        <Input NInputs="11">
          <Input Type="Variable" Label="read_pt_1" Expression="read_pt_1"/>
          <Input Type="Variable" Label="read_pt_2" Expression="read_pt_2"/>
          <Input Type="Variable" Label="read_mt_tot" Expression="read_mt_tot"/>
          <Input Type="Variable" Label="read_pfmt_1" Expression="read_pfmt_1"/>
          <Input Type="Variable" Label="read_pt_tt" Expression="read_pt_tt"/>
          <Input Type="Variable" Label="read_m_vis" Expression="read_m_vis"/>
          <Input Type="Variable" Label="read_met" Expression="read_met"/>
          <Input Type="Variable" Label="read_LPT" Expression="read_LPT"/>
          <Input Type="Variable" Label="read_DeltaR_leg1_leg2" Expression="read_DeltaR_leg1_leg2"/>
          <Input Type="Variable" Label="read_cos_DeltaPhi_leg1_leg2" Expression="read_cos_DeltaPhi_leg1_leg2"/>
          <Input Type="Variable" Label="read_cos_DeltaPhi_PFMET_Higgs" Expression="read_cos_DeltaPhi_PFMET_Higgs"/>
        </Input>
        <Output NOutputs="11">
          <Output Type="Variable" Label="read_pt_1" Expression="read_pt_1"/>
          <Output Type="Variable" Label="read_pt_2" Expression="read_pt_2"/>
          <Output Type="Variable" Label="read_mt_tot" Expression="read_mt_tot"/>
          <Output Type="Variable" Label="read_pfmt_1" Expression="read_pfmt_1"/>
          <Output Type="Variable" Label="read_pt_tt" Expression="read_pt_tt"/>
          <Output Type="Variable" Label="read_m_vis" Expression="read_m_vis"/>
          <Output Type="Variable" Label="read_met" Expression="read_met"/>
          <Output Type="Variable" Label="read_LPT" Expression="read_LPT"/>
          <Output Type="Variable" Label="read_DeltaR_leg1_leg2" Expression="read_DeltaR_leg1_leg2"/>
          <Output Type="Variable" Label="read_cos_DeltaPhi_leg1_leg2" Expression="read_cos_DeltaPhi_leg1_leg2"/>
          <Output Type="Variable" Label="read_cos_DeltaPhi_PFMET_Higgs" Expression="read_cos_DeltaPhi_PFMET_Higgs"/>
        </Output>
      </Selection>
      <Class ClassIndex="0">
        <Ranges>
          <Range Index="0" Min="4.4224922180175781e+01" Max="6.2849011230468750e+02"/>
          <Range Index="1" Min="4.0019771575927734e+01" Max="2.4345895385742188e+02"/>
          <Range Index="2" Min="4.4931610107421875e+01" Max="1.3110103759765625e+03"/>
          <Range Index="3" Min="1.9366140365600586e+01" Max="1.2457176513671875e+03"/>
          <Range Index="4" Min="8.0694946289062500e+01" Max="6.8358227539062500e+02"/>
          <Range Index="5" Min="2.4332817077636719e+01" Max="4.1561386108398438e+02"/>
          <Range Index="6" Min="8.1920654296875000e+01" Max="9.3473120117187500e+02"/>
          <Range Index="7" Min="0.0000000000000000e+00" Max="1.4425842285156250e+03"/>
          <Range Index="8" Min="4.0148299932479858e-01" Max="3.1531693935394287e+00"/>
          <Range Index="9" Min="-9.9996715784072876e-01" Max="1.0000000000000000e+00"/>
          <Range Index="10" Min="-1.0000000000000000e+00" Max="9.9878621101379395e-01"/>
        </Ranges>
      </Class>
      <Class ClassIndex="1">
        <Ranges>
          <Range Index="0" Min="4.0349258422851562e+01" Max="7.2132708740234375e+02"/>
          <Range Index="1" Min="4.0000408172607422e+01" Max="5.0952819824218750e+02"/>
          <Range Index="2" Min="7.8708696365356445e-01" Max="1.3168302001953125e+03"/>
          <Range Index="3" Min="8.3723114803433418e-03" Max="1.1858990478515625e+03"/>
          <Range Index="4" Min="1.0618273019790649e+00" Max="5.4034185791015625e+02"/>
          <Range Index="5" Min="2.2512647628784180e+01" Max="1.2139151611328125e+03"/>
          <Range Index="6" Min="8.0003524780273438e+01" Max="1.3141375732421875e+03"/>
          <Range Index="7" Min="0.0000000000000000e+00" Max="1.8226512451171875e+03"/>
          <Range Index="8" Min="3.9451566338539124e-01" Max="4.6595602035522461e+00"/>
          <Range Index="9" Min="-9.9999994039535522e-01" Max="1.0000000000000000e+00"/>
          <Range Index="10" Min="-1.0000000000000000e+00" Max="1.0000000000000000e+00"/>
        </Ranges>
      </Class>
      <Class ClassIndex="2">
        <Ranges>
          <Range Index="0" Min="4.0349258422851562e+01" Max="7.2132708740234375e+02"/>
          <Range Index="1" Min="4.0000408172607422e+01" Max="5.0952819824218750e+02"/>
          <Range Index="2" Min="7.8708696365356445e-01" Max="1.3168302001953125e+03"/>
          <Range Index="3" Min="8.3723114803433418e-03" Max="1.2457176513671875e+03"/>
          <Range Index="4" Min="1.0618273019790649e+00" Max="6.8358227539062500e+02"/>
          <Range Index="5" Min="2.2512647628784180e+01" Max="1.2139151611328125e+03"/>
          <Range Index="6" Min="8.0003524780273438e+01" Max="1.3141375732421875e+03"/>
          <Range Index="7" Min="0.0000000000000000e+00" Max="1.8226512451171875e+03"/>
          <Range Index="8" Min="3.9451566338539124e-01" Max="4.6595602035522461e+00"/>
          <Range Index="9" Min="-9.9999994039535522e-01" Max="1.0000000000000000e+00"/>
          <Range Index="10" Min="-1.0000000000000000e+00" Max="1.0000000000000000e+00"/>
        </Ranges>
      </Class>
    </Transform>
  </Transformations>
  <MVAPdfs/>
  <Weights>
    <Layout NLayers="3">
      <Layer Index="0" NNeurons="12">
        <Neuron NSynapses="23">
          3.9225135643803433e-01 -2.3969517846577082e-01 -2.6733413324392463e-01 1.8049068650515004e-01 -6.3130287269056795e-01 -9.7530423105427388e-01 5.3146205471019503e-02 2.8462519196387720e-01 2.2039213383240963e-01 -1.3050667441094851e-01 -3.0162361096391693e-01 -5.8817332654297139e-01 -4.3672578172971455e-01 1.2167154126348771e-01 1.3159277071001977e-02 7.6538684972496981e-02 -2.7018102348602507e-01 1.7578181835895301e-01 -8.2652884307145208e-02 1.9426641033162789e-01 5.1154167016304014e-02 2.4520775876292505e-02 2.2304764810387515e-02 
        </Neuron>
        <Neuron NSynapses="23">
          1.9409515125396659e-01 -7.6026232708346708e-01 8.4060266502738540e-02 5.8532989121820353e-02 -2.0050122858610539e-01 -2.6803321458032997e-01 1.0716747471548048e-02 5.4997343540537680e-01 -1.5299342522597262e-01 -8.9184875295493848e-02 -2.9784282001081008e-01 5.6827790997717331e-01 -5.2821487868752737e-02 -5.8078246626610397e-01 6.6043578360186567e-02 -1.1981844812875298e-02 2.9133964313862998e-01 1.0518663061016753e-01 -7.4945615755764416e-02 3.2552253647444955e-02 1.0464559692714959e-01 3.2089954089894068e-02 -1.1760903177506302e-01 
        </Neuron>
        <Neuron NSynapses="23">
          4.6365292688988768e-01 1.9241413163771559e+00 -2.3067939244350896e-01 5.5548244552029447e-01 2.1438515230917909e-01 1.6032142393491777e+00 -6.0077908354999821e-01 4.5396131920534527e-01 -2.2943512554970882e+00 -3.8208361062891377e-01 -1.5100032799788869e+00 1.8505062893795610e-01 8.9250957219694316e-01 1.5697791591972792e+00 -5.9837425004418432e-01 1.0050685738765218e-01 -6.9346483265724590e-01 1.2939637401415172e-01 6.9287853086584994e-01 -3.6328979838243944e-02 3.6155840959373846e-02 -1.6710367774627857e+00 -4.4980373551312871e-03 
        </Neuron>
        <Neuron NSynapses="23">
          -4.3737209434177976e-01 -2.4346335966153765e-01 -1.0661329477871637e+00 6.7491068911307392e-02 -3.6085248529487501e-01 6.2872383838113488e-01 -3.8566965948309079e-02 9.8133271425598259e-02 -8.4919471002721902e-01 1.5416442083212700e-01 -6.2561695601266054e-01 4.4202647894019670e-01 -2.2031502680780835e-01 3.5885043609986740e-02 -3.6857301865686018e-02 -1.2936636039218743e-01 -2.3265796736297223e-01 3.1790692547784501e-02 -1.3217968852408049e-01 -8.7858909669895319e-02 -1.9615677222411410e-01 -3.8877580658223704e-01 -6.7096019541682511e-02 
        </Neuron>
        <Neuron NSynapses="23">
          1.4280668918221295e+00 -1.8009906731968270e-01 -8.5697604911591063e-01 2.4018750011594384e-01 -4.5896427671483547e-01 -1.4930133399782697e+00 -7.7742306328550559e-02 8.1823329045451132e-01 -1.3888506797885403e+00 -2.8526674850818184e-01 2.1787052525476247e-01 9.0917941038834760e-01 -5.2772165163067686e-01 4.3794004297651395e-01 -6.7514395026329235e-02 -9.1509121236563407e-02 -2.9593390691382521e-01 1.3885253950730458e-01 -4.3496407915413632e-01 8.1141420529449323e-02 2.2293062777562994e-01 -6.7932878189869383e-01 -2.8663915578474575e-01 
        </Neuron>
        <Neuron NSynapses="23">
          1.2245694888619452e-01 -2.2788203140376401e-01 -6.3653646367976036e-01 2.5002428490599787e-01 -7.2020023814741230e-01 -9.3498900060241896e-01 4.2702775790640485e-01 -2.8354513424503142e-01 1.7088076543863699e+00 6.2526440271115716e-02 -5.1714643553048811e-01 2.5318233237227034e-01 3.8474543047216059e-01 -9.1468537644563563e-01 5.1240724026443651e-01 4.5878776870703755e-02 -4.6922715636458556e-01 1.7647096415994135e-01 -5.8877341008948070e-01 -5.1246811683285980e-02 4.2863283044762135e-01 1.2389256537725446e+00 -7.8806903115026217e-01 
        </Neuron>
        <Neuron NSynapses="23">
          -3.7422744027810212e-01 1.6420813132472276e+00 1.7361809221975483e-01 1.3419521631945319e-02 6.2606409701767940e-01 1.5806913176108603e-01 -4.1086540839640237e-02 8.1602304827257266e-01 -4.7742474484366793e-01 -5.7863333830392868e-02 -6.7900142678752684e-01 1.1781347119089916e-02 2.7417209185446734e-01 2.0900874137832637e-01 9.3782720475297635e-02 -4.8052628643278847e-02 3.8129287359273435e-02 9.8199623189010425e-03 -5.4195466214946600e-02 -9.8320849210854280e-03 9.4734372159164609e-02 -1.9146806082248738e-01 -2.2277403247135473e-02 
        </Neuron>
        <Neuron NSynapses="23">
          1.5444084033404029e+00 -3.6424830887769172e-01 1.4788570407267874e+00 5.2575325350060376e-02 4.2333566335543543e-01 -1.4494966597609609e-02 -4.3128355825873869e-02 -8.7682599430940544e-01 4.2920436503495513e-01 -8.8103880042791724e-02 1.1323988312437078e-01 -7.7904384260078202e-02 2.6356897994234119e-01 1.7849577248697868e-01 -1.4993417575490175e-02 4.4431443799617089e-02 1.1673024424463731e-01 7.8918145102753204e-02 3.1591942836072208e-03 -5.5003201442969427e-02 6.2349644030182533e-02 1.4138213237986228e+00 -1.0456250662915027e-01 
        </Neuron>
        <Neuron NSynapses="23">
          -3.5738534728215204e-01 -9.8284799195448483e-02 -5.5711330833855399e-01 -3.4930547272212294e-02 -1.1901805280026005e-01 -1.2952113523855896e-01 6.5634341338382148e-03 -5.8204227644861335e-02 5.7800185462236109e-01 2.8636139738816489e-02 -1.0438845045643334e-01 -4.0992196739460224e-01 1.9109236253555470e-01 2.0449394845195715e-02 -2.8284692309089267e-03 1.1231527452533467e-02 -1.3404322125664267e-01 -3.7725795962959774e-02 6.8887108851212247e-03 -3.4870797769345097e-02 -1.2189976972203873e-02 1.5675902550798268e-01 2.9998365227916927e-02 
        </Neuron>
        <Neuron NSynapses="23">
          3.1573526679078057e-01 5.0865010707879721e-01 6.8260854292032758e-01 6.3010060626434841e-02 -6.4816802073756327e-02 -8.2995577592026992e-01 -4.4118301061964113e-02 9.4161113421522458e-01 -4.7006285604965803e-01 -9.5912847518669381e-02 4.7204382713311105e-01 1.0603183484561800e+00 -7.0483781973068496e-02 -2.5841994553292191e-01 -3.1838272955650206e-02 2.4051515793135050e-02 4.1281695145892416e-01 9.0784695952764977e-02 -1.7190508846062883e-02 1.1332571139366378e-01 2.1699965737709825e-02 -3.8634297290794628e-01 -9.8344271349889822e-02 
        </Neuron>
        <Neuron NSynapses="23">
          1.6963469727842609e-01 8.1010746085669461e-01 -2.7092344449040545e-02 3.2774211144428182e-02 1.5232519632996128e-01 -1.8490174651117558e-01 6.3278220267047663e-03 3.6435161253766973e-02 5.5353002254705164e-01 -2.8445302331922585e-02 -1.3606256348960860e-01 -7.5408153206144590e-01 -3.4087025573794205e-01 -3.4294708081095354e-01 2.1419831846323203e-02 -2.2628107458032745e-02 1.7443639050340609e-01 7.7389267207784926e-02 -1.0518213683922832e-01 -2.6150160745710384e-02 5.2371965711034529e-02 -1.6636415756269282e-01 -7.2499036452626550e-02 
        </Neuron>
        <Neuron NSynapses="23">
          4.5484297316189554e-01 8.9100137405965019e-01 -1.1565629987281238e+00 -2.3582551133205071e-01 -1.7871362690334663e-01 -1.6739362999024293e-01 -3.1728751335156902e-01 5.9236286477069999e-01 -8.3015483122533384e-01 4.5540130364418402e-01 -8.8307921295390598e-02 1.6999913423715041e-01 -7.1164029777980120e-01 -4.5959550997256443e-01 7.4886574053823471e-02 1.7208572951307050e-01 -1.9966920165145699e-01 -2.2437046622275378e-01 2.2969659048239444e-01 4.7966167170858448e-01 -7.8405782146855618e-02 -5.5037540382878303e-01 1.5320065501785585e-01 
        </Neuron>
      </Layer>
      <Layer Index="1" NNeurons="24">
        <Neuron NSynapses="1">
          3.5184366948296133e+00 
        </Neuron>
        <Neuron NSynapses="1">
          4.1994575358449229e+00 
        </Neuron>
        <Neuron NSynapses="1">
          3.1520595867208470e+00 
        </Neuron>
        <Neuron NSynapses="1">
          3.6094008790345994e-01 
        </Neuron>
        <Neuron NSynapses="1">
          1.6479863951098985e+00 
        </Neuron>
        <Neuron NSynapses="1">
          3.1848889054348257e+00 
        </Neuron>
        <Neuron NSynapses="1">
          2.1810257517083934e-01 
        </Neuron>
        <Neuron NSynapses="1">
          -2.7772911967815346e+00 
        </Neuron>
        <Neuron NSynapses="1">
          -3.1804458489360998e+00 
        </Neuron>
        <Neuron NSynapses="1">
          -7.6316855540410311e-01 
        </Neuron>
        <Neuron NSynapses="1">
          2.7900922025568629e+00 
        </Neuron>
        <Neuron NSynapses="1">
          2.7920395370225370e+00 
        </Neuron>
        <Neuron NSynapses="1">
          2.4858312095296591e+00 
        </Neuron>
        <Neuron NSynapses="1">
          2.3174790675125321e+00 
        </Neuron>
        <Neuron NSynapses="1">
          1.4085053559317959e-01 
        </Neuron>
        <Neuron NSynapses="1">
          -2.7097713691161895e-01 
        </Neuron>
        <Neuron NSynapses="1">
          -1.4341651286015780e+00 
        </Neuron>
        <Neuron NSynapses="1">
          7.2060178103066075e-01 
        </Neuron>
        <Neuron NSynapses="1">
          -8.2623677466451517e-01 
        </Neuron>
        <Neuron NSynapses="1">
          -8.4142773668840276e-01 
        </Neuron>
        <Neuron NSynapses="1">
          5.6550396813862125e-01 
        </Neuron>
        <Neuron NSynapses="1">
          -3.3322550817010206e+00 
        </Neuron>
        <Neuron NSynapses="1">
          -9.5330041900517026e-01 
        </Neuron>
        <Neuron NSynapses="1">
          -1.0205473703704275e+00 
        </Neuron>
      </Layer>
      <Layer Index="2" NNeurons="1">
        <Neuron NSynapses="0"/>
      </Layer>
    </Layout>
    <InverseHessian NElements="90000" NRows="300" NCols="300">
      <Row Index="0">
        2.2750618973853102e+03 -7.5682615064415728e+00 -8.5602225105792229e+01 2.0059734549046561e+03 -1.3382705304819351e+02 -5.5835485010450157e+02 2.6186017622140489e+03 -3.0449617196679822e+02 -7.5448157580892357e+00 6.2435008985626646e+03 -1.0258001730517447e+02 -1.6527925936967712e+01 4.2100785189566130e+02 -3.1660187775597780e+02 -1.1724517713057271e+03 2.2675146956806648e+03 2.0790639016906107e+02 -3.3306428565412002e+03 3.7618144665730472e+02 -1.0658342384871703e+03 2.2662062046628521e+03 1.2586275539518164e+02 -6.5373963344190634e+02 1.5603412647992582e+03 -2.0116491864274721e+01 -1.1181644270834036e+02 -1.7963488837923217e+03 1.9272949934086469e+02 -4.4247236984271865e+02 2.2408354204486420e+02 -1.3318023706089363e+02 5.5004598696824569e+00 4.6810564226223132e+03 -2.1361254089162017e+01 -1.1269176707048374e+00 1.2694338150092740e+02 -2.0456151208184491e+02 -1.3172453107621077e+03 -3.3384809345235135e+02 -1.2498204283584872e+02 -7.8675603629949933e+02 1.0766591584553044e+03 -1.6250986689203201e+03 1.5315622807407799e+03 1.2542702662125669e+02 -7.5075718364965860e+02 -2.4975795673399697e+00 -1.1196576953477207e+01 1.1428350372860606e+01 -2.3242860789514712e+03 2.1184074989522679e+02 2.4929588414460799e+01 5.3495713315355601e+02 1.9293871918393592e+01 1.6765032217529996e+01 1.0506898013489019e+03 -1.1490506393575849e+02 5.6644301338932991e+01 -5.5588885162491799e+01 1.6982435372545694e+01 -4.1516057214094735e+02 1.2377909674421380e+02 4.5479449558334568e+02 1.5581744936652442e+03 1.4374065068924851e+03 -1.0828709565988902e+03 7.3165917880432426e+02 -8.6847513956825793e+01 1.4793631168265595e+03 -9.5903531953279586e+00 2.9265035207811856e+00 -2.5299568402940626e+01 -1.8264909731705743e+03 -3.9891369955089868e+02 -2.0359763680238267e+01 -1.3052044513279404e+03 -4.4590172721990218e+00 -1.6845016322438507e+01 -2.2046152079321728e+03 -7.1019640608088977e+01 -3.3155834372541158e+01 9.8832881110805332e+01 -1.2381943030181641e+02 -1.0586689699301007e+03 2.1561251533837566e+02 -3.6606002441471526e+02 8.6936773363311568e+02 -1.2981009029960194e+03 7.0544513182464607e+02 -2.2160812585503554e+03 3.6569311028964492e+01 4.5287963749300309e+02 -2.2161951611098530e+03 3.0476886425552280e+01 5.4951555132465437e+01 1.5027646220590799e+02 2.0344625416572175e+01 5.8441541759797042e+02 1.1461642552209560e+02 3.4089275550179178e+02 1.1442386157162128e+01 -3.3736724568058926e+03 1.1453292957730477e+02 1.7957228207805422e+01 -3.8526698680675821e+02 1.9904583662106305e+02 -1.2499692279651777e+03 -1.0170932539260874e+03 -2.5102718088444004e+02 4.0020615685649282e+03 1.3905986030189338e+03 3.6288680707665289e+03 2.2720931186512512e+03 -1.2417997093606319e+02 1.8943373971022174e+03 -6.8785317287963039e+02 -3.7484238829720837e+01 1.1176733749237465e+02 1.7188715156060216e+03 -3.5571011366075555e+02 -1.2512962745760046e+01 -5.1654034062357562e+02 3.8658185076663329e+01 -1.8484332181463078e+01 -1.1397447661613292e+03 1.3489522486262982e+02 -5.7091385677849345e+01 -3.1885083226512847e+02 4.7239473689102033e+02 -1.3355438152806430e+03 7.8477261518120633e+02 -5.9616620372001648e+02 1.9108992977751022e+03 1.7015750290561366e+03 6.5602078982073317e+02 -6.6673487345291198e+02 -1.4017275941036442e+02 -5.3466109042779738e+02 9.0449071721308520e+00 -1.3646436545847624e+01 1.0071442512813473e+00 6.4753217877189581e+02 3.0398843108691273e+02 -1.7968980131165548e+01 1.8978442133478802e+02 2.7598633836626824e+01 3.4719921800050679e+00 -1.6166554091494795e+03 3.8161644371656543e+01 -1.1378831749620714e+01 -7.4053078815026950e+01 -9.7723950283482836e+01 1.2179016628464829e+03 1.0919085184491141e+03 4.1910506775212895e+00 -2.4530759248554350e+03 -1.2620475737445634e+02 -5.0494200785219800e+02 6.6637362644734594e+02 3.7887421779633996e+01 -1.0410050709301684e+02 -1.8089480795598556e-01 1.2957287772313382e+00 3.6002587198160612e+01 1.5284087233690593e+02 7.1077134890706219e+01 -2.1501197872480947e+01 1.8340500184931032e+03 1.0974657879396787e+01 1.2143573633702903e+01 -2.2904334007281036e+03 1.1393538805748227e+02 -4.4142308248204456e+00 -7.6579637009612128e+01 -1.1984496677900099e+01 5.7863476744191371e+02 -3.3890578501078517e+03 9.2530478730733767e-01 -3.3140559739204027e+03 -4.9034567165745767e+02 2.7241675301175832e+02 -1.6029056415213506e+03 -1.7095545030938553e+01 -8.0082166984510525e+02 2.6893152593800187e+02 4.7730879326574369e+00 -4.1599529261182283e+01 -2.5553594670260006e+02 5.5692802798705827e+01 -4.3008833179708880e+01 5.9851202701986767e+02 1.3900864435689614e+01 2.8103886496620717e+01 -1.2353618653778137e+03 -8.9164528202311345e+01 1.2494359433952923e+01 1.3242934698818061e+02 -9.2064166920752839e+01 3.7194497879705204e+02 2.7577412752500004e+02 1.8719029102413364e+02 -2.9387037996321264e+03 -4.2324763442466485e+02 -1.2661271499119784e+03 -1.2273183480989137e+03 1.1716897027066608e+02 -1.0921466580564352e+03 3.1775438910057608e+02 -1.1652294132937760e+01 -7.0690966584200350e+00 5.6528976170181784e+02 5.9681147118804923e+00 -8.1160897527018577e+01 -5.0457272823413132e+02 -1.5970415158206784e+01 7.4145540332060977e-01 -2.8902869755460192e+03 -9.5098112989375760e+00 3.1173313417822128e+00 5.7429892788950198e+01 -7.4106904369869753e+01 -8.3910744418726699e+02 -2.3935393121219890e+03 2.3325613957359090e+02 -7.0553018651156890e+03 -1.1088865102046473e+03 -8.1325706309766565e+02 -1.8423492136744544e+03 7.2967000895143244e+01 -1.9671575916830832e+03 -1.1175441203921284e+00 -9.6054764288098493e-01 -2.5651019761546379e+00 1.2366370157979482e+03 -3.9802456770480397e+01 8.2578718046045552e+00 -2.0839462839907901e+02 -1.5197601259643552e+00 5.3768923149102799e+00 3.9269933040168411e+02 -7.0802147106751590e+01 3.5923973738900634e+00 3.9994707608335467e+01 2.3642375774945233e+01 2.0386642788880154e+03 -7.1249424764669584e+01 4.2528108382985135e+00 3.8307198993413999e+02 6.2870286553055500e+01 1.1182707703448486e+03 9.3276526039243231e+02 -8.3721194010428981e+00 4.6728010720988607e+02 1.3956854677138474e+03 -4.5591908754563647e+01 -5.1358601314628046e+01 3.2830626728714287e+02 -9.9623685124427794e+00 -5.4233655425280131e+02 -1.3256183853657597e+03 -9.7251813889048520e+01 1.7033594041701491e+01 3.9779573160181581e+03 1.2314044087718456e+02 -4.8957717653996262e+01 -1.8227644849075253e+02 -5.5658710379657734e+01 1.6788923177642437e+02 6.1871548652691376e+02 -2.9940374181805129e+02 -1.2614209574717734e+02 8.3358013030976053e+02 2.1557314841067273e+02 2.1377754000382765e+02 4.8126612598553031e+01 -1.7675162180370044e+03 -3.1969304505216485e+00 6.3725824092275033e+01 -1.7561386046256604e+02 5.7298408827613775e+02 -9.7789501613982520e+02 6.1346059681229335e+01 2.0063036658276928e+02 2.0839679466717476e+02 3.4569189051338192e+01 -1.3008999517673806e+02 -2.9502256893999743e+02 -6.8179909249850219e+00 -4.5301227951387727e+02 6.7242399817242790e+02 -1.1201052813901276e+03 4.3144214756413976e+02 7.4697326282128029e+02 -5.3330704505347717e+02 2.6211222101583144e+02 -1.5592345502163710e+01 3.0918768254059563e+02 -6.2989842274857324e+01 6.4877026982552465e+01 2.3917906611994096e+02 
      </Row>
      <Row Index="1">
        -7.5682614732714768e+00 1.3038160758843401e+02 -6.5441125894206920e+00 -6.3747525974691996e+01 -1.3764110394743545e+02 3.7158061672419755e+01 2.4728312260559264e+02 -1.7916899096962908e+01 3.6129451584460348e-01 -4.4081210300266923e+02 2.1869913853069935e+01 -1.2587977018640046e+01 2.1726497943121583e+01 2.6413358321459953e+01 -3.4242387771971153e+01 2.8293615734777279e+02 -1.8284402689503587e+01 -9.0521589305629391e+00 -1.6874893109163577e+02 5.7714837886372584e+02 1.0645180468807735e+02 -3.2044935118451946e+01 5.0431826985222187e+02 -4.4501270091903118e+00 7.6216060790979881e+01 -5.3286015572657988e+00 -1.7465734824201604e+02 -9.1411739732745204e+01 1.0184390657963316e+01 -4.2803639748073010e+02 -1.2137838514288893e+01 3.6148955462650849e+00 -2.5579876073201405e+02 5.7383073981801715e+01 -6.2140327145107683e+00 -1.6625278141524021e+01 1.8128919277113367e+00 -3.4259743037098906e+02 -1.2902376726872808e+02 -3.2421278919869820e+01 1.3875904771634038e+02 3.2528812762825243e+02 2.4075343488493792e+02 4.6889752428795032e+02 -2.0389639285542991e+01 3.5086609594772068e+02 8.2721907468851441e-01 -6.2633998403149018e+00 7.6581437698051964e+00 -2.5545140628726256e+02 4.0903450276588863e+01 -5.0222267492459878e+00 8.8896616450843652e+01 1.3532344861535751e+01 -1.5881456279293600e+01 4.3576130750089226e+02 -1.5466921347191011e+01 9.7658904105600968e+00 -4.8902914414740223e+01 6.9738117865446668e+01 1.5263166682214052e+02 -2.3947790102428945e+02 -3.2097632052245402e+00 2.7726264818399829e+02 2.4018332852408219e+02 -1.8429667825807726e+02 5.9428804439063526e+01 5.8196014607919189e+00 1.6002111566957632e+02 -5.7732357966626646e-01 -3.1544567228394471e+00 -4.5193270098533622e+00 4.2581327942431130e+01 -2.4700284734184304e+01 -7.9139286810426253e+00 -3.3177141743223274e+02 -8.2012621663743168e-01 4.1786134636825967e+00 2.3288663308416182e+02 6.1867195625692002e+00 5.3380334830538585e+00 5.5575698044864694e+01 -7.3444146017783893e+01 -6.7210054288306850e+01 -1.5888458758884667e+00 -8.4691655308328819e+00 4.2409268368874757e+02 -1.3565710184908218e+02 3.6793395409033371e+02 2.6456677630446882e+02 9.5168872837318261e+00 3.3918850713042815e+02 4.3103611883634319e+00 -1.0870745709241152e+02 6.0146573582763265e+00 -6.6579085753389634e+01 1.2525420125790983e+02 -2.5383952589528270e+01 1.2350695704453697e+03 1.2985263346567722e+01 -5.6980281669929478e-01 4.5437020618250529e+02 1.3755924753723182e+01 5.9974683230165722e+00 -7.6798450602702076e+01 -2.3680530805925969e+01 1.8697724596987064e+02 2.4398588597022820e+02 1.3528726899054504e+01 1.5304304932685181e+02 2.6120163481553692e+02 -5.6525859792205858e+02 -3.1943736230247362e+02 4.0055575341728456e+01 -8.1503290686490868e+02 5.5119126035099839e+00 -9.8013546402192361e+01 -1.4532976183284770e+01 5.4577354910951726e+01 2.0205210172646221e+02 1.2776618764137615e+01 6.8170113036848136e+01 1.6913018377240427e+01 4.6124759424544308e+00 -3.8408480419263918e+02 -1.4240563406881640e+02 1.5469869667261385e+01 1.4662906504300651e+02 5.4752478218377121e+00 8.0692053471145073e+01 -2.0956695075850547e+02 1.8727881786454759e+02 -2.0010452563680622e+02 5.2024303634507760e+02 8.0235858701602865e+01 1.9564334047770717e+02 -2.5977833786957753e+01 2.4976593470638463e+02 8.8414047542432339e-01 1.0206091387358027e+01 4.1360112870528338e+00 6.5227127759395444e+01 -8.4293023757016627e+01 -1.0677803845688301e+00 4.9081850449208179e+02 -3.8279035414516542e+00 1.8411727949054837e+00 -3.5880693797178947e+02 -3.9776423885299295e+01 -4.4552067218905114e+00 3.3302056612031976e+01 3.0260600324301357e+00 3.9343518860944999e+02 -8.9599171151572318e+02 -2.3699836042976749e+01 1.4516831511493638e+02 -9.8233387545947068e+01 6.1757872412160145e+02 -3.2434693157552226e+02 1.4913990782289452e+00 4.1774226265785171e+02 -1.7355173450629735e+00 -8.1550239037901981e+00 2.1176789569085130e+00 1.8411061968673124e+02 1.4252547775610203e+01 -6.0738144595205759e+00 -1.0770463473376822e+02 -2.8387234560710990e+00 2.7539538797091860e+00 -1.0618173682539989e+02 -3.0529855616545245e+01 3.4223279304875307e+00 -1.3320539811920826e+01 1.3733080591067477e+01 -5.1921859128017195e+02 9.9006706631723773e+01 4.0451398533576409e+01 4.0545682975587169e+01 1.3161024470190023e+02 -3.1396671113687944e+02 -9.0801135741017148e+01 -5.9058166028393932e+00 1.6301162844683182e+02 1.4186481544324145e+00 1.7788699457900037e+01 1.7707867382011280e+00 8.7018301103153590e+01 -5.3106215983381112e+01 -1.3417159331498003e+00 -1.1147104727679357e+02 -6.4042308163632748e+00 6.5017579183576855e+00 4.7383579545517478e+01 1.7448157699133727e+01 -1.0890025896207334e-01 -1.2969732299948317e+01 1.2825440996135796e+01 3.5074868591194019e+02 1.1642862603869162e+01 3.8596865274040880e+01 -1.8612554084993926e+02 5.1710473376599538e+01 -8.3892926224967113e+00 -7.3765149741540483e+01 -6.0193096238772004e-02 -2.4285373998929845e+02 -7.3870913423561857e-01 1.9002054491634603e+01 4.8984470934944166e+00 4.9223491691050634e+02 -2.0097258338127155e+01 1.2426355781398646e+01 3.4254336584917360e+02 -1.4599578851336409e-01 -5.2870132269637582e-01 -7.0078312778651323e+01 -7.0404859704489793e+00 -2.2136454343144174e+00 -4.4437216566391564e+00 2.9128935077111864e+00 -7.3601753185788425e+02 9.3478910966759940e+00 -8.9950136783874353e+00 -1.7793824811240603e+02 6.1655875967610115e+01 -1.8984983118550218e+00 4.6093304899505864e+02 -2.1184583892381443e+00 3.2610834780973869e+02 6.0525963213042167e-01 -1.3556712936299840e+00 5.3106037823640950e-01 -1.1976937904935164e+02 1.6480551476224121e+00 -9.6810514986830709e-01 1.5624428679427683e+02 4.7442434828291953e+00 7.5368226591007870e-01 4.2952215045056300e+02 1.3107546766924518e+01 3.2856330927403157e+00 5.1340817282559668e+00 -8.0973230301289796e+00 2.5112120398189063e+01 4.8686147928499628e+02 -1.6674146689448136e+01 3.5847552758172060e+02 2.6076244812692386e+02 4.7794037933923320e+01 7.1449845060949224e+02 2.5515338075463561e+00 3.1519156448231911e+01 -4.2242438975223728e-01 2.1829743173421928e+01 -1.4418610008066642e+01 -1.4863327643304581e+02 -1.2545328428086979e+01 1.1115549010503425e+01 -1.5187062000031381e+02 -3.3041324881582472e+00 8.0669088010191530e+00 -3.6220846138857843e+02 -7.1219849794005953e+01 1.2076323298109397e+01 1.2529787161857047e+02 2.7341077173685541e+01 1.3016289444311775e+02 1.4241366824006639e+02 1.3925054025984480e+02 1.5681438513959051e+02 3.2422414816105322e+02 3.6387039518858916e+02 -9.0983512660051178e+02 -3.2803327064593617e+01 -2.4524321285919243e+02 1.4569237813032366e+01 -1.3038673408725584e+01 -2.3483629285371261e+01 7.5945096231774016e+00 1.5707598458718866e+02 4.3036888357304392e+01 -2.5879157524207574e+02 8.0474437405358081e+00 2.0766742711709490e+01 1.2168404827879800e+02 -1.3796802552025417e+02 9.2744823931759477e+00 -1.1333862805289010e+02 -9.9825805745399876e+01 1.8593607078825727e+02 -2.0080847758592647e+01 -2.5546444988458717e+02 7.5621375918344611e+01 1.5716088669370603e+02 -2.4270346622581135e+02 -2.5279991868164544e+02 -4.2156939017154997e+01 1.2024165701022827e+02 -2.1317309126249148e+02 
      </Row>
      <Row Index="2">
        -8.5602225061622491e+01 -6.5441125175389558e+00 9.7167078081663203e+02 -2.7923043392257142e+02 3.0958756345029025e+02 -1.1641039355311993e+02 -2.4544395366707431e+02 -9.6652011856132106e+01 -2.4398248941730383e+01 1.6212494865037236e+03 1.1431671012924691e+02 3.0492949510288447e+01 1.6731583821655116e+02 4.5702618155680739e+00 1.8489614602651670e+02 1.1282639542439965e+03 -6.1305259919147250e+02 5.8315429952637169e+02 -1.1840796126850225e+03 2.3356689808590522e+03 -3.6376842072954287e+02 -1.2495971207981410e+02 -5.3700851993393781e+02 -7.0771779302034247e+01 7.0619243753830609e+00 6.4306299186723379e+02 3.6761984938849541e+03 1.8170139742020666e+02 -7.7686660972870939e+01 -1.5040684389369228e+03 -6.3413617543740479e+01 -1.2461150976836194e+01 1.3468123131468437e+03 1.3312752493320033e+00 -5.5524203056056418e+00 2.5838325989067272e+02 5.4038436030101531e+00 -3.1253581470569810e+02 1.2288018993883124e+03 -1.1216326282282671e+02 3.3808161005492229e+02 -1.9150729717337117e+03 1.0597591993194701e+03 -2.3142947059325434e+03 -7.9984708562686620e+01 1.2694344196580332e+02 -5.9033178090985245e+00 2.1116875161310986e+00 3.9496767195890463e+00 5.2306694431263020e+02 -1.3479866000328235e+02 -5.3766896303450906e+00 -5.1551602217612071e+00 2.7648240461929039e+01 3.6584423130322698e+01 -3.5827838796755600e+02 -1.8897462660806440e+02 6.4594406495403348e+01 -1.9472616333076979e+02 -7.6873131063291865e+01 4.3707589932349060e+02 8.7710468605407641e+01 -2.6269973640064251e+02 4.2436942619558386e+02 -1.4349999478283144e+02 -6.7829802587428048e+01 -2.7986088736636111e+02 4.2057461246187991e+01 1.0458568617244316e+03 1.0235999358084415e+01 -3.4017030435720885e+00 -3.3180676592155685e+01 -6.5712850749903453e+02 9.6884280606682893e+01 3.8295930338037723e+00 1.4885437871633235e+02 6.0452451025020366e+00 -1.1235231226106518e-01 3.1934643555903449e+02 -2.5384114346356153e+01 -5.9463533519394796e+00 6.4386154396407264e+01 -4.6036571307271483e+00 2.2104908146487071e+02 9.5345235108270714e+01 -9.8334123129056067e+01 6.5313636742064909e+02 -1.2736467857829274e+02 -3.3937311086501133e+01 3.3781007428149678e+01 1.4311828693741148e+01 9.5736358916407039e+02 8.4387775630930420e+01 -3.1305892375800735e+00 -9.4932881412910115e+02 1.0835278252275657e+02 -2.8382188071889146e+02 9.5795255106778441e+01 1.5150966522529814e+03 7.4233443324877257e+01 1.8475206752892429e+01 3.6787206039792227e+02 9.4805825289438470e+00 -1.3273963997184824e+01 -2.6548306865069316e+02 6.2625001180828477e+01 1.4109103944772617e+03 -1.1360653638299918e+03 6.8374560818694511e+02 8.3744208914599676e+02 1.3985991535341780e+03 -1.3290205729123215e+03 4.7609277595652111e+02 7.5343858703531367e+01 5.7813908533322149e+02 3.3800151466046913e+01 1.3900442635247297e+01 -3.8870676300570040e+02 -1.5935577058930432e+03 -1.2019069314400267e+02 1.2198280362248832e+02 8.0491155085623893e+02 -3.6888789193662546e+01 -2.6672697029658536e+01 -1.0154885897000547e+03 -1.9466752552891458e+02 -9.5944899636921235e+01 2.4344645091785870e+02 1.1850748113762791e+01 7.1761227900446056e+02 -2.2355249033855648e+02 2.5911107317383448e+02 1.0217335337039281e+03 9.2773045386908814e+02 2.8238283332035888e+02 5.9402453469360307e+02 2.3089226472067494e+02 8.1490254208949671e+02 -1.9300506371123429e+00 -6.0660308448750841e+00 2.1047763843371936e+01 -7.9412016248520456e+02 4.9315600032804980e+01 1.4086522944363904e+00 7.1405998954097913e+02 -3.5756517029985261e+01 -1.5928087383280943e+01 4.0302851540653830e+02 -1.0602953715821384e+02 -2.2255012098086524e+01 1.1195120789561925e+02 2.3036941207605718e+01 8.0147049573748609e+02 -4.2501424295752821e+02 1.9114516484711240e+02 4.1092748082319645e+02 5.3260972351601890e+02 3.8753345202696096e+02 -1.1544782438923130e+02 -1.2059067853376098e+01 -6.3693833343893755e+02 6.8425804831106287e+00 1.2410340325373137e+00 -9.4283842564346321e-01 2.2231040386230420e+03 -2.2041287308264117e+01 9.6364261403376961e-01 -1.9072047794092964e+02 1.6908183069733937e+01 -1.1008382890613198e+00 1.2466645908405633e+02 -9.9959988475910180e+01 -5.8816305818093495e+00 5.2125052870725391e+01 -5.2506350773843963e+01 -3.0418995392534646e+02 -1.1259285728740797e+03 6.3844802688575726e+01 2.7518405328624613e+02 2.0443277716747787e+02 1.7036461198780032e+02 -6.6687286683623472e+02 8.9487030607631670e+00 4.6827925862675414e+02 -1.7702261324698739e+01 -2.9733789544861042e+00 9.1653682161281722e+01 -9.3477994449048037e+02 -2.3979046026145163e+01 -4.4538056537326113e+01 3.9237484698424305e+02 -6.1608625980821428e+00 1.7396430483506318e+01 7.9779705818112848e+02 3.8560327442246610e+01 2.5359605283021640e+01 -7.7618447604212676e+01 -3.5231850905745709e+01 -7.4651039612891100e+02 8.1886513679696827e+02 -3.0260391657815376e+02 1.8536897974127371e+03 1.4643229892470874e+03 1.9349010401400366e+02 5.8999741900962886e+02 -1.0689444616345959e+02 -8.0800910559989302e+02 -2.5069796272706185e+01 3.5203411208476898e+00 1.2494149279912878e+02 -2.8187631529221949e+02 -2.3857764979173859e+00 -1.3168640036097095e+01 -7.8143338995522754e+01 -4.1860858600714003e+01 8.6072352284567071e+00 -1.0974760346656151e+02 7.7097661427100107e+01 -1.0661081897141358e+00 -1.1081468152653706e+02 -2.6147044809546763e+01 1.1989649873281137e+03 -2.8299987547465021e+03 -2.1246885479529840e+02 -5.6368516200063686e+02 6.8167184859746112e+02 6.5614971589907509e+02 -1.9112001454207689e+02 -2.2079516145626531e+01 -7.6606152793821582e+02 -1.7547031180636868e-02 -1.9472822338147335e+00 -2.0759957666978917e+00 -1.3843246528058721e+03 -5.1737763094742082e+00 -1.2660294468386981e+00 4.4014924207120839e+02 2.0833615756270620e+00 6.0367043123650541e+00 3.8107725468857012e+01 3.0954151764098786e+01 1.9490420063740952e+01 -9.1686309214872367e+01 -6.9396222710676039e+00 1.4173058746280158e+03 2.5212733483549471e+02 -9.9725018578745434e+01 1.2555386096961852e+03 -3.2498632162873641e+01 4.1294071914964837e+02 -1.0964649097423692e+03 7.2788386961732003e+00 1.7423529918402360e+02 -4.5963018294264401e+01 3.6585442363036824e+00 4.8472497823752519e+02 2.5480534313438343e+02 1.0897591362565680e+02 -2.5525187124537872e+01 -4.2965487270255107e+02 -8.8541058739520182e+01 -2.9967208545885306e+01 3.1513352596065261e+02 -1.2304775994926774e+02 -4.2310127631058108e+01 2.5730817038328803e+02 -2.2214505845920577e+01 -5.1596459838625026e+02 1.4874998425256535e+02 -1.3658167678250504e+02 -4.7077702224333524e+02 -6.5118557920793228e+02 -5.1853129579205836e+02 9.2640939011134265e+01 5.6522967005486798e+01 2.1984818013143274e+02 -1.0144867635617633e+01 4.7118660625331037e+00 -6.5961322421446795e+01 2.2737346429444324e+02 -6.8011572543436046e+01 -1.6452939783231525e+01 -3.7162170426411558e+02 -2.6431727334055847e+02 -1.2467733326294719e+00 -3.8168638828897849e+02 -6.6043937601174173e+02 6.7803022293311017e+01 -6.9243039307939978e+02 1.0241147732639701e+02 -6.4332220006302043e+02 -2.4890598476233097e+02 2.2748304889786752e+02 4.0889432878245060e+02 -3.8791526747021896e+02 7.5503681718183628e+01 5.4208748200112382e+02 -2.0260029574749069e+01 -4.7301620137514976e+02 -2.5804979877149742e+02 
      </Row>
      <Row Index="3">
        2.0059734571350605e+03 -6.3747525534652596e+01 -2.7923043470463563e+02 4.7347390944909514e+05 -1.5322981010382437e+03 7.9882917784232905e+02 1.8518808513305303e+04 -2.0125077511358541e+01 -8.3136444321842259e+02 9.7308947310627555e+04 -3.0233472925016736e+03 1.5090579740887333e+03 -9.3143398793923370e+02 -1.4119596047669129e+03 1.4134626693692568e+04 -3.4952521876871862e+04 4.0900190987702963e+03 -4.6190659509484205e+04 -1.0253428629974180e+04 1.3721090655176638e+04 1.6418650756799470e+03 -3.5188169099545339e+03 6.6134199428384061e+04 1.3008429298449928e+03 -4.8036936011040723e+01 1.8412665750713091e+02 7.6634348746062184e+04 -2.3000318867674400e+03 8.0814353482806507e+02 2.2511144050786621e+04 2.9458273842403810e+02 -6.3179416569273315e+02 -6.1132826018399937e+03 -3.5164005582142534e+02 6.0539819929676446e+02 -2.6728628371210436e+02 -1.6953350217833088e+03 2.7374353179502592e+04 3.9218872223178951e+04 -9.3316230681221969e+03 1.3394694516239506e+04 3.0742604255229571e+03 5.8294710548971980e+03 -2.3102461477605262e+04 -1.6847143789506961e+03 2.8096233753528541e+04 1.9326316718453381e+02 -2.6441455476009378e+02 -4.7840562731720092e+02 -5.5783149422342569e+04 2.4411137223275837e+03 -2.3561254469511823e+00 -1.9475515996275426e+04 4.1262345199595120e+02 -4.3881801456570628e+02 -2.8692069116132698e+03 9.7097420146448917e+02 -2.1080534700938142e+02 -1.2992193311214501e+03 2.1500170969478859e+01 5.5458285980385990e+03 -1.1142356487319339e+03 -7.7508352177369870e+03 1.3120585560298116e+04 -1.4698383039267959e+04 -1.3461511317128083e+04 1.2525268030510688e+04 -2.0503109834880311e+02 -2.4274949963175364e+04 1.3923768635374645e+02 9.7301217458288605e+01 2.3232729928386723e+02 -5.1381516149132185e+04 -5.0431350115576515e+02 9.8486672956807922e+01 -4.5688125212753468e+04 -4.1045306058234291e+02 4.7057690671453878e+02 1.1378135155820682e+03 -4.3183256273134612e+02 2.5017525197236279e+02 5.3643981121783986e+02 -1.2720253027031504e+02 3.6331741145244087e+02 1.6302131524688011e+03 3.2622601711858988e+03 1.8646557356961319e+04 1.0352672900897156e+04 -2.0570737989972520e+04 7.8942198297425348e+03 -3.9070018348559165e+02 -2.5428863144590865e+04 -1.9157029249384436e+03 1.0950871563615563e+02 2.4724434372845275e+02 -2.4374993923488463e+05 2.4172906762590128e+03 -6.7606617143844551e+02 -3.8061635724896914e+03 -3.0351018408324592e+02 5.3612283877459356e+02 -5.8756927506913225e+03 1.4319786397514397e+03 -1.6702404848865463e+03 1.8257120771177840e+03 9.9605762922482575e+02 1.3713373939876292e+04 -2.5558686992212708e+04 -3.3875422522499025e+02 5.2023692262468976e+04 9.9715015414022746e+03 -1.9766085152209853e+03 4.1333145326673446e+04 3.2431810016488557e+03 -2.6021126137840169e+04 -4.9681586842782326e+02 9.8006155533342906e+01 -7.2201047846842312e+02 -6.1338478916054679e+04 4.8261466294234506e+03 -1.0795964833359712e+03 1.7723474228605497e+04 1.3942304156280206e+03 9.7661460492043443e+02 -8.2162569929096535e+03 1.3505609426863939e+03 6.4068704886729847e+01 1.6474116552280029e+03 3.1569223150530925e+03 1.7738289889702930e+04 7.8968622191837931e+03 4.4107694640638092e+03 -1.4911386616108808e+04 -2.4007678678055523e+04 -9.6168562369100910e+03 9.9318650819058239e+03 3.1769266660635731e+03 -5.6280946696797628e+03 -8.9271621412151916e+01 -1.1218958788178315e+02 -2.1396364510585638e+01 4.0492604600177161e+04 -1.3238205955602348e+02 -1.2897653053782957e+02 1.6504138148560967e+04 -4.0697619213382495e+01 -9.7895458952226903e+01 1.1124575008366264e+04 3.3112128174477340e+02 -2.3848354638917834e+02 -2.4589357889339421e+03 3.8110590495194208e+02 3.3294139080314926e+03 1.8689239722218423e+04 4.1857408136559513e+02 1.3471194036305897e+04 -4.9274683147004398e+03 -4.3296254793598564e+01 5.0559634753565988e+03 -3.5378613619548855e+02 2.0478746293203450e+04 4.1366447753479278e+01 -3.8004233699480594e+01 1.7727681679549073e+02 -3.3916691101840668e+04 2.4970935925994590e+03 -1.5760009293137142e+02 5.7933223585616506e+03 2.6823372553868842e+02 -9.0208264868909538e+01 -1.7512872172930398e+04 1.0524860519480330e+03 -8.3561005201360871e+01 -8.7730843776502718e+02 4.4665900275908160e+02 9.4888900710460730e+03 9.0133708221053021e+03 -3.8361605860935930e+02 -9.4438987559157740e+03 2.1649581793739617e+02 6.9975118804837311e+03 1.0480575941314062e+04 5.8889954219442370e+02 -5.2491269502066225e+03 3.1636221139566476e+02 -3.5122442800994975e+01 2.8004865125108847e+02 1.8922528130517119e+04 -1.1477637242660437e+03 5.6538497124521632e+02 -1.0424637655113649e+04 -5.8386734632046864e+02 -2.1313482778136142e+02 -1.4768099088361130e+04 3.8137544231758028e+02 -1.1252621237949688e+02 -6.9967145268101899e+02 -7.1842611709438597e+02 8.2839788663950167e+03 2.7438273089497670e+01 -1.6077251931445667e+03 -1.3754552611398729e+04 2.5933848541070583e+03 -2.4535795747720622e+03 -8.4180919719925078e+03 -4.0931381902214844e+02 7.1185786053336124e+03 1.8716565400216481e+02 -5.3797802564417928e+01 4.1251904025949138e+01 8.3095853243814840e+04 -1.8042523784973009e+03 2.0014628292206169e+02 1.7166959473304705e+04 -1.7358499161486952e+02 1.7888812689962030e+01 1.7668622475567041e+04 -7.8146170081459019e+01 5.9229466749837727e+01 7.8000919440786743e+02 -4.1458827726581603e+02 -9.6710926671404886e+03 -1.3703685295843927e+04 7.2876198823669210e+02 -1.2527157931322456e+04 -5.1227949938514503e+03 1.2842067915975305e+04 1.5585376387333672e+04 -4.9606029269319481e+02 1.1337918665882753e+04 5.3941043033721549e+01 -2.2318665657702901e+01 -3.4861277557396285e+01 -2.1349575584938819e+04 4.4510870358723162e+02 -2.9300770450184643e+00 1.0331800479598023e+04 1.1467712043935222e+02 -4.6300048378519421e+00 1.0085770495547949e+04 -7.7512467257933156e+02 -2.9075713696856766e+00 1.1544359450589973e+03 2.9547395860948973e+02 -4.2909418983211435e+03 1.2468659777966221e+04 4.4664236896398438e+02 1.6549963458331229e+04 1.1876847559618847e+04 -3.0711676420077811e+03 1.9075947886051406e+04 -1.0966268129889220e+02 -5.2322410746366004e+03 1.6089686182975163e+03 -1.2758056014412273e+02 -4.5039350115149387e+02 6.6018136290962779e+04 5.1983613357019585e+03 1.6914424137247897e+02 -2.9872958876548371e+04 1.1384589270150259e+03 -3.2258226938549234e+02 1.8259068906565997e+04 6.6357213830882665e+02 5.4113643381249403e+02 -4.2809310854057912e+02 1.2552866594127463e+03 -2.0421338865308338e+04 -6.3678546216622817e+03 -3.8544646206386205e+03 -9.4376347608024480e+02 -1.8420493279890801e+04 -3.0592805098693198e+03 -9.1182663421603211e+03 -2.7273679200376591e+02 5.7677491562664167e+04 -1.1379434396524903e+02 6.3482520133503203e+02 -7.5275388189135344e+02 -7.5051057697443874e+04 -6.0348688070739627e+02 3.9379801074975074e+02 3.2615848595464533e+04 -7.0986123677040450e+02 3.5890897275468092e+01 -2.2252851474748022e+04 -1.0202690343909920e+03 5.1330038330860509e+02 1.1610114532744021e+04 1.8490637200471956e+03 6.3430547454663224e+02 1.2227830666786718e+04 5.1008751281912701e+03 8.6984167947877340e+03 -3.5449200449090090e+03 2.6798159392865840e+04 5.7103314743118463e+03 3.0629859303720386e+03 -1.2407973158569070e+04 3.2730082725144777e+04 
      </Row>
      <Row Index="4">
        -1.3382705336266218e+02 -1.3764110392294774e+02 3.0958756319775330e+02 -1.5322981103705210e+03 2.4484414742107679e+03 -9.0781345867893151e+01 -3.9432275243305571e+03 -1.9065127269784509e+02 -5.0773822391705821e+01 1.9719238054502603e+03 -3.3099626351326850e+02 -8.3651823035648093e+01 -9.8211410827836829e+01 2.1903144439083150e+01 -1.2661100540865500e+03 2.2717029069783948e+03 1.0064632986002725e+03 9.3065496911847322e+02 3.0105236837474095e+03 -2.1530331063171448e+03 5.7947995044168183e+03 -3.5444944652605017e+02 8.9342387778516013e+01 -8.5348090341020779e+01 -7.5116559670566929e+01 2.5454183961569203e+02 -1.2069931801759751e+03 1.1288520731253611e+03 1.0331812920742552e+01 6.4587229075815640e+02 -1.6232993899119339e+02 -3.8142347900895473e+01 -4.0864801513588645e+02 -1.2116765089214952e+02 -8.7525158329207883e+01 3.7548132433386996e+02 -1.0290042358115219e+01 3.0293555748659724e+03 -1.4886873841462598e+03 6.4075719382997454e+02 -9.8528736374950859e+02 2.2633548157748589e+02 1.3359097620434384e+03 -1.5210827714082152e+03 -2.4196075176646465e+02 -1.1384470906510041e+03 2.7905430656717272e+01 7.8323755529598742e+01 2.0806146692369083e+01 9.6595607265671515e+02 -7.1506715158517329e+02 5.3089479832901787e+01 5.6326069160077031e+02 -5.4052525210362035e+00 8.4776226338522534e+01 -2.3045347345017331e+03 -5.8252173764109694e+00 6.9485877224362497e+01 -2.0266938914395601e+02 -3.0317315288662417e+02 1.4935662356220228e+03 -1.0569365089735695e+03 2.0541623652205169e+02 -1.1759507564060182e+03 8.3644079491059017e+01 1.0233210927825621e+02 -1.3447260446400392e+03 1.0629852746425868e+02 3.4356552859913345e+03 -2.2679815637160903e+01 -3.6496561730511985e+01 3.4054259742676942e+00 -3.0077879544224688e+03 2.8499213052204084e+02 -2.4524174136253112e+01 3.5714917702137330e+02 -2.2147171964467489e+00 -4.4540738374766846e+01 7.1555995821283886e+02 1.1965933609708372e+02 -6.5701947760846849e+01 -6.9163859054142964e+00 2.3503789264401118e+02 -7.3056862792127527e+02 2.3786231171753502e+02 -4.1200973010897621e+02 2.1040492371401433e+02 4.9978293734985709e+02 7.8036892031623665e+02 -1.3639726843694457e+03 -2.3348161292450008e+01 -2.6517365999566691e+03 1.5618259186885629e+02 1.1001136176241971e+02 -3.3013331864531881e+02 2.8991590345514328e+03 -1.5431157636611060e+03 5.7254992174075696e+01 -3.2543050703236968e+03 1.4691096247441061e+02 3.5695055166935624e+01 2.2011634807690853e+03 2.3970954844970396e+02 9.3697899163014313e+01 8.2130836538230039e+02 2.6974000764246682e+01 -1.3014887761165246e+03 3.3163831321262114e+02 -8.2537874394448295e+02 3.6546784983596299e+03 -3.6261832746365218e+02 1.3077132750708661e+03 1.5844332833758808e+03 2.8860733171327990e+02 7.0206226507137444e+02 -7.8038538608977035e+01 7.5037278560449934e+01 -1.0220362648281954e+02 3.3023037277849903e+02 -1.2162350955482873e+03 1.5296151639317941e+00 1.5630198380491174e+02 7.3785787146664347e+01 -3.4278334474400936e+01 4.2997197439658044e+02 1.5776583889230051e+02 1.5438521273660690e+01 1.2874370857140059e+02 1.1035068188364460e+02 6.6857316491702250e+02 -7.8559249472406100e+02 -6.8032035532507166e+02 9.3414782810058750e+02 -7.4815560215783717e+02 -2.3704330695753747e+03 -1.9777877759295734e+02 3.2785613626345565e+02 4.2840829292367647e+02 -1.4151430953542485e+01 -1.5496882360565237e+01 -5.0264642402159172e+00 -4.7244312604308961e+03 6.8170311542708617e+01 2.2515323341377815e+00 -6.7939115760613845e+02 -1.1859036222971241e+01 -2.2828452633182049e+01 3.9222977101772460e+02 -1.3954879851086270e+02 -3.3370874153306573e-01 1.9340807921885346e+02 8.5531390323968381e+01 2.7229032590061051e+03 2.6356438402382719e+03 4.3558222028156104e+02 2.8987678389044836e+03 2.7394823516820179e+02 -3.5351159699303855e+02 8.7355378858105405e+02 -2.7125880575109111e+01 2.0429356042692789e+03 1.3760096663095460e+01 -5.5245485081504029e+00 2.9817871645116369e+00 1.9306033545062592e+03 -4.4470558182695271e+02 1.1421768019633976e+01 4.7432101761908143e+01 6.8397750780617457e+01 4.9382286076938637e+00 1.0702434327298918e+03 2.6052719955327856e+01 2.3595197901898619e+01 5.6993054248503867e+01 5.9353107075402392e+00 8.2374588199243522e+02 -1.4862190454899371e+03 2.8852846122656746e+02 8.2168941608880959e+02 -1.2314376666543183e+02 9.4535407950878380e+02 2.8241306735977207e+02 3.0707885816430158e+00 1.6683043694044950e+03 1.0326004464036139e+01 -2.3865539994786467e+01 3.0583105408176696e+01 8.2525834993369995e+02 5.8917139349294519e+02 -2.4274931459236285e+01 -5.4864836508535518e+01 1.9521252794112399e+01 1.4309121850653788e+01 -5.7069439536777395e+01 -2.1084812279449034e+02 1.6135007696030140e+01 -6.7245265458702860e+01 -5.9186808132713111e+01 -1.9195929333428903e+03 2.4679982279881160e+03 2.7122463050749099e+02 9.2473346321286181e+02 1.1986415729404130e+03 -2.9119118138173167e+02 3.1432064598549246e+03 -9.9756050882052932e+01 1.9399633249830495e+03 -2.5335511229250045e+01 -1.3015441716701655e+01 4.0940392742974865e+01 -9.6824588797527736e+02 4.5525210184786289e+02 -1.8499473073368815e+01 -2.1827610856875071e+03 -7.2687516809785947e+01 5.3262219435677771e-01 1.9539270878884754e+03 -1.0952445657054341e+02 -3.6036433651624471e+01 -7.9319523633061962e+01 -1.2198050887926811e+01 -2.2996451048483232e+03 1.1794793845083595e+03 9.9415657104365579e+01 2.4781276316160511e+03 1.2533846756481939e+03 -1.0615822542450683e+03 1.9391621617734272e+03 -3.5906625710279059e+01 1.1871603422334687e+02 -2.4375742977883559e+00 1.2957831699820590e+01 8.0035174782600809e+00 -1.2132156581500908e+03 -6.4196273814509951e+01 5.9114966963497437e+00 -3.0429774808522275e+03 -1.3843758224832481e+00 5.8696010284572546e+00 8.9172937381271379e+02 1.4599438472037860e+02 9.8838628688223231e+00 1.2877495856273154e+02 -2.7539493048735316e+01 1.4890777198386811e+03 -9.2079638596366613e+02 -9.2358322000465563e+01 1.8708100147815451e+03 5.5731617067052969e+02 -3.1767135333149054e+02 -9.3222170973807351e+01 1.4240022534415937e+01 1.3964672818426044e+02 -1.4845717069464982e+02 -4.6811411131795353e+01 2.2991756013308526e+02 -1.6121808015716788e+03 5.6792884880355791e+02 -1.0792041426870082e+01 5.6684233746049267e+02 -5.6999643678427304e+01 -6.7286789852117806e+01 -2.3693515328434778e+03 -6.8520637576108783e+00 -3.1077258879756172e+01 7.9115660535092354e+02 8.7101611328324424e+01 -1.3874598470228459e+03 -6.6629963749904482e+02 6.6025121781366443e+02 -2.8936805101212817e+03 -1.5377815346355555e+03 -1.2995392839777196e+01 -3.7705108846550925e+03 -5.1411504085184255e+01 -3.6794942253693762e+01 -7.8544287260124278e+01 -1.2193307989752671e+02 5.8320443340527525e+01 4.2925136569524466e+02 1.8009016559500719e+03 -2.3947375110648245e+01 -3.0093687859866445e+03 -4.1666645558048913e+02 1.9536198586402989e+01 -2.9644340492680612e+02 -1.2201283164478116e+02 1.1775971036463801e+02 2.2434537474152130e+03 -1.6686863395383114e+02 -1.6901098141546206e+03 6.6234535631081451e+02 -1.5867622706096719e+02 -1.2258851448008227e+02 -7.8727431958454576e+02 -5.8698495757572948e+02 -6.8154195170753337e+02 -2.9403218350377529e+01 -9.5196362505564636e+01 1.6794242440137230e+03 
      </Row>
      <Row Index="5">
        -5.5835485012314518e+02 3.7158061581556424e+01 -1.1641039350428275e+02 7.9882918654993227e+02 -9.0781345893449299e+01 1.1274283826020660e+03 -1.4587926166016150e+03 1.3709696646450442e+02 -3.4896246871911423e+00 -5.7680788552480169e+02 1.4824204758166037e+00 1.1388034274614158e+02 2.1747451258307143e+02 3.2428656996390117e+01 -8.5221128361843535e+02 -1.0411720110994695e+03 -1.0685991894614917e+01 1.0762115503252205e+03 1.1846051119064323e+03 2.6512910116095406e+02 -8.8919040239374101e+02 -3.1114733201084078e+01 1.4075470770460929e+03 -3.6523935169117567e+02 2.8740046792918712e+01 -7.4460854219499453e+01 1.3543610837970873e+03 -2.1512719413224740e+01 7.7671466045159184e+02 2.0906991253910087e+02 1.0445452708450894e+02 -1.1897137651223716e+01 -1.5049980287928131e+03 3.8577541788469944e+01 4.4295923809095321e+01 8.5442180013015786e+01 -2.1198767586128014e+01 -9.1548982447843719e+02 8.3013477994513937e+02 5.0470690344091544e+01 2.8354172927501122e+02 9.9074005931621684e+02 9.4286654817122098e+01 -5.8763162197565919e+02 -2.9583213285113633e+01 1.5725999407137226e+03 1.2686394007562399e+01 -1.6633441222343821e+00 4.3760867556287621e+00 9.8639561664681196e+01 -3.0858901906742915e+01 -5.1879935175479673e+01 3.5971918187256153e+02 5.8541373268708057e+00 -2.7583870100787429e+01 1.2078132724403208e+03 6.2462044343098988e+01 -1.5427186083151902e+01 -2.0809608932905442e+02 9.3371284178440149e+01 -5.0259291532579846e+02 -7.8764750833108360e+02 -5.1184361705078629e+01 6.0442304720165021e+02 1.3233036689922915e+03 1.1701172732506154e+03 9.8079216306674789e+02 1.4775725869281356e+01 -4.5473565198781773e+02 3.9608349954469579e+00 2.2287886008876452e+00 -5.0527323141067271e+00 1.3565996723839157e+02 5.5617785997946491e+01 2.0385933445671146e+01 -2.9372560963482533e+02 1.0709438761704371e+01 2.2576341729845288e+00 3.0362875415630606e+02 -1.0727732316372567e+00 -1.1246723601112945e+01 -1.3082625424855703e+02 -2.9788082162644113e+01 -3.8629596589668802e+02 -3.2079952651854046e+02 7.6555204990784716e+01 -7.6610916748220598e+02 8.0740321612885339e+02 -6.4708312108263794e+02 1.1419366997977963e+03 1.4567741512904714e+01 -7.5185132786775910e+02 5.4504257978500402e+02 -4.0807415088046696e+01 1.1710743067240493e+02 1.7663931560463521e+02 4.3537507232948109e+01 -1.0598568259418169e+03 1.8606607755665441e+03 -1.2569879381688136e+02 1.2079351953872296e+01 9.5457502756150404e+02 -2.3286902820262000e+01 -8.6181661604515128e+01 -9.3860450833211203e+01 -4.0190721051022081e+01 4.6818930128410238e+02 2.3227059972341158e+02 -4.5468742065121717e+01 -2.0304401152482683e+02 -1.7532049770822819e+03 5.4868562916497785e+02 -1.6176839811511923e+03 5.1725033825201002e+01 -1.4561284566044055e+03 6.9961001677638535e+01 -2.9663228141487750e+00 3.7856493396689935e+01 -1.4110436790971207e+03 1.8726438233825749e+02 -5.0726017772755091e+02 3.5687714199576499e+02 -6.3782126816229606e+01 -7.9324800791375338e+00 1.0443679109524069e+03 -2.0234870452200482e+02 -4.7164426593624071e+01 -2.8266326877539171e+01 -3.6914934968937956e+01 8.5755947077631390e+01 -4.8353181666962087e+02 3.9754645122657519e+02 -7.5885856932912111e+02 1.0810589912963310e+03 -1.1624029388670122e+03 1.9708678541536576e+03 5.0410951468689582e+01 -2.0280112481485785e+03 -4.3065666207836886e+00 1.3271610175038440e+01 7.3401919705981804e+00 1.8350177014324038e+02 -5.7006532059244030e+01 1.7750224889319806e+01 -8.2249077300350882e+02 -7.4767248033703293e-01 7.4751494857934322e+00 -1.5306451762568495e+03 -5.2915363016311886e+01 6.5575737820426818e+00 5.3610607348857641e+01 -4.0482048425713863e+01 2.3553703381947025e+02 -6.2419823692693649e+02 -6.1569166012672049e+01 -1.3798923428638068e+03 -6.9044638375022942e+02 1.1730586552113586e+02 -1.9622680721314039e+03 4.6481486443929043e-01 -4.4522759539405286e+02 5.5142400773271039e+00 -6.5888724826775240e+00 -7.9477113453357120e+00 -7.0919653420286545e+02 5.0068027609107261e+01 -4.2404953118180790e+00 -7.9866424916996368e+02 -2.8240653966068368e+01 -6.1857494989685353e+00 9.8963643037237148e+02 1.4313618706229629e+01 -3.9624035026945181e+00 -3.4699571985693005e+01 2.8159584577331923e+01 -8.2729280469419655e+02 1.0951634671421448e+03 -4.5213023833896806e+01 1.3363468066573710e+03 2.9228871891055803e+02 -2.7997611360634278e+02 6.7438062669547730e+02 -1.8011554036227746e+01 -1.3669584250873785e+02 -1.4733837632114192e+01 -3.0718186624084263e+00 -1.1687737731739130e+01 6.2841924659506424e+02 2.3636177769219657e+01 1.5421131305818659e+02 -1.3197360403377897e+03 3.3446862474668080e+01 -1.1202182657646955e+00 -1.7444980431758822e+03 4.5542145476463702e+01 2.2503475484695308e+01 -6.9817713805710824e+01 6.0311453531102920e+01 -6.4171459167565899e+02 6.9841613145101473e+02 -1.8884061910551800e+01 -2.8283950217207557e+03 -1.0478961460507385e+03 -7.2840059640683944e+02 -4.1403858936597953e+02 -1.3217760609458656e+01 1.3096460962646671e+02 -5.2982596876042543e+01 9.8270491993669058e+00 -6.5784537556527525e+00 3.2383082211334113e+02 2.9081996803633579e+01 1.4409810285735426e+02 -1.6383372466875473e+03 3.8417204918486384e+01 -3.3788612334620729e+00 -1.1139622323865478e+03 8.9516665818838381e-01 1.0633190157717120e+01 -7.7918350191000073e+01 5.1592089799390330e+01 6.4299824978787183e+02 1.7045683156967018e+03 5.9065467706975383e-01 -2.6568737721351276e+03 1.2268657988923763e+01 -1.0649300646495803e+03 -9.3530968633960043e+01 -1.0763720551115423e+01 -9.6030721336345482e+02 1.7621648294180099e+00 2.2349106809072126e+00 -1.0784155863058191e+00 2.9625401410673476e+02 1.7138447103704564e+01 -7.7669583554309956e+00 1.5117775360535989e+03 4.3817980104025089e+00 -1.3097330919835675e+00 4.5102636931971233e+01 2.4980216313959524e+01 -1.5278339935563992e+00 -3.7899681859362197e+01 1.5181864665917333e+01 -5.8314637578007137e+02 6.8183852722608185e+02 2.6947705416633756e+01 -4.8532794640174393e+02 3.4839232900534239e+02 -2.3116686125749723e+01 5.7664670700608394e+02 2.7670542253552570e+00 -2.6564652520996663e+02 -3.8594008037570779e+02 2.8625889310547915e+01 -6.9603097655885435e+01 5.7906197086718498e+02 9.9600365324601171e+01 5.7695775890593598e+02 4.0820489392364470e+02 7.3588373501856736e+01 -2.6349518847391110e+01 -8.0330195246973494e+02 -8.7526687077879416e+01 3.5960894121295489e+01 1.0990305570158455e+02 -2.0447947559692011e+01 6.0389100209282788e+02 -7.6533610399663047e+01 2.1990803968048766e+02 7.9664499005440052e+02 2.2135622127209263e+03 1.0918534122072269e+03 6.8319958881761318e+02 4.3939070963074805e+01 -4.6309904503904704e+02 -1.5546760953728011e+01 -4.0386431626005788e+01 1.7171428048785334e+01 -3.5551953257367359e+02 8.9361940479644147e+01 -1.2559281129894668e+01 -1.4294731704160649e+03 1.3697881227030985e+02 1.1873624472965236e+01 -4.3680953908295237e+01 -1.2655378920145955e+02 8.7004968814045291e+00 -1.3072089235554012e+02 -6.8893342351065257e+01 2.4157732617462582e+02 -2.5103704478101128e+02 -1.9053871764700008e+02 1.2264131474988835e+02 3.1076244224039783e+02 -5.7339966583603223e+02 2.6663663046852184e+02 -9.5090087672625486e+01 -3.5524933353749554e+02 -4.7187572308501944e+02 
      </Row>
      <Row Index="6">
        2.6186017804447702e+03 2.4728312396330148e+02 -2.4544395364195225e+02 1.8518808469708660e+04 -3.9432275187128525e+03 -1.4587926244039832e+03 7.2028362790005130e+05 -1.6849444855037618e+03 2.0340038026218554e+02 7.1355013407312217e+03 -1.8669601248162905e+02 5.0033093505564466e+01 -8.3716918888544024e+02 -4.9036612210300464e+03 -1.2240630433777341e+05 1.0219549091031773e+05 -2.0040763485387788e+03 -1.3759118890555232e+04 4.6389482354008360e+04 4.5311599734323565e+04 -5.3229257745838309e+04 4.2912900105051031e+03 -1.9074158524452214e+04 1.4916626982440725e+03 3.4769685414576759e+02 -6.2490038072845891e+01 -1.2489130427019392e+04 -1.6513552402363287e+03 -6.0883692113715529e+02 1.0024263436511552e+05 -9.1958969517366586e+02 -2.1485647533063758e+02 1.3638709459222533e+04 9.5523678168899050e+02 -3.5615071470658143e+02 6.8435674870039566e+02 -3.6639805384642132e+03 4.0170385960362080e+04 -5.7557050576699752e+04 -5.0738373557235664e+03 -2.2516323032243599e+04 -6.2314949012795732e+03 3.1825604541018143e+04 -1.5235642624410641e+04 2.3932496335793289e+03 -2.7160329165302064e+03 2.7542467852614027e+02 -4.0911929697693267e+02 -4.2540543344575781e+02 2.2583664962696377e+04 3.1909700813350355e+03 -1.7367891362948194e+02 -4.4028037299269476e+04 5.9062918486528861e+02 1.0656359717552105e+02 -3.6558429837246280e+04 -1.3025249885428773e+03 8.7904954249442244e+02 -3.9992256400980114e+03 2.7846536503242132e+03 -1.3900831954419846e+04 2.5009935190792312e+03 2.1940479792244878e+03 3.7233618822950113e+04 -3.5302093935091834e+04 6.8593311673825185e+04 6.1513606749630708e+03 -1.7637632892004615e+02 2.6131961796879561e+04 -1.6938718147646671e+02 -5.9011298943351704e+01 4.6878838725618344e+01 1.7695139703564957e+04 1.5532842403296763e+02 2.4915225326163511e+02 -1.2846431103979514e+04 1.6230082345255687e+02 -9.6682387763326759e+01 1.6113969684537238e+04 -8.2801033750444185e+02 -2.8639616883995484e+02 1.5083552031328686e+03 -1.4861434216338430e+03 -8.8515614063134453e+03 1.0042264887639467e+03 -8.9718715762546708e+00 2.0359582798055191e+04 -1.9154853524162027e+03 -4.3995717717980588e+03 -9.1394105470729119e+03 1.1323760181790817e+01 1.6612353181611776e+04 -2.3138350286302884e+03 -7.2155282858844146e+01 4.1299835664754312e+02 -2.5453190975518482e+04 1.5805357338547460e+03 1.2491272560948858e+03 -7.8365975636403542e+04 1.7448743783816687e+03 -3.0933316748858107e+02 -2.1372237404402404e+03 1.3558010826367956e+03 -2.9061707576587611e+02 -4.9821247164210672e+03 4.5569835994030718e+03 -4.6915599016633685e+04 1.4700846716607601e+04 1.0331044405093180e+03 1.5081934162601261e+04 -6.4788574229802747e+04 -1.9530832365256632e+04 -6.5821863389260252e+03 -3.8502375734556545e+03 8.4556610738361451e+03 -1.3360887589584308e+03 -1.5597275097366764e+02 -8.6932736245317301e+01 6.5086103820455028e+03 2.0306151058533396e+03 4.8063950613070847e+02 -5.3123440177739787e+04 -1.7250874330973966e+02 -5.5816649148757278e+01 -1.0689740137919329e+04 -5.6008972814961612e+02 -3.4299393642166251e+02 4.1963120402954155e+03 8.6304450925297624e+02 -1.0796370833581896e+04 -4.0463327132027189e+03 3.1878079829601847e+02 2.2168321965278265e+03 1.9194229322078158e+04 -2.2003971005777250e+04 -7.6437403230233786e+03 -3.4136611369643906e+03 -1.7536322866730749e+04 -1.9225960876939610e+01 1.6831526292281904e+02 2.7175671437553194e+02 3.7365730346359589e+04 -5.7940173502281186e+02 -2.4212239148099115e+01 2.0103320061510408e+03 2.1939786647098754e+02 -2.0079296183329507e+02 -5.6582727813831843e+03 4.1606469714956836e+02 -5.7248779118718573e+02 -6.6990307588478208e+02 -1.4648562021224777e+03 1.1925873771451788e+04 8.0918529931423982e+03 -1.6078923619638626e+03 -9.2772311633737700e+03 -1.3803219256266340e+04 1.8470836009455546e+04 -4.0734304485461325e+03 -8.7033345002883266e+01 2.6736998555217556e+03 -6.5453284208127059e+01 4.0626615722144095e+01 -6.9699302922586867e+01 2.9494355214429554e+04 2.5993878171863689e+03 1.7229845493327048e+01 -4.5205505575441755e+04 -9.4249796976528842e+01 9.2955919840287379e+01 -1.5286868340133246e+04 -5.8989263664807834e+02 -2.7104616164392837e+01 -6.4125479584815139e+01 1.4205657358481255e+02 -2.4922831672565146e+04 -3.2474367455888423e+03 1.8389947183249483e+03 -6.8131261372269946e+03 -1.9966867806960883e+04 -6.3306561101236548e+03 -5.5440917979437108e+03 -2.9807700302169246e+02 1.6146440199857338e+04 2.8082235395115248e+02 1.2872181298465239e+02 -2.7384388490617766e+01 -6.6700453429450354e+03 -1.6605875751640724e+03 -1.0332353894499852e+02 -2.7914184875801977e+04 -1.6341756030083917e+02 1.8506600371111830e+02 5.7916531422606349e+03 6.6705714789876947e+02 3.0382269977848409e+01 -6.7563375920020576e+01 6.5025266668603945e+02 1.2347848165870528e+04 -1.5692164261860453e+03 -2.1452076226937496e+02 4.4864898259744368e+03 1.8695212973476882e+03 -5.3963585887347945e+03 1.6288118027879718e+03 9.9949612849362120e+02 1.6976539048950071e+03 4.2632146554904023e+02 -2.9490495273822219e+00 2.3401782631025949e+01 -1.8333840843554965e+04 -4.5312940194613554e+02 -2.0541417332016681e+02 7.4841595224187491e+04 6.2973433548619141e+01 -3.3991734563030049e+00 7.5922648951986721e+03 4.1467104065269348e+02 -9.1117417905874930e+01 -6.0859786487550014e+02 -1.0581928101337867e+03 5.8215906988470233e+03 -5.1568429944053059e+03 -1.6901456306678353e+03 2.5693780371703815e+03 -6.6823867990150393e+03 1.0561296619323781e+04 5.4709255911245127e+03 4.9210481316270841e+02 8.4193513328687914e+02 4.4567245297555829e+01 -9.1379576741844247e+01 -4.6255808295709770e+01 2.8614651803918277e+04 8.1456268848770492e+02 -3.1012969580634653e+01 1.2043245461389612e+04 1.1505411824702594e+02 1.5147225168665290e+02 1.9211383479272743e+04 -5.8007284643863954e+02 2.1546087020098358e+02 -3.4203339046366222e+02 -1.1231159633319510e+02 5.2320160248620123e+03 2.0276450730602912e+04 -6.6529800551801486e+02 5.4150177252660251e+03 -9.6851108931682938e+03 9.6913460540001688e+02 9.7879524001826940e+03 -3.1345891661659806e+01 1.0662236388501653e+04 8.4437219136126078e+02 2.8364780561484986e+02 -1.6896339863839512e+02 -2.5619923274007389e+04 7.5062010867691561e+02 -4.3815537287693206e+02 3.6302665734358292e+04 -9.1210989850032820e+02 -2.2055192289444676e+02 3.0520429956647346e+04 4.4136206245608264e+01 -8.1212223556392200e+02 -1.1781114278273017e+03 -4.0913579088763036e+03 9.8928834387770621e+00 -1.6621285949049401e+04 -4.4521304396609976e+03 1.5110470409304762e+04 5.7152621818206280e+03 5.4527203468822527e+03 -2.4186936292368046e+03 5.6521121437954139e+02 8.7049647852480994e+03 -2.3327732177422604e+02 4.9416684862577677e+02 -3.8397027068818653e+02 1.7084478458316134e+04 -7.3007046505799262e+03 -2.4255430870876307e+02 -2.6798381658605100e+04 1.5625603478507619e+03 1.2157321558075314e+03 -2.7534066526558508e+03 -2.4091088387422333e+03 7.0579186580217470e+02 -6.9460342976615857e+03 -1.3160035144283684e+03 4.8251588900014875e+04 -2.7816655935456620e+04 -3.2669120555661957e+03 -1.1506246121128581e+04 3.1677509553880678e+04 -3.3199509677853544e+04 -7.4666830830493373e+03 -8.7693540054524419e+02 1.9629125316846872e+04 8.3443380800279010e+03 
      </Row>
      <Row Index="7">
        -3.0449617269763149e+02 -1.7916899218923184e+01 -9.6652011650038503e+01 -2.0125075348991686e+01 -1.9065127315117647e+02 1.3709696622413799e+02 -1.6849444809654810e+03 1.1372541700568706e+03 7.7677892565303438e+01 -1.2452035423393895e+03 2.6235903102121103e+01 2.8622345033172928e+02 -2.1550596410744791e+02 2.4137695320884788e+02 -7.7214564612966194e+02 -1.7291129801805532e+03 4.0677590810427625e+02 2.7747675147179302e+02 -1.3983987354292699e+03 -1.1951797659708436e+03 1.3232634418394719e+02 5.8086382364881479e+02 1.0877709967812098e+02 -1.9082368065031207e+02 -3.2100755565743611e+01 -4.8398617497588134e+01 -3.1133679497144584e+02 -1.1309925510328409e+02 8.5829295748080654e+01 6.4773911607805542e+02 7.4478486345678334e+02 4.7435574098044583e+01 -7.6390285905863107e+02 -7.0155684234040612e+00 1.8330573643826105e+02 -3.4061359989858761e+02 2.5803662547351831e+02 7.5687959909645690e+02 7.2226813451264684e+02 1.8347590570130936e+02 3.0107943494438450e+02 -2.2667942722928345e+02 -1.8243247699912126e+03 3.7618834794835340e+02 3.8570522130770740e+02 -5.9392615157269654e+02 -1.6401548262163217e+01 1.6108917153643084e+01 3.5676829965688867e+01 2.6422309244338976e+03 -1.1477496426215249e+02 8.8779062248106726e+00 -1.9409378108616597e+03 -7.9610984006954311e+01 -1.6574930574758209e+01 -1.4924894919564504e+03 1.2973920584384828e+02 -7.7644274041978264e+01 8.7307398915766544e+02 -7.9838854634050918e+01 -1.1443956649723436e+03 1.2876599112156998e+02 4.6264892430052112e+02 -8.3641834370085644e+02 -8.4244146203931086e+02 8.6961792096728561e+02 1.1151635782669314e+03 -4.3467732516792381e+01 1.8929234831810354e+03 5.1123704986146210e+00 6.1951916155854274e+00 1.3071602085847575e+01 -1.6873294892192507e+03 1.8074072527844760e+02 -3.8106640417663269e+00 6.1203798286578603e+01 5.2641050747152008e+01 3.1260754857073437e+01 -1.1423405035898202e+02 -7.1823511757002052e+01 1.8110167814311126e+01 -1.3998465806723414e+02 1.4041019147587843e+02 6.7338320463695140e+01 -3.1060400015963216e+02 2.5340407321339192e+01 -6.8830274615111307e+02 -1.4351957888718403e+01 -5.9037762442608550e+02 -8.0418725663353189e+02 -4.8734605290260635e+00 -6.6016728654648421e+02 2.9446032283526819e+02 1.5003266814925871e+01 8.1638553081537410e+01 -1.6977009529209643e+03 3.1469654236632391e+02 -9.8323382064958196e+01 -1.7538147982751461e+03 -1.0426971453816741e+03 -6.8880018075039231e+01 4.2631749602063888e+02 -8.8965041870575718e+01 -2.7254523637320648e+02 -2.1064978896949597e+02 -2.1400583791181703e+02 -1.9505946308191608e+03 3.7605378237862237e+02 -2.4371434069018153e+02 -1.7683879637294021e+03 -3.4619772248460168e+02 -7.3886410300305442e+01 -9.1548092982834532e+02 -5.7082521215331758e+02 -1.1886086151464042e+03 4.3401593765166957e+01 3.6476313418212712e+01 2.6780999258205252e+01 3.3817534568205879e+03 3.7358817180887331e+02 -1.0641870289337290e+02 -5.2413616249306529e+02 -6.4900090935531557e+02 -1.8871380335486975e+01 1.6492520049902937e+03 5.2868873179808729e+00 -1.1583036819725744e+02 -2.9182482758604908e+02 -3.9474225024355837e+02 -8.9788967465971200e+02 4.7335594490197246e+02 1.5132837969549053e+02 -1.1977100422271283e+03 1.0081031203135749e+03 -9.9815985563008553e+02 6.2771009196903447e+02 -2.5173668044390035e+02 -7.6777255053966076e+02 5.4253620087920362e+00 3.4368367835864575e+00 -2.7524310508820790e+01 -3.4787200631111268e+03 -7.4752106241751832e+01 5.5913003335148534e+00 -2.7835697115232051e+03 2.1541971897755239e+01 8.2908689635732280e+00 1.3942202529951601e+02 -2.4296915326838995e+01 4.1701951799956348e+01 -1.2578503972875443e+02 1.1648790624415126e+02 7.9767011644404192e+01 -5.0199078891666386e+02 -1.9230119857610782e+02 -4.1228405063524951e+02 -2.6612688941702618e+02 -1.2524766065225515e+03 3.4170084485631787e+02 6.3537315043554745e+00 -7.2179512860923410e+02 -9.7159462738314968e+00 -1.1372422876147668e+01 -3.6935361386493533e+00 -1.5182651815779632e+03 -1.5230036910896487e+02 3.6269177932442744e+00 3.2881281391493826e+02 -1.0666584439994091e+01 -7.5236053273478865e+00 -3.6638319018029074e+02 4.7954937152500801e+00 1.3258983188545045e+01 5.8684232929845010e+01 -5.9324397804488207e+00 9.1397048784488948e+02 4.8616358446550544e+02 -1.2023670482250702e+02 1.2603423653511509e+03 3.7809676849465814e+02 -6.8597616203679664e+01 5.0689239058116300e+01 1.0706949907972776e+01 6.4721975856241477e+02 -2.2640921579695657e+01 -1.1947062714647879e+01 -1.2240414131721757e+01 3.3089506408831375e+02 -5.2150015361867062e+01 7.4382979478400216e+01 2.7341096164895316e+02 2.1920708555221339e+02 -2.8744032870969978e+01 -1.8510119485655978e+03 -4.4156705123328493e+01 2.6525409430746876e+01 2.2012426239550723e+02 6.6214639616816484e+01 1.3777257047533112e+02 -2.2320446572270580e+03 3.6834632570462713e+02 -1.8885964676304136e+03 -1.7368843010388046e+03 2.6179941942608238e+01 -2.3079555381077448e+03 7.5497303064664322e+01 -1.4144972664247234e+02 -5.7595298208818363e+01 1.8263656836681443e+00 -2.9969968660733837e+01 2.7695840273180206e+03 -1.6284568156726849e+01 5.4314900499944237e+01 8.3735148932859238e+02 1.7835491614549477e+02 4.7832027270777919e+00 -1.4082148472801832e+03 -1.4770724275491391e+01 2.6317943214425316e+01 1.1186883086658432e+02 1.2570613594310427e+02 9.0747514092443271e+02 4.2571771007713608e+02 1.1895341991399773e+02 -1.1117779115270371e+03 -1.2192324923614217e+03 -2.9146045583390827e+02 -2.7938548316554861e+03 6.9828043318514233e+01 4.5367294768921845e+01 -3.0211233033170042e+00 1.0618170829198748e+01 7.6466602138492634e+00 1.6499854315966321e+01 2.1734040242183728e+01 5.1926911761476449e+00 7.7047720519244831e+02 2.3621562566819847e+00 -5.7790016466886795e+00 2.4095577733365317e+02 2.8598211562596333e+01 -5.9770738380740118e+00 3.3810743455608057e+00 -3.1400114624382169e+01 -9.2289041471125256e+02 -1.4389982905542392e+03 1.1237915868066877e+02 6.5178964968564878e+02 -1.8548185232751283e+02 2.8527392105042787e+02 -1.1639666705004747e+03 -1.5408995266337540e+00 -3.2623483912863151e+02 -1.9552333996717789e+02 -1.4778576502167606e+00 -3.2171713535823628e+01 3.0961646675341426e+03 9.9657639457732046e+01 5.9993055023471669e+01 3.0868963465612751e+02 4.4486164576888677e+02 3.9422766435677588e+01 1.3000476051278342e+03 -7.4299569021244679e+01 1.4817749273876126e+02 -4.3805122106742294e+02 7.0162738317772352e+01 -1.0152624688639094e+03 -2.7122983404529577e+02 4.5872143655923242e+02 2.2903239931960286e+02 -6.9366853516751280e+02 -2.9305016908809694e+02 6.0222576328826426e+02 2.4798808947132966e+02 9.2582844852364360e+02 3.1926392128693756e+01 -7.1145897191640984e+01 1.2039447491628428e+02 6.9721130161288318e+02 7.2785300430464383e+02 8.3313452626474032e+01 1.4659019703421372e+03 3.2167659571612944e+01 -1.0512224937536817e+02 1.6608206697074866e+02 8.8363262083968152e+01 -1.1532743302071060e+01 -1.2950651240354678e+03 -4.8132121912223869e+02 -7.6735417449614289e+01 -9.0893331662994512e+01 -1.4068914352235224e+03 -5.0312960816801501e+02 1.4022570970124211e+03 4.9447767117944335e+02 -1.4466218557538954e+02 9.9488515945165830e+01 6.0263406749543378e+02 -1.9566314299985493e+02 
      </Row>
      <Row Index="8">
        -7.5448158755529651e+00 3.6129454065219946e-01 -2.4398248910820591e+01 -8.3136444203345820e+02 -5.0773822307309608e+01 -3.4896245531015389e+00 2.0340038409505109e+02 7.7677892379747163e+01 2.4049811972112417e+02 4.0382582040560771e+02 1.0881140847469874e+01 4.4268988350222003e+01 5.2791405676727891e+01 6.1195835110943463e+01 2.9561471437094144e+02 2.0959378704177107e+02 -8.7781231079370983e+01 -3.5739849574731920e+01 -4.9804829781663972e+02 -1.1635171574780060e+02 -1.0291912713694310e+03 6.2675042902635397e+01 -2.9599412903027991e+02 -1.3599455008168648e+00 4.4725667819898467e+00 -6.4475307529237611e+00 -1.4332494287856821e+03 -2.5414511982973529e+01 4.4941034541380137e-01 8.5096071841223181e+02 5.8628117107667272e+01 1.4055914969029772e+02 5.2495790354280939e+02 -2.2429135133604710e+01 1.5063511647422057e-01 -1.9578436497055893e+01 1.4594415419213610e+02 -2.5300551589553791e+02 -4.4669532888017261e+02 -5.1897384563567378e+01 -1.1171057014750659e+02 -1.2894219009875263e+02 3.6046989079132302e+01 -8.8512788579408721e+01 1.6690096460552581e+01 -5.3186910312892087e+02 6.2581761686772666e+00 -4.1448802754456082e+00 4.9502481066816344e+00 9.7410018494232565e+02 -6.2281867216983420e+00 1.5953512289231135e+01 -5.6199160690517976e+02 -2.0538538078533318e+01 -3.3300200452217439e+01 -3.0630048757705617e+02 -3.5187681156282591e+00 -1.1354080222159382e+01 2.6305716264586385e+02 -3.8676781015438522e+01 -4.9191648656341704e+02 2.1264439089285827e+02 5.5306164400642544e+01 -5.1177521118149775e+02 -1.9576884755588327e+02 -5.8062508938779445e+02 -1.4237865545499699e+02 -5.2126256098038318e+01 -2.4275126004789979e+02 -3.8638121793881397e+00 1.6981285849030527e+00 5.4969582627123330e+00 -6.3107478820246706e+02 -1.1821347734786350e+01 4.7096824049920141e+00 7.4430540112355015e+02 3.3956641317654803e+00 6.7950714806131751e+00 5.5395358612301538e+02 2.6486056315847236e+01 1.2462882058714591e+01 -2.8159892817823771e+01 -2.1682046461923882e+01 -6.0026289103344794e+00 6.4735782126892059e+02 -6.5364813122254191e+01 -2.6852716593587365e+02 3.2485268699836581e+01 2.6332869923667090e+02 1.0272600909885382e+03 2.6019923071686740e+01 -2.4260179488706450e+02 2.0160391385290408e+00 6.8743985246481367e+00 2.0870948614517669e+01 -3.3631573006786221e+02 6.3455027644052349e+00 -3.1848546631463623e+00 -6.8068535319274531e+02 -7.3111560960513785e+01 -2.0670131084593001e+02 -1.2434156663107262e+03 -4.9655925591558521e+01 -2.3876369983720426e+01 -1.6247946298443716e+02 -1.0429874606229036e+02 -3.9867335651182884e+02 1.6691661239385348e+02 1.0456145201685587e+02 -2.3440010415727642e+02 4.4522750813634769e+02 5.3825941638925542e+01 5.8123474859621729e+02 -6.7936111039435914e+01 7.5859837485666912e+02 -2.3663743032638109e+00 -2.9279057337234867e+01 3.6538590625364250e+01 1.0817267256086839e+03 -3.0741008344974864e+02 -3.6829312374987111e+01 -1.0044078532164142e+03 -3.6843838325336293e+01 -1.4360659043478771e+02 -8.2178369884948756e+02 2.4009611222160036e+01 -4.5873172581585919e+01 -1.5659880820805094e+02 -5.2034327717026954e+01 -5.2009120594811611e+02 3.6500414814951102e+02 -3.0097525979954668e+02 -1.9644907810222776e+00 1.5079375759386323e+02 2.4234655544070395e+02 5.0986738634385443e+02 1.1181300592837275e+01 3.3597888382443170e+02 -2.5943683496825365e+00 4.4303670035667855e+00 -4.5905003569420373e+00 -3.5047445489947745e+02 7.1545365755222548e+01 -5.0539100919590432e+00 -4.4972239915981231e+02 2.8876739709441779e-01 7.4076839545001070e+00 -7.9315223205869574e+02 -2.6040767933402229e+01 1.4202444131247489e+01 -6.5874160355055807e+01 2.6614731662492051e+01 4.3244341794482727e+02 -5.0087623134026899e+01 -5.1635095866705100e+01 -8.2262463421745633e+02 -2.7552759403391150e+02 -4.0595884931647140e+02 -3.7607173541846163e+02 -6.1130113074207157e+00 1.5405743205783166e+01 9.4873054495999776e-01 1.2842449315068949e-02 2.7045142725571374e+00 -1.9229265334747419e+02 4.0330909163278214e+01 -2.2714345273192151e+00 3.1538821788991208e+02 2.2365227358645323e-01 -1.1567413056688599e+01 4.4409558127439527e+02 4.4886367011322591e+01 -1.1357652358844140e+01 6.2654951548531752e+00 2.6614125725772809e+01 -8.8749073524732125e+01 -1.8268657795625191e+02 -6.3297327319278558e+01 4.1220998290908699e+02 -1.0140556527956159e+02 5.9365880532746914e+01 -4.5779011525977688e+02 1.0931349511768087e+01 -3.3535586149104574e+02 -2.5748261378302435e+00 3.4832563137834374e+00 -2.7502289644931164e+00 1.7887368390381073e+02 1.7003247005567601e+01 1.2064967538311585e+01 6.8735153287611070e+02 3.6920311104621781e+00 3.5132071911506756e+01 5.5866441009876189e+02 -9.5202959306889170e+00 6.7269890852988823e+00 5.7244582338887817e+01 3.1234527108138746e+01 4.9121212915599631e+02 -9.4725399411574381e+02 5.0844124064747739e+01 -5.5532541169121896e+02 1.9625342966384898e+02 4.6819392041662820e+02 8.5391381865909921e+02 -9.9475784974291663e+00 -1.5124887489008961e+02 -3.6561166919767079e+00 -2.5763615021846307e+00 -5.1449568663610314e+00 7.6227413810609175e+02 -5.5430243377415103e+01 1.7048785793284269e+00 5.7595658135026019e+02 6.9693995374266002e+00 3.3762563142354061e+01 2.7413881254682570e+02 3.1655532922287759e+00 1.0937360040777396e+01 3.3706007662522737e+01 1.2328346120325547e+01 1.0555399383846016e+03 -5.8331744647810501e+02 4.4158795104457660e+00 5.8881262211068588e+00 2.7325555950057827e+02 5.4546605357936016e+02 -1.1678617763891134e+02 -1.7662736450127067e+01 -1.9253018708973815e+02 1.2066349120150803e-01 -9.8428251463103744e-01 3.2513659928267258e-01 1.1227097580368158e+02 3.1384489597916900e+01 3.4141090228093036e+00 -1.6800321687213386e+02 1.7006157325665336e+00 -4.3758822924589111e+00 -5.5292991433422026e+02 5.1686669743139078e+00 -3.0815198462174562e+00 -1.5096400462430532e+01 -6.7652508296364933e-01 1.2683956696154792e+02 3.2902407656561036e+02 3.8858874743429773e+01 -4.7533337535208238e+02 -3.3451898982891157e+02 1.7122842528299920e+01 -2.4047609675740796e+02 -1.0714815063013421e+00 1.1928401453757401e+02 -6.8301187022349303e+00 -1.3771638444308044e+01 2.3978161219679251e+01 -7.0632301691386533e+02 -2.0426151883506765e+02 -2.2428930730021150e+01 5.7290548878921572e+02 3.1545517289034688e+01 5.9766133851391970e+01 1.1233490152170123e+03 3.4083455926834944e+01 -1.4549159312509879e+01 -2.5168828921834674e+02 1.1455241641351421e+02 1.2024021330922761e+02 -1.6797509106827781e+02 -3.6696672977801171e+02 2.4219362936129983e+02 -1.3335715238680939e+02 -4.4939414522343668e+00 1.3379542018542952e+02 2.0920056063300869e+01 -1.3196563652455188e+02 1.6305338389874180e+00 7.6911448861927738e+00 2.2988914854811362e+01 3.7478173809003295e+02 -4.7707030923450213e+02 -3.3807845297261274e+01 -2.5886388839907852e+01 1.4178434262585142e+01 1.2147467424389740e+01 -1.1127254555763102e+02 -3.1957735787911552e+01 -4.0749624356991800e+00 -4.5280939755462356e+02 1.7234304527533257e+02 4.6791206653544759e+02 2.1113835835872345e+02 2.3605798615618127e+02 -7.6254484066989264e+01 -1.7905217531711168e+02 2.6950071331891888e+02 1.1674754717258207e+02 6.9400751815481101e+01 4.7732331179874777e+01 3.3396228379885599e+02 
      </Row>
      <Row Index="9">
        6.2435008921537683e+03 -4.4081209984383975e+02 1.6212494883070831e+03 9.7308947324683890e+04 1.9719237888607031e+03 -5.7680787857576479e+02 7.1355014637143322e+03 -1.2452035353567198e+03 4.0382582160115385e+02 3.8404020823819964e+05 -1.9947272723549831e+03 7.8028593518742673e+02 1.8967607519894223e+03 -4.9839667130798352e+02 4.8941293488258088e+03 -6.5516832842236967e+04 7.3791394305035715e+02 2.0952548496295477e+05 1.6314460977651353e+04 3.5556101910706173e+04 1.0359586296102856e+05 3.0911350947041701e+03 3.7812793846142013e+03 4.1307729025013059e+03 -1.8769942915256416e+02 9.2694483155530497e+02 -7.6907454948967752e+03 2.8016563817698875e+03 -2.2687803952615582e+02 7.1096638738973634e+03 -1.2781791702360144e+03 5.3872498818430597e+02 6.3892263909784037e+04 1.2379935205521479e+03 7.9824825668883943e+02 -5.6734509121659084e+02 -3.6742404462752472e+02 1.3048377528189594e+03 2.8580309186269478e+04 -3.9411535082126666e+03 -1.9557805297306841e+03 -1.7167449346030509e+04 -2.1300601085919101e+04 -1.0631937234008466e+04 1.8665569184738677e+03 -1.1925153126946007e+04 9.5219603673231177e+01 -3.0892182338911243e+02 -9.0244131020323493e+01 -3.6525730717817736e+04 2.0494818708193634e+03 2.4173284246790354e+02 1.2499893633639826e+04 5.8003923176390470e+02 -3.6868026946271470e+00 -3.3964643287873725e+04 -1.7798377346957063e+03 5.8880737256225621e+02 1.5279910854746893e+03 -1.1078465732615862e+03 1.5062780302141065e+04 -4.2723799911970855e+02 1.4229803633555871e+03 2.0873533312026782e+04 9.2396189490670731e+03 3.7618741785992650e+04 -2.9825924870664283e+04 -6.2975467913798650e+02 5.4722351109652169e+04 9.4925257841948124e+01 1.8180058818091322e+02 1.5332740327065079e+02 -4.8574785961982780e+04 -3.0130441424381866e+03 2.1669031658194007e+02 -3.9953984475279372e+04 -5.5799357722936156e+02 6.9820611714091285e+00 -1.2003903244083893e+04 -3.5065413980092853e+02 -6.9239908574409583e+01 -1.0065776774284709e+03 -1.0442321484003239e+03 -1.0934039320049209e+04 -2.8063409916354940e+03 -3.6029501648629030e+03 -3.1178115231658572e+04 6.0505283293900793e+03 -4.8793615969357532e+04 5.6715842804510776e+03 6.1673807943906104e+02 -2.4349221890999303e+04 -6.1713671403968301e+03 4.8872959375583378e+02 -1.5484676131897052e+03 2.8850441542520042e+04 -1.2702714633013932e+03 3.4995458508170475e+02 2.6543057515905268e+04 1.5822078267840361e+03 -6.8785115283725247e+02 -1.2300286815290939e+05 2.3899993362697910e+03 -9.5816979304396557e+02 -2.0847786934538367e+03 7.5489375192980560e+02 -4.9314415661125058e+03 -8.7604529195144132e+03 2.0232996741531861e+02 2.4286224578094327e+04 1.1397772768364783e+04 4.7421608177069022e+04 -6.1907927972433921e+04 -3.5907008823439360e+03 3.5995138971015338e+04 -6.9545137618658191e+02 -6.3099707585940905e+01 -1.0327859944087809e+03 -2.9118243760436671e+04 -2.9503403215755534e+03 -6.0156753398988531e+02 -1.3898791951512030e+04 6.8590658679553826e+01 -8.8739035034139988e+01 -5.9346415916364385e+04 3.0747667819654987e+02 -5.8418982005437192e+02 4.0526205537440655e+03 -4.4593511801841305e+02 6.5223953461097226e+03 -5.7190851609985839e+03 -1.2943595634493977e+03 -2.0178869422455973e+03 1.5770467929857034e+04 -3.7066743853199958e+04 6.4698240469889133e+03 1.6807059791423417e+03 -6.7598588178642585e+03 -1.5697876308987381e+02 -1.1286010411590496e+02 -1.0900129211388887e+02 -1.0728715229302790e+04 7.9599359371998457e+02 -2.9227377122807218e+02 -1.6785655758038680e+04 -2.8630175170866096e+02 -1.9761960192822485e+02 -1.0753949972410839e+04 1.8458532719458964e+02 -2.7388031333757863e+02 -2.8013432742134355e+03 6.0465822867412714e+02 3.2359257887973627e+03 -1.9137577257151461e+04 8.7794730618058020e+02 2.5170721263047744e+03 -5.2116542524354008e+02 7.8054274126171877e+03 -9.7838814689557876e+03 -9.2924944872296550e+01 -5.5605321320599851e+03 3.4476031634842491e+02 1.7986824448578602e+01 -1.1923301493043755e+02 3.0317285641595794e+04 7.4412543517452093e+02 1.1693209888547426e+02 9.9808528568104666e+03 1.7651083671157332e+02 1.7219708800160237e+02 -2.8469728235281429e+04 -1.0068849719183225e+02 6.6445903674658808e+01 1.4899058665892562e+02 -3.0686601991132426e+02 -1.4178759134495107e+04 -5.1666812180585403e+03 7.6549200450942021e+02 -1.5336996890804090e+04 -8.1073414497140911e+03 3.6192209332236189e+03 -1.9951761656836643e+04 2.9775597046397581e+02 1.6770437861786493e+04 2.7049667129690113e+02 5.2343956786320547e+00 1.2978294002970460e+02 1.0897501263522337e+04 3.1379161683939628e+02 1.7548451245824577e+02 -2.3160795668488216e+04 -3.4982056389862805e+02 1.6929570153045603e+02 -4.6055349263418320e+03 -3.9352225672808709e+02 1.6504561009384369e+02 -1.2578985708584146e+03 7.3526138478963912e+02 9.1366925707736809e+03 5.8797066612056115e+03 -1.0232846134044047e+02 -3.0765141437932376e+04 4.2737150088372655e+03 -8.2900662818637593e+03 1.7415989944005050e+04 -2.1948219706728423e+02 -8.6767109909988358e+03 8.8035218589243073e+02 -1.1711072500942136e+02 1.1867389278450111e+02 2.2695745701580599e+04 -3.9891312004333770e+02 -1.7884171795645705e+02 2.6989854714047571e+04 -4.7033982636661744e+02 5.5926589958423826e+01 5.8756778179017019e+04 2.0118763446959389e+02 -1.9261124235078896e+01 -8.3079445100438534e+01 1.2659513968630620e+02 -1.2903497225111350e+04 -1.1753966890523465e+04 6.6059790563860872e+01 2.1585326966295241e+04 6.3847246615423355e+03 7.8731630419544144e+03 -1.3190112643555040e+03 2.7279378768962840e+02 -1.3292205498408439e+04 3.7488838187624303e+01 -2.8857843957493529e+01 -3.9963071130906984e+00 -3.4302791573506925e+03 -2.4677125679263190e+02 8.9973084564435425e+01 -1.2548195402170764e+04 -3.2523039989467776e+01 8.0517645942835301e+01 2.6326854830601442e+03 -1.0041050855234789e+03 1.4796639142138557e+02 6.3147884940358711e+02 2.7352293086197614e+02 6.4658453013458929e+03 -5.5185454032887137e+03 5.5799211009203054e+02 -2.6452162831968817e+03 7.5618598336823934e+03 -6.0712626243480190e+03 1.7130683354994140e+04 4.3322771969111287e+00 -3.1981564806783499e+03 4.4401440177263494e+03 -3.5868054475912777e+02 2.2791907187881907e+02 -2.1548618149269449e+04 1.9766655910005447e+03 -5.9607759411446796e+02 2.1168070142691067e+04 -1.2226804549470476e+03 3.6653077081991614e+02 3.4314810809005270e+04 8.8575333629322085e+02 5.7083731226642931e+02 -1.4778369548732007e+02 -7.3247112899000604e+02 1.9522528256640377e+04 1.8772527067735209e+03 -3.5298386104955425e+03 -1.2341586319548624e+04 -1.4018872537691486e+03 1.3278800818970085e+03 -8.7033708206195261e+03 3.5442822529295418e+03 3.0070972088332870e+04 -1.4428400702966214e+03 7.7113226091121032e+02 -2.9563680985842367e+01 2.6841282236973078e+04 -1.7719785848084648e+03 -2.1712895103937987e+02 -3.9435583315432552e+04 -1.3077742257810023e+03 7.3734953377518696e+02 -2.7391102461191462e+04 -5.4144684547571087e+03 7.4877394817374852e+02 2.5132492619890581e+03 5.7999425916816754e+03 3.9503015390620099e+03 2.8437635069589396e+04 3.3787883296276436e+03 2.6655580671155196e+04 1.0110259746564578e+04 4.0349940159002661e+04 -1.0512950901472570e+04 1.7390639067884185e+03 2.3095137494000783e+03 4.5408175315739412e+04 
      </Row>
      <Row Index="10">
        -1.0258001715724666e+02 2.1869913848020346e+01 1.1431671057515646e+02 -3.0233472848871897e+03 -3.3099626325889699e+02 1.4824201366659793e+00 -1.8669600244245157e+02 2.6235902327536024e+01 1.0881140938635316e+01 -1.9947272786346875e+03 1.5303773883879576e+03 1.1835637555208342e+02 -8.9779268672434409e+02 5.2923200813102589e+01 1.6951960725925128e+03 1.7124369041850280e+03 -7.2208911606673223e+02 -3.2185401707207866e+03 3.4456892298044477e+02 -1.2831020834977753e+03 -1.8945884296593949e+03 -2.7874735767669517e+02 -3.0355408500317026e+01 -8.4121488561026254e+01 1.8677927945597710e+00 4.8680283546418167e+01 2.1960547195274856e+02 -1.2379231249998924e+02 8.2857865974063536e+00 -1.1026025845360550e+02 -1.2605819933632079e+01 2.1145700973431801e+01 -5.6057779941625824e+02 1.6915325789893777e+02 7.8019015495534177e+01 -4.9133628153099215e+02 4.2263770743022015e+01 3.2133708013360592e+02 1.0925931260048087e+03 -2.5150529056464541e+02 -4.9917120637897187e+02 6.3266496994087549e+02 -4.5305214660895808e+02 -2.2486112144094723e+03 -2.1452886784493438e+02 -1.4295658012323117e+03 2.7875849652456282e+01 -1.3039765983160223e+01 -7.2314135064036407e+00 -2.0602877693448027e+03 -2.6829857374562073e+02 8.7772180172292806e+00 -1.1397809729438454e+03 -5.8804185633640905e+01 -6.2034712136968686e+00 1.1798421700956462e+03 -6.8129624810923997e+02 -5.6312290785155703e+00 6.2524358411291598e+02 -1.0311317299567187e+02 -2.4600998895955649e+02 7.4020412184953079e+02 -6.7298371304825719e+02 2.1005794225634154e+03 -1.3180900097598851e+02 4.0654706952967990e+02 7.9198508001903747e+02 1.4908381900258388e+02 -1.0124855791379937e+03 -7.8446556699442187e+00 2.1200842572136327e+01 -5.9845154174911084e+00 2.6114492264558444e+03 1.8026226723914510e+02 4.2291759671159053e+00 -1.8164607237967375e+03 2.0870136392508208e+01 2.5971854854675357e+01 7.0015287905856053e+02 -7.8762455410011171e+01 1.8568452534744662e+01 -1.2567709782662544e+02 1.2050615564342203e+02 -2.4411202830643344e+02 1.6392801046332481e+03 3.7095235550999422e+02 -1.3842834140084960e+02 -6.8115646559668744e+02 -1.7871252432668880e+03 2.2281574256970544e+01 -2.9484633842630579e+01 1.2600786724689196e+03 1.0492046903394015e+02 -3.2619281634406406e+01 -9.2715161241065118e+01 2.8780663489535232e+03 3.2146486038623078e+02 -1.7678030107926116e+01 8.1250462291699421e+02 -3.5419483627520052e+01 -2.7845308275764150e+01 1.1233051920546623e+03 -9.4002388054973846e+02 -1.1793697385832729e+02 3.7479848955440303e+02 -1.0766126588152015e+02 2.3737705176300628e+03 7.0594419419905830e+02 5.4235404274195446e+02 2.7758943759556132e+03 -1.0991762207398558e+03 1.2835941120728191e+03 1.6078052309912798e+03 2.5513808403788011e+02 3.0064213453639236e+03 5.0567742781768715e+01 8.9854540053357788e+00 -7.5215956191973277e+01 4.3409772814050075e+02 1.0243659664132807e+01 -5.9871956653237170e+01 -7.5720516489395982e+02 1.6998038414259327e+00 -1.0298414894769166e+01 -3.1501983859492429e+03 -6.6082501937584698e+02 -8.1576616997150282e+00 5.5449007655221317e+02 7.0695635071877064e+01 4.4021618958599078e+01 1.4488828351614789e+03 3.2087867620622490e+02 1.6315002543777860e+03 -9.7781224743811856e+02 1.1396515027758080e+03 -9.9466731348503731e+02 6.2942716005531253e+01 1.7351462024974587e+03 -4.0215692407515489e+00 -5.3226164057859817e+00 1.1548001116721032e+01 -2.2913016023481314e+03 1.6541698484208723e+02 4.4640148690906134e-01 1.8704019301258777e+03 -5.0598807711432130e+00 -2.7675715681251813e+01 2.2750276128886918e+02 2.1896599876067344e+02 -3.5506616899987939e+00 -4.1276886715596063e+01 -1.9007299973225238e+00 -1.0453981804282068e+03 -2.1824902333216569e+03 2.7619781176481843e+02 1.0345630551665272e+03 5.5233041192284873e+02 4.6710935859721951e+02 -1.7008943572722965e+03 -2.1904514075718197e+01 -1.3144349891734582e+03 9.7698018051273685e+00 -5.7704954062976821e+00 -2.0897902340688404e+01 1.4108588710141251e+02 1.6636670293393944e+01 -1.4320084242906432e+00 4.2487026642183037e+02 1.3056947370862584e+01 -4.2462212864368558e+00 -5.9056606521582250e+02 -1.3845206988718672e+02 -1.7233340486724225e+00 5.4532841582073772e+01 2.3481089886458903e+01 9.6584051490406637e+02 1.2446673336186195e+03 -6.7818887683964647e+01 7.3412976265281713e+02 -2.4401045019103194e+02 -1.1730903294864561e+01 -5.1234352268957082e+01 -1.1655264800801175e+01 6.9939010124103197e+02 -3.8868289841584094e+01 -8.4543926440968420e-02 2.8167733373192554e+01 2.6556789160615608e+01 -2.2983595230519074e+02 1.6433952567760176e+01 2.9126609913016309e+03 -2.4963802392276648e+01 -9.6434311082577633e+00 -6.9027591549860813e+02 1.2617993944923001e+02 -4.3151144383050521e+00 -2.4616835498124757e+01 1.0192156727025438e+01 8.3415415883521382e+02 -2.3747790127286939e+03 -1.3264878736196212e+02 -1.5783997347462691e+03 -3.2757688622319893e+02 1.0043314354237184e+03 -2.9179630736180106e+03 -7.2542496527130609e+01 -1.7713123208213556e+03 -1.7548748474643574e+01 1.3812429134136195e+01 2.6777395404429523e+01 1.3842959046549870e+03 -1.4257124302297902e+02 -6.1332053538369866e+00 2.6975605504049745e+03 -2.9109612685656984e+01 5.4245243558867289e+00 -1.1198159044623455e+02 3.1533219621944176e+02 7.3474971082650775e+00 -1.2089293305960314e+02 5.0717707124539558e+01 1.5575889658628330e+03 -1.9308960293827759e+03 -1.4970795932933828e+02 1.1224066113001977e+03 7.8106861428568095e+00 1.5751136272870244e+03 -2.5045946971155818e+03 -6.1141364148389258e+01 6.3382504733632197e+02 2.4446229558702246e+00 6.7299886557309545e+00 -5.4699750333122346e+00 9.9811599978338870e+02 -3.3028564343669697e+00 -1.7324129977805434e+00 2.1199814972611011e+02 -3.7274524602837893e+00 5.0432457241323920e+00 1.0571193805169327e+02 -1.2602083878194890e+02 1.0282102972918887e+01 -2.9901910998254746e+01 -2.0761246639750235e+00 1.8228718103449182e+02 -5.7672323802888513e+02 2.1444614059501617e+01 1.8344528070158526e+02 -5.5728617616920167e+02 3.3981775896184274e+02 -9.0010538948461999e+02 1.6920077671789237e+01 4.0506294112726152e+01 -6.1044111802998643e+01 -1.0578065206280627e+00 2.5490749748587280e+00 4.1005755746225060e+02 -1.8698741866194129e+02 -2.5192688829739652e+01 9.2683116565649402e+02 -2.1569164555112401e+01 -2.0107932885097789e+01 1.9979812281992442e+03 3.4243451036811663e+01 9.3137097302118292e+01 -2.1278825824029320e+02 1.0066457749620076e+02 3.3890260511946593e+02 -5.4906735558318314e+02 -2.5021305866249494e+02 -1.4227406628631286e+03 3.9112621958561272e+02 1.3452684569449245e+03 2.9009155483135924e+03 -1.6540225254341476e+02 1.6617791854745228e+03 -5.4088109922190569e+01 -6.9652502181917953e+01 3.9696040845746490e+00 3.4489040280061454e+02 -3.8386161043933748e+02 -8.1974887788002462e+01 -9.4590876150907877e+02 -1.4289733179864015e+02 7.4934866589025919e+00 -7.4549277538104889e+02 -5.7807068119481164e+02 4.0586801460715449e+01 -1.5378903704645240e+03 1.0381564433352605e+02 -3.7385661607160040e+02 3.5922533065747029e+02 4.3696179914526977e+02 4.8930904913013836e+02 -7.1620497824615609e+02 8.0316064785447384e+02 1.2827387040314255e+02 -8.4074506125871039e+01 -7.4315372688223010e+02 1.8899069491413400e+03 
      </Row>
      <Row Index="11">
