<?xml version="1.0"?>
<MethodSetup Method="MLP::MLPBNN_TauTau_MZP600_MA0400_MDM100_nodes35_epoch500">
  <GeneralInfo>
    <Info name="TMVA Release" value="4.2.1 [262657]"/>
    <Info name="ROOT Release" value="6.06/01 [394753]"/>
    <Info name="Creator" value="jhoward"/>
    <Info name="Date" value="Mon May 15 01:46:53 2017"/>
    <Info name="Host" value="Linux vocms0301.cern.ch 2.6.32-642.11.1.el6.x86_64 #1 SMP Wed Nov 16 09:40:09 CET 2016 x86_64 x86_64 x86_64 GNU/Linux"/>
    <Info name="Dir" value="/uscms_data/d3/jhoward/WORKING_DIR/AprilProductionV1_8_0_26p1_V1/HonorsThesis2/ANNs"/>
    <Info name="Training events" value="11085"/>
    <Info name="TrainingTime" value="3.36160747e+03"/>
    <Info name="AnalysisType" value="Classification"/>
  </GeneralInfo>
  <Options>
    <Option name="NCycles" modified="Yes">500</Option>
    <Option name="HiddenLayers" modified="Yes">35</Option>
    <Option name="NeuronType" modified="Yes">tanh</Option>
    <Option name="RandomSeed" modified="No">1</Option>
    <Option name="EstimatorType" modified="No">CE</Option>
    <Option name="NeuronInputType" modified="No">sum</Option>
    <Option name="V" modified="Yes">False</Option>
    <Option name="VerbosityLevel" modified="No">Default</Option>
    <Option name="VarTransform" modified="Yes">N</Option>
    <Option name="H" modified="Yes">False</Option>
    <Option name="CreateMVAPdfs" modified="No">False</Option>
    <Option name="IgnoreNegWeightsInTraining" modified="No">False</Option>
    <Option name="TrainingMethod" modified="Yes">BFGS</Option>
    <Option name="LearningRate" modified="No">2.000000e-02</Option>
    <Option name="DecayRate" modified="No">1.000000e-02</Option>
    <Option name="TestRate" modified="Yes">5</Option>
    <Option name="EpochMonitoring" modified="No">False</Option>
    <Option name="Sampling" modified="No">1.000000e+00</Option>
    <Option name="SamplingEpoch" modified="No">1.000000e+00</Option>
    <Option name="SamplingImportance" modified="No">1.000000e+00</Option>
    <Option name="SamplingTraining" modified="No">True</Option>
    <Option name="SamplingTesting" modified="No">False</Option>
    <Option name="ResetStep" modified="No">50</Option>
    <Option name="Tau" modified="No">3.000000e+00</Option>
    <Option name="BPMode" modified="No">sequential</Option>
    <Option name="BatchSize" modified="No">-1</Option>
    <Option name="ConvergenceImprove" modified="No">1.000000e-30</Option>
    <Option name="ConvergenceTests" modified="No">-1</Option>
    <Option name="UseRegulator" modified="Yes">True</Option>
    <Option name="UpdateLimit" modified="No">10000</Option>
    <Option name="CalculateErrors" modified="No">False</Option>
    <Option name="WeightRange" modified="No">1.000000e+00</Option>
  </Options>
  <Variables NVar="8">
    <Variable VarIndex="0" Expression="read_mt_tot" Label="read_mt_tot" Title="read_mt_tot" Unit="" Internal="read_mt_tot" Type="F" Min="7.87086964e-01" Max="1.31683020e+03"/>
    <Variable VarIndex="1" Expression="read_pfmt_1" Label="read_pfmt_1" Title="read_pfmt_1" Unit="" Internal="read_pfmt_1" Type="F" Min="8.37231148e-03" Max="1.18589905e+03"/>
    <Variable VarIndex="2" Expression="read_pt_tt" Label="read_pt_tt" Title="read_pt_tt" Unit="" Internal="read_pt_tt" Type="F" Min="1.06182730e+00" Max="5.40341858e+02"/>
    <Variable VarIndex="3" Expression="read_met" Label="read_met" Title="read_met" Unit="" Internal="read_met" Type="F" Min="8.00035248e+01" Max="1.31413757e+03"/>
    <Variable VarIndex="4" Expression="read_LPT" Label="read_LPT" Title="read_LPT" Unit="" Internal="read_LPT" Type="F" Min="0.00000000e+00" Max="1.82265125e+03"/>
    <Variable VarIndex="5" Expression="read_DeltaR_leg1_leg2" Label="read_DeltaR_leg1_leg2" Title="read_DeltaR_leg1_leg2" Unit="" Internal="read_DeltaR_leg1_leg2" Type="F" Min="3.94515663e-01" Max="4.65956020e+00"/>
    <Variable VarIndex="6" Expression="read_cos_DeltaPhi_leg1_leg2" Label="read_cos_DeltaPhi_leg1_leg2" Title="read_cos_DeltaPhi_leg1_leg2" Unit="" Internal="read_cos_DeltaPhi_leg1_leg2" Type="F" Min="-9.99999940e-01" Max="1.00000000e+00"/>
    <Variable VarIndex="7" Expression="read_cos_DeltaPhi_PFMET_Higgs" Label="read_cos_DeltaPhi_PFMET_Higgs" Title="read_cos_DeltaPhi_PFMET_Higgs" Unit="" Internal="read_cos_DeltaPhi_PFMET_Higgs" Type="F" Min="-1.00000000e+00" Max="1.00000000e+00"/>
  </Variables>
  <Spectators NSpec="10">
    <Spectator SpecIndex="0" Expression="read_ratio_weight" Label="read_ratio_weight" Title="read_ratio_weight" Unit="" Internal="read_ratio_weight" Type="F" Min="7.25211763e+00" Max="7.25211763e+00"/>
    <Spectator SpecIndex="1" Expression="read_final_weight" Label="read_final_weight" Title="read_final_weight" Unit="" Internal="read_final_weight" Type="F" Min="8.80112765e-08" Max="3.62674236e-01"/>
    <Spectator SpecIndex="2" Expression="read_npu" Label="read_npu" Title="read_npu" Unit="" Internal="read_npu" Type="F" Min="1.66816786e-01" Max="6.99461060e+01"/>
    <Spectator SpecIndex="3" Expression="read_event" Label="read_event" Title="read_event" Unit="" Internal="read_event" Type="F" Min="5.00000000e+01" Max="7.24089536e+08"/>
    <Spectator SpecIndex="4" Expression="read_randNum" Label="read_randNum" Title="read_randNum" Unit="" Internal="read_randNum" Type="F" Min="6.14274759e-05" Max="9.98684347e-01"/>
    <Spectator SpecIndex="5" Expression="read_DataCardInt" Label="read_DataCardInt" Title="read_DataCardInt" Unit="" Internal="read_DataCardInt" Type="F" Min="1.00000000e+00" Max="9.00000000e+00"/>
    <Spectator SpecIndex="6" Expression="read_IsZTT" Label="read_IsZTT" Title="read_IsZTT" Unit="" Internal="read_IsZTT" Type="F" Min="0.00000000e+00" Max="1.00000000e+00"/>
    <Spectator SpecIndex="7" Expression="read_IsZJ" Label="read_IsZJ" Title="read_IsZJ" Unit="" Internal="read_IsZJ" Type="F" Min="0.00000000e+00" Max="1.00000000e+00"/>
    <Spectator SpecIndex="8" Expression="read_IsZL" Label="read_IsZL" Title="read_IsZL" Unit="" Internal="read_IsZL" Type="F" Min="0.00000000e+00" Max="1.00000000e+00"/>
    <Spectator SpecIndex="9" Expression="read_IsTTT" Label="read_IsTTT" Title="read_IsTTT" Unit="" Internal="read_IsTTT" Type="F" Min="0.00000000e+00" Max="1.00000000e+00"/>
  </Spectators>
  <Classes NClass="2">
    <Class Name="Signal" Index="0"/>
    <Class Name="Background" Index="1"/>
  </Classes>
  <Transformations NTransformations="1">
    <Transform Name="Normalize">
      <Selection>
        <Input NInputs="8">
          <Input Type="Variable" Label="read_mt_tot" Expression="read_mt_tot"/>
          <Input Type="Variable" Label="read_pfmt_1" Expression="read_pfmt_1"/>
          <Input Type="Variable" Label="read_pt_tt" Expression="read_pt_tt"/>
          <Input Type="Variable" Label="read_met" Expression="read_met"/>
          <Input Type="Variable" Label="read_LPT" Expression="read_LPT"/>
          <Input Type="Variable" Label="read_DeltaR_leg1_leg2" Expression="read_DeltaR_leg1_leg2"/>
          <Input Type="Variable" Label="read_cos_DeltaPhi_leg1_leg2" Expression="read_cos_DeltaPhi_leg1_leg2"/>
          <Input Type="Variable" Label="read_cos_DeltaPhi_PFMET_Higgs" Expression="read_cos_DeltaPhi_PFMET_Higgs"/>
        </Input>
        <Output NOutputs="8">
          <Output Type="Variable" Label="read_mt_tot" Expression="read_mt_tot"/>
          <Output Type="Variable" Label="read_pfmt_1" Expression="read_pfmt_1"/>
          <Output Type="Variable" Label="read_pt_tt" Expression="read_pt_tt"/>
          <Output Type="Variable" Label="read_met" Expression="read_met"/>
          <Output Type="Variable" Label="read_LPT" Expression="read_LPT"/>
          <Output Type="Variable" Label="read_DeltaR_leg1_leg2" Expression="read_DeltaR_leg1_leg2"/>
          <Output Type="Variable" Label="read_cos_DeltaPhi_leg1_leg2" Expression="read_cos_DeltaPhi_leg1_leg2"/>
          <Output Type="Variable" Label="read_cos_DeltaPhi_PFMET_Higgs" Expression="read_cos_DeltaPhi_PFMET_Higgs"/>
        </Output>
      </Selection>
      <Class ClassIndex="0">
        <Ranges>
          <Range Index="0" Min="2.2854276657104492e+01" Max="8.8711956787109375e+02"/>
          <Range Index="1" Min="8.9394016265869141e+00" Max="6.3839349365234375e+02"/>
          <Range Index="2" Min="2.1099088668823242e+01" Max="4.1432122802734375e+02"/>
          <Range Index="3" Min="8.0130447387695312e+01" Max="1.2402802734375000e+03"/>
          <Range Index="4" Min="0.0000000000000000e+00" Max="6.6934472656250000e+02"/>
          <Range Index="5" Min="5.2751106023788452e-01" Max="3.0675680637359619e+00"/>
          <Range Index="6" Min="-9.8027449846267700e-01" Max="9.9999952316284180e-01"/>
          <Range Index="7" Min="-9.9999994039535522e-01" Max="9.9997437000274658e-01"/>
        </Ranges>
      </Class>
      <Class ClassIndex="1">
        <Ranges>
          <Range Index="0" Min="7.8708696365356445e-01" Max="1.3168302001953125e+03"/>
          <Range Index="1" Min="8.3723114803433418e-03" Max="1.1858990478515625e+03"/>
          <Range Index="2" Min="1.0618273019790649e+00" Max="5.4034185791015625e+02"/>
          <Range Index="3" Min="8.0003524780273438e+01" Max="1.3141375732421875e+03"/>
          <Range Index="4" Min="0.0000000000000000e+00" Max="1.8226512451171875e+03"/>
          <Range Index="5" Min="3.9451566338539124e-01" Max="4.6595602035522461e+00"/>
          <Range Index="6" Min="-9.9999994039535522e-01" Max="1.0000000000000000e+00"/>
          <Range Index="7" Min="-1.0000000000000000e+00" Max="1.0000000000000000e+00"/>
        </Ranges>
      </Class>
      <Class ClassIndex="2">
        <Ranges>
          <Range Index="0" Min="7.8708696365356445e-01" Max="1.3168302001953125e+03"/>
          <Range Index="1" Min="8.3723114803433418e-03" Max="1.1858990478515625e+03"/>
          <Range Index="2" Min="1.0618273019790649e+00" Max="5.4034185791015625e+02"/>
          <Range Index="3" Min="8.0003524780273438e+01" Max="1.3141375732421875e+03"/>
          <Range Index="4" Min="0.0000000000000000e+00" Max="1.8226512451171875e+03"/>
          <Range Index="5" Min="3.9451566338539124e-01" Max="4.6595602035522461e+00"/>
          <Range Index="6" Min="-9.9999994039535522e-01" Max="1.0000000000000000e+00"/>
          <Range Index="7" Min="-1.0000000000000000e+00" Max="1.0000000000000000e+00"/>
        </Ranges>
      </Class>
    </Transform>
  </Transformations>
  <MVAPdfs/>
  <Weights>
    <Layout NLayers="3">
      <Layer Index="0" NNeurons="9">
        <Neuron NSynapses="35">
          -4.2278140761793104e-01 -2.3218999006800536e-01 3.8676200333139449e-01 2.9846447486084221e-03 -1.8599515382279930e-01 -5.0986931339499586e-01 -2.0147438082057728e-01 9.2237978599342324e-02 -1.7862588675415205e-02 -3.0542758883100582e-02 7.0274732536273005e-02 1.6690514456792907e-01 2.8154371838716989e-02 3.2169879388927488e-04 2.1863462076536713e-01 9.7931114296012201e-02 2.3039569118035213e-02 -2.6142032665535753e-01 9.3192136636667065e-03 -4.8974165539903775e-02 3.5551573771648963e-02 3.9967628218698426e-02 -5.7141397845008629e-02 -3.3661365551674302e-02 -2.2511511570262763e-01 3.0210083967711027e-01 -3.7640794825412785e-02 3.5673788625552705e-02 3.9801787260576052e-02 3.0307775497526172e-02 -2.8871332301805840e-02 2.7837744272305127e-02 -6.5081749897816926e-02 1.8070673398754556e-02 4.4096975911750097e-03 
        </Neuron>
        <Neuron NSynapses="35">
          -7.8488674524666746e-01 -3.5553182711212855e-01 5.5140214679453303e-01 3.3830900528789870e-02 -2.2029969489592072e-01 -3.1290570064730500e-01 -3.9742279483691084e-01 8.7700514856840522e-02 -9.0365260915503121e-02 -5.8357198008999363e-02 2.5446225132160233e-01 1.0901596452556357e-01 4.4149201872243443e-02 -7.8011011461356999e-02 3.3931538678606715e-01 1.0602495153755111e-01 -5.8966843180259867e-03 -1.8626698170892780e-01 -5.4184321087453392e-02 -1.2018139234816623e-02 7.8569366260415496e-02 1.6251570744959523e-01 4.1558486275718566e-03 -9.6227880652372880e-02 1.0737420856786607e-01 2.8361545074009686e-01 -4.3762516361676933e-02 8.7513944358716973e-03 6.9923859020173985e-03 -2.0984725044823634e-02 -2.5007877593062340e-02 2.7816080342114215e-02 5.4491776752243781e-01 1.8890800659172983e-02 3.2720169087200830e-02 
        </Neuron>
        <Neuron NSynapses="35">
          -2.2889778646295070e-01 -3.7013127154370762e-01 7.2685644462036614e-01 3.1757186656638965e-02 1.6640772071066445e-01 -1.1700856781511562e+00 -1.1168842114152748e+00 -9.5786421694245019e-02 -6.7965269602005260e-02 -1.3414895799311607e-01 5.3795044629648114e-01 5.5282540428776483e-01 1.0469014408208160e-01 -3.6811413074791773e-03 -1.2175177202294626e-01 -1.0953028266949971e-01 6.7152029958032017e-02 -7.5751536187807245e-01 -2.1681265114410336e-01 -6.1663027767805068e-01 9.8515048218733178e-02 -7.2143489551331402e-02 1.6725119604383179e-01 -1.1180998332016102e-01 -2.4745359808965368e+00 9.5399170270672318e-01 -1.6717712668946894e-02 1.2367447770555172e-01 1.6031435281336981e-01 8.5303667459720428e-02 -3.5354060078609799e-02 9.9799028763378733e-02 8.1725261088584078e-02 5.5574298757158996e-02 -6.4554253079328293e-03 
        </Neuron>
        <Neuron NSynapses="35">
          6.4446313513855258e-01 2.9538481735089972e-01 8.0213462516403211e-02 1.6681872197586561e-01 -1.7996716339241570e-01 -1.8727760112224823e+00 -9.7046245975174250e-02 -7.7461290222678603e-03 -1.1154003720472802e-01 -8.0716050055484115e-02 2.7361730650059524e-01 2.4589136203615039e-01 1.5447835442693925e-01 -1.5858729414658945e-01 -2.0613415805092325e-01 -1.6293553799340604e-01 1.5610845273775756e-01 9.9906860281629606e-01 -1.7268302002079450e-01 -3.6383986592971235e-02 1.1957546504211015e-01 -4.6657992141118888e-03 9.5056338036902110e-03 -9.3761848097701675e-02 1.7710121454603034e-01 -2.0731709289880104e-01 -3.5895528452728108e-02 1.5634658048239786e-01 5.2745494376920166e-02 1.0843984454334092e-01 -8.9236442665217977e-02 1.1621905318054700e-01 -9.1484661208651485e-01 1.6348180417862060e-01 -2.5222694145475986e-02 
        </Neuron>
        <Neuron NSynapses="35">
          9.2581463543761144e-01 2.5464893786192722e-01 -3.1631029229919655e-01 2.0784719471597521e-01 3.8133418286599129e-02 2.2860497584349306e+00 7.1365734009574591e-02 -1.9710854404012479e-01 -2.0056989899486732e-01 -2.0117381903001511e-01 1.9981445401411117e-02 -1.2309999008653877e-01 1.0190331958082817e-01 -1.1800277955720391e-01 -4.0493222501258885e-01 -2.3971815842136962e-01 1.6938122760809363e-01 -1.2841043967204158e+00 -2.0505680811973495e-01 -1.6897520668389919e-02 1.1912557212340065e-01 4.1642042995707473e-01 -1.0707886667766893e-01 -1.2072051263994857e-04 2.0810838894827586e+00 -7.7206455060151225e-01 -1.9589263695799963e-01 1.6092337072124926e-01 -1.5142815282187303e-02 1.3023574960425277e-01 -4.4375444042181189e-02 1.5133871097094301e-01 -3.7152650181517038e-01 1.4141827539645746e-01 1.3047724111194417e-02 
        </Neuron>
        <Neuron NSynapses="35">
          -4.1391608912469258e-01 1.2915441657433020e+00 -3.9691486728434588e-01 1.5998071457092156e-01 -1.1985356233233113e+00 -1.0318530849262786e+00 6.7551703462866042e-01 4.9844330730184955e-01 -4.2183400737222032e-01 -7.1831117061158800e-02 9.4497695162022222e-02 -2.7513120568010868e-01 2.3918616678834986e-01 -8.5673734193648654e-02 1.6469448374885545e-01 -4.3852487722772026e-05 2.2897142160604828e-01 2.6395041458163520e+00 1.7995907714949641e-01 2.6507999695592233e-01 9.4202745356802522e-02 8.6844085678647959e-02 -4.6279963936335808e-02 -5.2624856852980170e-03 -2.6387549851126693e+00 1.2770446464992633e+00 -3.2319768643989727e-01 1.4549410150123618e-01 -4.5340016405090616e-01 2.0427145416407627e-01 1.8738727133036995e-01 4.2705347796048947e-02 -6.5243328066809034e-02 2.6141801459149028e-01 1.8746854696871113e-01 
        </Neuron>
        <Neuron NSynapses="35">
          1.7514781094229273e-01 -5.8014861981399067e-02 -2.5798311821817885e-02 4.4305112795407437e-03 5.8899621387426888e-02 6.1619990425278715e-02 -7.9473473445459769e-02 -6.0576945488920272e-02 -2.0788406432395838e-03 -1.0536008896151668e-02 -6.7747965408182897e-02 -9.4512102369467416e-03 1.5446364246267497e-02 2.1422585568087935e-02 -8.7901260096901052e-02 -2.2181485082334998e-04 1.8125964475196307e-02 -2.8231393409081473e-01 7.3793309034028926e-04 -3.7981287859540518e-02 -1.6849313848084034e-03 3.2774221061429051e-03 -1.1165726208064093e-02 -1.0203716693136895e-02 6.3313869941707263e-02 -6.6518923938610933e-02 -2.1932869222896511e-02 8.1641561354727811e-03 1.6026211204290940e-02 -6.6150360172353420e-03 -3.4110689204004431e-02 -1.5000014086533727e-02 -1.9028036038134133e-01 -1.1705710606744609e-02 -3.3011697202573541e-02 
        </Neuron>
        <Neuron NSynapses="35">
          3.0445864966409186e-01 -6.0221639677705641e-01 -1.2987470733923800e-01 -1.9275057247973279e-02 7.1336150234601707e-03 -4.4054974983376544e-01 1.1620581632241504e-01 -6.2070033495730897e-02 -3.9620945889855978e-02 -1.6559318830619916e-03 3.6695153307092654e-01 -1.7779354403328254e-01 2.1068883020998370e-02 -2.6336504453435421e-02 -1.1436929913879584e-01 -3.1191109542330672e-02 -2.4632457093285934e-02 4.7779593626589228e-01 -1.1726542394438076e-03 7.9609016592258275e-02 2.2434240690476594e-02 5.5332446242030910e-02 1.8831190574953017e-02 1.3309895251877077e-02 6.2695529710157696e-02 -7.0185193321672487e-02 -2.7795679298766193e-02 -1.3796920110357672e-02 3.5244213569937254e-02 -1.2374608872768676e-02 3.4136509344561642e-03 -2.6938400940267346e-03 7.4532986779442689e-01 7.3566640694790256e-03 -1.4903794995108572e-03 
        </Neuron>
        <Neuron NSynapses="35">
          -9.3403482344022093e-01 -1.3338442424367961e-01 -1.7737386597663116e-01 -2.2552975477017395e-01 2.1384681694310997e-01 -2.0444123830401555e+00 5.1604090695630080e-02 3.7320443641854084e-01 -3.3046772913765732e-02 2.0611091697234701e-01 1.5381620968507548e-01 5.3463688754751781e-01 -1.6638538718321619e-01 2.0423860234828153e-01 4.5196353622661500e-01 -1.3139274674058535e-01 -1.6675320053703496e-01 -1.1388081353510354e-01 6.7524388658537549e-02 -3.6236937221889498e-01 -2.2277568444202617e-01 -1.7928587766780518e-01 2.6476102009136659e-01 -5.1303570564844782e-02 -1.1553249645902722e-01 -3.4444616363391428e-01 4.0417004255681255e-01 -2.1207581052738692e-01 -1.8056333352834686e-02 -1.5980345879470523e-01 5.9464180939769351e-02 -1.7490655372294170e-01 6.1312980679268214e-02 -5.0176351090786657e-02 7.0297927374365450e-03 
        </Neuron>
      </Layer>
      <Layer Index="1" NNeurons="36">
        <Neuron NSynapses="1">
          -3.3430186950554730e+00 
        </Neuron>
        <Neuron NSynapses="1">
          3.5863021344282298e+00 
        </Neuron>
        <Neuron NSynapses="1">
          -1.8185383667215580e+00 
        </Neuron>
        <Neuron NSynapses="1">
          1.3200601895541373e+00 
        </Neuron>
        <Neuron NSynapses="1">
          1.3888820252682887e+00 
        </Neuron>
        <Neuron NSynapses="1">
          -6.3914185552358598e+00 
        </Neuron>
        <Neuron NSynapses="1">
          2.1535663976970776e+00 
        </Neuron>
        <Neuron NSynapses="1">
          1.6640581538463466e+00 
        </Neuron>
        <Neuron NSynapses="1">
          -1.3548242226111038e+00 
        </Neuron>
        <Neuron NSynapses="1">
          -1.1067397304301108e+00 
        </Neuron>
        <Neuron NSynapses="1">
          2.6533937590489813e+00 
        </Neuron>
        <Neuron NSynapses="1">
          1.7991268623254031e+00 
        </Neuron>
        <Neuron NSynapses="1">
          1.4626228306112075e+00 
        </Neuron>
        <Neuron NSynapses="1">
          -9.8638327891433775e-01 
        </Neuron>
        <Neuron NSynapses="1">
          1.7675093134431772e+00 
        </Neuron>
        <Neuron NSynapses="1">
          -1.2424896753514039e+00 
        </Neuron>
        <Neuron NSynapses="1">
          1.0996273482347141e+00 
        </Neuron>
        <Neuron NSynapses="1">
          -4.0089158279648958e+00 
        </Neuron>
        <Neuron NSynapses="1">
          -9.5119251995944443e-01 
        </Neuron>
        <Neuron NSynapses="1">
          -1.3973241073712981e+00 
        </Neuron>
        <Neuron NSynapses="1">
          1.3426309613157352e+00 
        </Neuron>
        <Neuron NSynapses="1">
          1.0501776204110509e+00 
        </Neuron>
        <Neuron NSynapses="1">
          4.2537870307962999e-01 
        </Neuron>
        <Neuron NSynapses="1">
          -6.2393044922392715e-01 
        </Neuron>
        <Neuron NSynapses="1">
          5.3144732903662071e+00 
        </Neuron>
        <Neuron NSynapses="1">
          -2.5513368635274571e+00 
        </Neuron>
        <Neuron NSynapses="1">
          -1.1101772518348763e+00 
        </Neuron>
        <Neuron NSynapses="1">
          1.5942098761277652e+00 
        </Neuron>
        <Neuron NSynapses="1">
          -1.2021850942090153e+00 
        </Neuron>
        <Neuron NSynapses="1">
          6.8574467166294140e-01 
        </Neuron>
        <Neuron NSynapses="1">
          -2.8291370070145788e-01 
        </Neuron>
        <Neuron NSynapses="1">
          9.4684491944558846e-01 
        </Neuron>
        <Neuron NSynapses="1">
          -4.1986795116250093e+00 
        </Neuron>
        <Neuron NSynapses="1">
          7.9362179834094815e-01 
        </Neuron>
        <Neuron NSynapses="1">
          1.7169705105954419e-01 
        </Neuron>
        <Neuron NSynapses="1">
          -1.0990245771147895e+00 
        </Neuron>
      </Layer>
      <Layer Index="2" NNeurons="1">
        <Neuron NSynapses="0"/>
      </Layer>
    </Layout>
    <InverseHessian NElements="123201" NRows="351" NCols="351">
      <Row Index="0">
        1.7961278927268950e+02 -1.9150993769376626e+01 -4.5448262197078634e+01 -5.4218599102436360e+02 -2.2160141380382409e+01 -3.9181637991907436e-01 -2.6529029683952942e+01 -8.0035348254895644e+02 -9.0599779048822211e+02 1.0030812798064968e+03 -3.8621226085337867e+01 -1.9146066681326943e+01 3.4015455985823542e+02 1.1411184826625600e+02 7.5948648016310540e+02 9.1627458501210583e+02 1.5364701588414039e+02 -8.6822948408449729e-01 -9.5623731151092568e+02 5.8406242120075802e+01 4.9983727456211631e+02 -5.4964767582858371e+00 1.0410686808873870e+03 -1.4529141091224034e+02 -3.3380876211194828e+00 3.6042697549116411e+01 9.4638333756384964e+02 -2.9258395882120101e+02 -5.9947792898304135e+02 -1.0381013435853654e+02 -8.5986383931372700e+02 -1.9403885296072235e+02 1.5725020026399656e+01 -4.2321457032355738e+00 -3.5954230522738499e+01 -2.8595351634701398e+00 8.8956174026321868e+00 -6.0243327587901234e+00 -2.8621463143773838e+02 1.9150125932795998e+01 6.9561910529373316e-01 5.0128972286812811e+01 3.0498879248492148e+02 4.4230219627261857e+02 -6.5661019740609254e+02 9.4519301117416390e+00 5.4444908142856946e+01 -9.3867565993928650e+01 -2.7048349518797198e+02 -3.9985741695558033e+02 -1.9308206273107504e+02 -1.6340979459573802e+02 1.7937413421952326e+00 8.0817310418062118e+02 6.0784847591134508e+01 3.9094633521581824e+02 -1.0935688479447140e+02 -2.2507492904289708e+02 8.1161867971486663e+02 1.2868981581783689e-01 -2.2183885169066883e+01 -5.7020562306707802e+02 4.9240636624225522e+02 9.6916936283031248e+01 -3.2964201054992577e+02 2.3837987399647272e+02 4.9793135918794860e+01 -1.2501448737028014e+01 -5.9178386779619331e+01 -2.9828519369657090e+02 1.1409434779197698e+01 1.1047087880262007e+01 -2.8230798641179902e+01 3.3184836406206250e+02 3.3765195827790055e+00 -3.3595486747108189e-01 -2.2832134745981723e+00 2.2720215213359657e+02 2.5715269309262248e+02 -4.7033014041289920e+02 9.6215226656802457e+00 1.1623271801165131e+01 -3.9191109873909903e+02 -1.9625456464848480e+02 -6.3694958110880279e+01 1.1363871922999397e+02 -1.8962807425090858e+02 -1.4014508814992794e+00 4.4854409587036025e+02 1.8735911307197341e+02 -1.0812952719934628e+01 6.7827956356730141e+01 -4.3481682709526922e+01 4.2051669849211066e+01 -1.1629643023175953e+00 -1.5620872310607439e+00 -3.9902774494265475e+02 -2.2484386285261357e+02 1.3982102044164316e+02 -3.1171415211453507e+01 6.1025227602252016e+01 2.8772037449270329e+01 -3.0253635262986576e+00 1.6209519517286913e+02 5.5937694931775013e+01 -5.5259986262036080e+01 4.4837022641927149e-01 3.4808006620166402e+01 -2.1956600247731592e+02 5.1996916165395097e+00 9.6653035398546194e-02 8.8929522596465027e+00 6.5803897359880452e+01 5.6636373527653120e+01 3.4148926635748694e+02 9.6070136875548897e+00 -9.2873793797743303e+01 -6.0702122241746451e+01 3.2703871203392390e+02 9.1741635711985225e+01 3.8891679716282283e+01 4.3967956727197293e+02 -2.8047552004737425e-01 -5.0690179529468770e+02 -9.0511445603108882e+00 1.1525999986719668e+02 5.2507897193276654e+02 1.0930591855149714e+02 7.9954793721339456e+01 1.4916731705051982e+00 -2.2018655081149436e+01 1.4058628475607253e+02 -2.2166615774846647e+02 1.1250518601737258e+02 4.0861721413701559e+02 4.2566636480826537e+02 1.7514857796571050e+02 4.6719201630469156e+00 -3.5311455661033733e+01 -3.3283749100107389e+02 -3.4854416950576017e+01 -6.0971523357352178e+00 -1.8145652086061393e+01 4.3069475048233414e+01 3.9216879945019180e+01 9.3816005345510445e-01 1.5745913247972879e+01 -1.1162830422677558e+02 7.9255420350556335e+01 -5.0530683034724007e+00 -3.8457099785872245e+01 4.0298701395240357e+00 -3.1197260292645274e+02 2.1301152818748733e+01 1.3421014409456279e+02 -6.5625398310404137e+02 -6.6599211447157245e+01 6.2234491248521362e-01 1.1414086226340294e+02 -4.3929522204258944e+01 -1.5845384183813627e+02 1.1745600510062117e+02 1.1879517708821220e+02 6.2204139517253566e+01 -1.4524843462404169e+00 -9.6564724857183464e+00 -4.8399876691807174e+02 -2.2934888111400846e+02 -5.0258899355916543e+02 -1.6287750552518770e+02 -2.0974661935223253e+02 1.0678516101137723e+02 6.0735310176646493e+00 -6.2298931880809164e+01 -1.3146755677150554e+02 2.2904824368051081e+01 -4.2824263045909978e+00 -1.4965236286427119e+01 -7.8968781083589420e+01 -7.3099511410976277e+00 5.8419115257973919e-01 -2.9665319818477514e+00 -2.3574743411611473e+02 -2.9471249422723190e+01 4.2164610229485788e-01 1.4408166743608263e+01 -6.2397785110359521e+01 -1.9527701823604190e+01 -1.1234299087281215e+02 1.0845274577509629e+02 -1.0444655021262227e+02 -5.0479809017594107e+01 1.2449341675177026e+00 -5.9454113276373891e+02 -1.5881501453059931e+02 1.7282078942841406e+02 -1.2707123177012176e+02 -7.8873773254255264e+02 4.0563603877401954e+02 -2.5002877468009173e+00 2.3473074232651086e+00 1.8142488820148878e+02 1.4445344091637008e+02 -1.8144691036138028e+02 4.8208764080437618e+01 2.2729227561319749e+02 5.5154039885544535e+00 -2.3310316738048775e+00 -2.7315010034238867e+01 6.0807384304400784e+00 1.9377103157291469e+01 -3.3026184753070691e+00 -9.3566154970017923e+00 3.6179010404605197e+02 -1.2819515127989963e+01 -4.4170153397456238e-02 -4.7661327122977121e-01 -1.3123427054834514e+02 9.5273249435071676e+01 -1.6308507929667815e+02 1.1042677127911929e+01 -5.6751414457993228e+00 -2.0614802277124426e+02 1.9740811367744868e+01 1.9975665005840466e+02 1.0625826121599619e+02 4.4170257778262226e+01 2.6480880924806366e-01 3.1069295270518160e+02 -1.3509633221777731e+01 -6.4590335905010988e+01 1.2500765211375025e+01 -3.4495005646481525e+02 -4.0378272756494755e+02 -1.7397196108176430e-01 -5.7092868492046711e-01 1.2110079867774493e+02 -1.9339081329972848e+02 -1.7474222501935080e+02 -1.6206859687265273e+02 -2.0969078271271439e+02 4.5507365355453906e+01 2.0210692551476388e+00 4.9954660066515555e+02 -2.0224401786527096e+02 3.9212620263292557e+00 1.0399372676961720e+00 -7.3323291071072614e+00 4.8260033510458089e+02 -2.4594621896699557e+01 -1.7660121887147484e-01 -3.9685944416696883e-01 -1.6614975289625701e+02 -3.3196234487639640e+02 4.9397100987337529e+02 8.5358750601048694e-01 2.0273699624754666e+01 -3.6381770302555751e+01 4.4909372198003803e+02 1.9070822614544971e+02 3.1087679116212939e+01 3.2396803907778792e+02 -4.8867592048091102e-02 -2.2661879284762210e+02 -3.4294974529278633e+01 -1.1376383058579572e+02 2.2943508150225705e+02 -1.2716093676692947e+02 -1.0825111862301560e+03 -5.6563628347094752e-01 4.5741724045709509e+00 3.1304824398903583e+02 -4.5792347087240046e+02 -1.7889689513989489e+02 7.1551853836024031e+02 3.3538073632101072e+02 -1.5111590675084270e+02 -2.5619259936792611e+00 -6.8849245035340869e+02 3.1246414514315370e+02 7.3073573309198537e+01 -3.0586800884568501e+00 3.2517530971647801e-01 5.5368835791478955e+02 1.1260729943920005e+01 1.2950975525527522e+00 3.6209078102333663e+01 -4.5604278476140291e+02 7.5678587460568806e+01 3.5186228727033870e+02 -4.3006614702406779e+01 -1.1033750981417177e+02 -6.5859585857960496e+01 -1.0648370973504950e+02 1.1518679194060834e+02 9.7824989910239344e+02 1.5039760541849071e+02 4.9227936420905394e-01 -3.4480677750797827e+02 3.1564749260706787e+02 -9.4989904129184055e+01 2.2142186799525314e+02 -1.2949829512802307e+02 1.4615043249116709e+02 -3.8577649692645686e+00 -2.0991273904809439e+01 2.5395425129658724e+02 1.6728371758942745e+02 2.0989102603230549e+01 -5.1610212403564788e+01 7.2627632055463849e+01 8.5671040809319692e+00 6.4617580906140262e+00 1.3591144201747025e+02 1.0166523162822898e+00 -6.1551180235090828e+02 2.7481291709778077e+01 -1.9680741824903734e+02 -1.6539492673919881e+02 2.0951376206302518e+02 1.7533106779234364e+00 1.3096702026430944e+02 -1.1025823060771994e+01 1.8937011421713754e+02 1.4571543105912434e+02 7.2847165695593503e+01 6.5139824478945604e+02 -1.4690432585034898e+02 1.7610397044764221e+02 5.9491711227499491e+02 -1.1018550074374929e+01 -1.5278667357479051e+02 1.0091181614798916e+00 1.7265090448165469e+02 -6.3005481228737756e+02 -1.5101585228248058e+02 -2.0701852219287855e+02 8.1487428291939622e+01 2.5605140797368949e+02 -6.2496759615375694e+00 3.4002183352487350e+01 1.3835703779192994e+02 -1.6507879820200705e+02 -9.1486562772932007e+00 -1.6113950342727910e+02 2.4098453226812325e+01 -1.6638255952322123e+02 -7.8152831311268017e+01 -1.4760617115761380e+02 -1.3841175620298452e+02 -2.8470092390284428e+01 
      </Row>
      <Row Index="1">
        -1.9150993692355456e+01 5.8700068212389567e+01 4.2545867466813462e+01 -4.3127817497100523e+02 -7.2680356542731275e+01 -6.0957292391581452e-01 -1.4910423686050891e+01 9.7806356993127963e+01 -8.0050526886425166e+02 8.0600194789372949e+01 -1.9391289909163977e+01 9.4599785512855377e+00 -4.8426729275948776e+02 1.1074173180286249e+02 1.2459243444675678e+01 -1.6095406921353998e+02 -3.7788920886624101e+02 -2.3911286369773812e+00 -3.7751966002525637e+02 -7.5849407074092341e+01 3.3117030390773004e+02 -2.5820733912641208e+02 2.4678907823505767e+02 -4.5717881842072848e+02 7.0910842274765717e-01 -3.8889279658051432e+00 -6.7241428652400103e+01 1.7096828952281584e+02 9.5242805208523373e+02 1.8734378806450877e+01 -5.5023914987568116e+02 2.6252265884489123e+02 -1.2781395843325809e+01 -3.7953897479347449e+02 1.9679333783067443e+02 -8.0662524447920152e+00 1.4360882739666598e+00 5.3590559377023084e+01 1.8920446061785492e+02 5.0767555856500117e+01 -1.2855583035882536e+00 -1.4451230351838085e+00 3.7049833586940082e+01 3.9496093866052809e+02 -1.1254945691360517e+02 9.3561077064210156e+00 -1.2136661274565697e-01 -1.5705820983820439e+02 1.7177452302119843e+02 1.0880228041264928e+01 -2.7198910486183331e+02 9.6806441000718905e+01 -1.1494113727316442e+00 3.3989656106532806e+02 8.0694978098011063e+01 -2.1263262065033655e+02 1.5479537958764718e+02 -1.8714433753865950e+02 6.4781512216862666e+01 1.5132418319262022e+00 -5.7762962521220649e+00 -3.1031293047107027e+01 3.3289217173768526e+02 -1.3415419487790393e+02 1.2078352195513641e+02 -1.3131416693392913e+02 -8.1548237737231943e+00 1.7910963202641761e+00 -5.1029735422392008e+01 1.0770442119815652e+02 -3.5325222674263141e+00 -1.7471641973337778e+01 -2.2369979021327449e+01 -6.1102439658175001e+01 1.9504118834612985e+01 6.7680290106086927e-01 -3.5325364862369391e+00 -2.0048500929643257e+02 -1.4272097179559182e+02 -1.3767942402236952e+02 -1.8076004778025933e+01 1.6085408832983831e+02 -9.6674342226435414e+01 2.3678516520068459e+02 5.1629899725936802e+01 -1.0958361073909555e+02 -6.5188696496630996e+01 9.5419434948144244e-01 8.2119996753957338e+01 1.1049553499350888e+02 8.3590354884369319e+01 -8.3849386130060324e+01 -8.4506552873987630e+01 1.0260919769551469e+02 -2.3967347641467742e+00 -1.7983873908168654e+01 2.9691557217369109e+01 8.9745834744634180e+01 -2.9438218652228278e+02 -6.1381746314613622e+01 3.3627442786746315e+01 5.3648343851960362e+01 3.7722209166087071e+00 -3.9569999966424746e+01 -3.7885544966428256e+01 2.0111728155279351e+01 -2.9767151884010737e+01 -4.5804542041477646e+01 3.1230701309551932e+01 5.1503006188129845e+00 6.7576722368256914e-01 1.4317427582243472e+00 -1.1703308757587865e+02 3.6260290072669892e+02 -1.5320074248041033e+02 1.0908692777709419e+00 -1.6791436186905230e+01 -6.7607151501535157e+01 -2.5876991239768870e+02 6.8303850811885809e+00 3.1748882728913594e+02 -4.8230865501352071e+01 5.6459321418466391e-01 -1.8833130455830769e+01 1.5376620693991214e+02 4.4841597634261348e+01 1.4075833982838780e+01 -1.3127568311698042e+02 -2.7852760826041583e+02 -1.1514251141754519e+00 1.1871767333430157e+01 -4.6687413552206669e+02 -1.4878965267596823e+02 -1.8029798226745243e+02 1.2548899606943564e+01 1.6633692961947088e+02 -1.7126819114753005e+01 8.0258589293755680e+00 1.7669348588105186e+02 -4.4923113749220761e+01 1.1580765674999338e+01 -9.8197864451235812e+00 -1.1037340211207843e+01 5.3303948137916905e+01 1.2510092113090701e+01 -6.5989009484499506e-01 -4.6629427059493782e+00 -2.2131693270295351e+01 1.0830341395562075e+02 -3.1437991324902441e+00 9.4456582126148074e+00 -2.3852119754438743e+01 1.1136520196773398e+02 2.7512455107749986e+02 -6.1276746384973023e+01 3.9675880635184399e+01 -1.9503386109378903e+02 -1.1507213381602650e+00 -1.0692278164368827e+02 -1.1667448284786651e+02 2.1544902456170530e+02 1.0086533002043568e+02 -1.6504052341260649e+02 1.3584493446928377e+01 1.7307313301272260e+00 6.4297561034756905e+00 -2.9563416209610227e+02 -6.9851713532068842e+01 -4.5211438242374783e+01 -1.0486158343726026e+02 -1.0750756452047290e+02 -1.5695687466815917e+02 1.8338459542444283e+00 -3.3938990642788144e+02 2.7335581337687813e+01 -4.3404138163982910e+00 -1.5419403781068905e+01 5.4189703601603512e-01 3.1829887628713465e+02 -6.2284332361454730e+01 -3.8347083357479683e-01 1.3033675950821433e-01 2.1284997841436928e+02 2.0636657396128157e+02 -5.8481027916239896e+01 1.3485819881878516e+01 -9.7484206184974667e+01 -7.7481369246391125e+00 -9.9211733607476162e+00 1.5154566175864595e+01 2.2033898464480109e+02 1.4359769263763565e+02 -4.3900665098274907e-02 3.7596109373177865e+02 -1.2565414571835967e+02 -1.1712674703096178e+02 1.3876232613854117e+02 -7.5737448598747505e+00 -2.6340065337268243e+01 -1.5297978441435669e+00 -2.6781604359708172e+01 -1.0973379618401947e+02 8.1239693795315304e+00 2.1393936424446633e+02 2.7084232420617212e+01 6.4434458097053721e+01 -9.4959429244659475e+01 2.3753886461183322e+00 7.5546102997711856e+01 2.6566523252975117e+01 3.9023345239175145e-01 3.6564317368350938e+00 2.3709909206606827e+00 -1.2898065168329401e+02 -3.9601160832609152e+00 -6.4209507233602858e-02 -2.9545202562298085e+00 -2.5937820325113536e+00 -2.5821393426548383e+01 -1.1645780506289793e+02 -3.2544429032048701e+00 1.1592644376532112e+01 2.0629607156127551e+02 -3.8860923635352137e+01 -1.3475975759185623e+01 6.1091391791331375e+01 -1.8617250516957267e+02 -2.9011556438046882e-01 -2.0184138977191091e+02 -2.3857593966180097e+01 2.1186978317929737e+02 -1.2385827278064156e+02 6.2282918054174786e+02 3.1522872008553622e+02 5.4189127912872725e-02 1.6448353585441928e+00 -4.0963695016621614e+01 -1.3452576714676570e+02 -1.0913463378221309e+01 6.1028716925807885e+01 6.4664470215009510e+02 -3.9081392779916108e+01 1.5969876953954103e+00 -7.2076002954667388e+01 -3.4850880962332724e+02 3.5210003102262526e+00 1.2094569633660297e+01 2.3246121123351891e+01 -1.8586173787443425e+01 3.5633277902142069e+01 -5.2372819406091020e-01 -4.2055550113427609e+00 -1.0772990100843884e+00 2.3816383553774986e+02 -3.7181149054641128e+02 -1.5016900953432907e+01 -8.4547964752285587e-01 -8.9903695811868943e+01 -1.4609782539358386e+02 -1.0212113314208409e+02 -1.8131853552925691e+02 8.9875505870267489e+01 -1.4749549999331724e-01 1.8992423651158239e+02 -6.8649860843003694e+01 1.8634670104326756e+02 -5.3550714310013099e+01 -3.6947554779778784e+01 5.3971638019164675e+02 4.5280592724431939e-01 1.0974983270898333e+00 -4.7610943687769094e+01 -7.0532794324152235e+01 -1.0060442116011438e+02 -1.2540224417377999e+02 1.6806065119610935e+02 -6.5279942068093646e+01 -3.0242831872915419e+00 7.4712004004394544e+01 -6.6806634680262505e+01 -9.3449463470193184e+00 -1.1924248716062355e+01 1.0528567140173346e+01 -1.8176280017609417e+02 4.1257184543979221e+01 -1.0769635288389923e+00 -3.9637931375352515e+00 6.5739318058086795e+01 -3.9412278654433344e+01 1.4158627339022959e+02 9.1216142563145457e+00 1.3035320588792518e+02 2.2427402990571917e+02 -2.3307669240989071e+02 1.4169796576031229e+02 4.6891120400622242e+02 -4.5527459523035830e+01 -2.4003992454670531e+00 1.4863465828732126e+02 -6.2655695954004329e+01 1.2807110479372025e+02 3.0486913337922772e+00 5.1319484335951074e+01 -9.2432900928527275e+01 2.7435624685330451e-01 6.9160127486806005e+00 -8.0960155054641916e+01 2.4063956689002907e+01 -4.0836750268668766e+01 3.3234619618044746e+01 -5.6153735449848242e+01 3.3348921375055085e+01 1.7344146281620025e+00 3.9029531794171760e+01 1.9299604738690441e+01 2.1532393851427219e+02 1.5700813977198177e+02 2.4624824354211387e+02 3.3907552156103407e+00 -3.3166506266786644e+02 -1.5855368010107962e+00 -5.5566724211077371e+01 -2.2257897303844848e+02 -2.9069888756294517e+00 -4.7923169605605835e+00 2.8747616456081028e+02 9.1789762798000140e+01 -1.4003527094964170e+00 -5.8275202378865174e+00 -2.4209516633671254e+02 6.2230771403960020e+01 -2.5147142444820858e+00 1.4465262776196735e+00 -5.0203787595270754e+01 4.8287922349856149e+02 -4.8542403649224610e+00 3.3111207260793151e+01 -8.8734534695604680e+01 -2.3963029183402071e+01 -1.2136948203335361e+01 -1.3834587367306483e+02 -2.0406616512438418e+01 -5.8440839566935736e+00 9.3980646341425341e+01 -8.9548773258262937e-02 -3.2997236971910347e+01 1.8506174093595416e+00 -3.4804040008533178e+01 1.7463352128563169e+01 4.3789943365602475e+01 1.1085837404726053e+02 
      </Row>
      <Row Index="2">
        -4.5448256848398806e+01 4.2545866147812163e+01 1.3780810200341753e+03 -1.7538772926208107e+03 -3.1230192596424945e+02 5.1406180073636687e-01 1.2660483347980798e+02 -7.6023047419572038e+01 -5.9964341009729378e+02 -1.0312185186476722e+02 -3.7403786602160409e+01 -2.7730102626659516e+02 -1.1332959716297858e+03 1.4146666492484846e+03 -1.5476390624242160e+02 5.3999087429497013e+02 -9.1124787321218832e+02 6.7996006059669885e+00 1.7054285710087634e+03 -2.9797732614360950e+02 2.7879766991946822e+03 9.1520266667888109e+01 2.8345558069866001e+00 -1.2021897773535484e+03 2.0954685820770180e-01 -2.9583048559272655e+01 1.1803788555361095e+03 2.0812330429360791e+03 1.5092581506017115e+02 5.1642779625886988e+02 -9.2465905441305085e+02 2.3418776200362827e+03 -5.4594859853620541e+01 -1.2394493677793132e+03 2.1496885067563198e+00 2.5231670742750676e+01 -1.4978407762678833e+01 4.9875168777801399e+01 8.2649305194677902e+02 1.8047453097210058e+02 -4.1207747933284917e+00 -1.5896774450427088e+02 4.2226682229102988e+02 1.0182413356729450e+03 2.7511677425971143e+03 -5.3321088274035972e+01 4.5769848482242696e+02 -9.6613794293382989e+02 -4.6412076377957283e+02 1.1127767269946162e+02 -6.0294985387516704e+02 2.5814220561386423e+03 -3.8728045896394354e+00 3.1229258230344885e+02 6.0697515267442645e+02 -3.9988181676994727e+03 8.8263162941542726e+02 2.2144676056787630e+03 6.5002257139889152e+03 9.9347385136396804e-01 8.7344611372584367e+01 -2.0133007169827051e+03 2.7602136862925960e+02 3.4347887639714122e+02 2.8848970322848081e+03 -6.9735434932349540e+02 4.3664990149716914e+02 1.0832763450126655e+00 1.5734947313217813e+03 8.0907474787101501e+02 -9.3278765761023656e+00 -2.5423293722036895e+01 3.2104925362953645e+02 1.9779514354078715e+03 2.0147294625189778e+02 -2.3222594217536159e+00 1.6906482308875977e+02 1.1867347665358011e+02 1.3833401689397783e+03 2.2117028621653294e+03 3.7060098842587621e+01 8.3034596321770812e+02 1.5101013707214634e+02 6.9907634566845081e+02 -4.5490404069871170e+02 1.8734855572717743e+02 1.8214373108658510e+03 -6.2663463856761881e-01 -3.7136283558238933e+03 4.7031916999264536e+02 -2.3842234804839509e+03 3.3676741178071165e+02 7.3833176128547348e+02 4.8493909149058500e+03 -3.7958520770420567e-01 5.7324060511768373e+01 -2.0978736010584316e+03 1.0594150413757291e+02 -3.8767946695572118e+02 7.6366171154225231e+02 -6.6670780505193488e+02 -5.8092300860891055e+02 -3.1617110739173334e+01 -5.4746259022626157e+02 3.4000392136523806e+02 4.3878364126786558e+01 -1.0444540288910446e+01 -3.3308555812204668e+02 -1.5175871290228861e+02 4.3765441956541551e+01 -2.5001602782090870e+00 -7.4566570872463274e+00 -1.2830273047666077e+02 2.9192902715694754e+02 4.2352672316025144e+02 -1.2417157363041810e+01 3.4327166116885672e+02 -8.1273129258462063e+01 -1.7343878027414212e+03 2.4360691722104349e+01 3.8864746722461405e+02 -5.9272144734855237e+02 -7.6275391010689111e+00 -3.9504156827317865e+02 6.5732760591589488e+02 -4.4324620539716602e+02 5.2539412305227643e+01 -4.8700317132089390e+02 9.6579834016784537e+02 -1.7593743468015517e+00 -5.8592575729479393e+00 -6.2065558844230225e+02 2.6628056229036474e+01 -9.2001506290773739e+02 4.0598695515941472e+01 8.3983633034122249e+02 -3.5329481523362688e+02 3.9368660053259035e+01 6.3010756810823591e+02 -2.2524974372558245e+02 8.5213899206272323e+00 1.8540406588609191e+00 -4.6523337340783843e+02 -7.9169036104801353e+02 1.8358571132429253e+02 5.6823385383888985e+00 1.3183150887249383e+01 -5.1189056656675683e+02 -1.2387607292355854e+03 6.0731930494200742e+02 -8.5085248130683013e+01 -3.1276511069738575e+01 7.7929220709753349e+02 7.0444989523966797e+02 8.7439223928819274e+01 7.6746561539248501e+02 -6.2879353985023931e+02 -4.9660009819449513e-02 -1.8111851271586482e+02 3.8674318491724648e+01 4.9357960123635712e+02 -1.3972456532893659e+02 -2.0112092229966038e+01 -1.3865916036110607e+03 -3.7325333310691073e+00 -3.7829688471523994e+01 2.4693974043233345e+02 -4.6604677808694601e+02 -7.3202849518562437e+02 1.7804270724450953e+02 2.6066935054994883e+02 -1.4115465607067608e+02 2.6203908352828478e+01 1.0795962195114248e+02 3.3959672734663627e+02 -3.9369336574583144e+01 6.3106289005552743e+00 -2.6507134645208077e+02 -3.3228892421686646e+02 -2.0536754053267862e+02 -2.5486390808375958e-01 -9.9049496027040448e+01 3.2622086701711589e+02 1.4885401849131113e+03 -3.6733066515037081e+01 -7.1297830125604378e+00 8.6209096869274845e+01 4.8066473390146029e+02 1.2585371263767229e+00 -3.2038493493674241e+02 -1.6638305303684010e+03 2.0409971427683286e+02 -8.4662839048817986e+00 1.7544006867846067e+03 1.4303240704887821e+02 3.6046349952623473e+01 -4.3013398339384264e+02 -7.9377450579659671e+02 1.9530361330153164e+02 4.4570723878100562e+00 4.3940919410234713e+01 -1.1154419993051442e+02 1.8878513220735198e+02 -1.5506217521539861e+02 -1.3632941878873498e+02 -1.4166218078215286e+02 -1.2437471024956812e+02 1.3012841295819655e+01 -2.5222036758311151e+02 -1.2340024350693159e+02 5.8009540239029800e+00 4.6653922254470013e+00 8.1311224003915825e+00 7.2749180268357190e+02 -2.6465118201790833e+01 -8.4376871983185908e-01 1.4414986357409937e+01 -1.1690158469303839e+02 -6.5095094938352088e+02 6.5436403499656308e+01 2.5287573368575494e+01 -2.0740689452324787e+01 -9.8476218685068602e+01 5.2866233536664458e+02 -1.0967476426795685e+01 1.0794161503767320e+03 -3.4750637133470127e+02 1.1883768116526414e+00 -1.8914548897795389e+03 -6.7000176461379667e+01 -3.5937408278360795e+02 -4.5517423005068366e+02 1.6015464431612345e+03 -2.4998124189859468e+03 1.5542387358763452e+00 -1.1541292802862309e+01 -1.6940471190461358e+02 -7.5961044674116852e+02 9.9749320501198895e+01 4.9986746781099237e+02 2.6761497166918980e+03 -4.6799878369244482e+02 -6.1129190750601692e-01 -1.9376833762030947e+02 -8.3732408609999061e+02 8.5450326153649758e+00 -2.4486295619687395e+00 -2.8650537824949772e+01 1.1234538735429180e+03 2.3891227469142262e+01 -1.3929133549269856e+00 -5.4245284979880466e+01 1.3201853936629311e+02 -1.7980931790803606e+02 -1.8384366682273458e+03 4.4014103255918670e+01 -2.0149031026325915e+02 5.2627237004216568e+02 1.6328840495716759e+03 -2.0959150332602383e+02 5.0814661880502217e+02 -3.9078226524100410e+02 -8.5359050252301305e-01 2.5850880289635245e+02 -1.0665454723323685e+02 3.0533133262798253e+02 2.1747548343865810e+02 -2.1534344616839189e+03 -4.2236094091943032e+03 1.8576468888965101e+00 -9.2626810422993007e+00 3.7662027254984309e+02 -5.2178089303975366e+02 3.9255625445021462e+02 -1.5168891616179878e+03 3.2499452167234722e+01 -1.4089201367722649e+03 -2.4800812042236902e+01 1.3913463006688642e+02 -9.2448595373638273e+02 -2.6410999783013835e+01 -9.4790270503571321e+00 -2.6811187836048924e+02 3.2297379106259962e+02 3.3863895974656236e+02 -1.4297909132822362e+00 2.5444528585756785e+01 5.2842855724459298e+01 -1.8556245917172791e+02 -2.9269427052239132e+02 -1.1054123858782660e+02 2.1243794384074349e+03 -3.9551494567628390e+02 -8.3265157000572640e+02 6.3117463394656920e+02 1.2884167078329588e+03 -2.3026774228943111e+01 -8.7911690506813898e+00 1.6789757193210967e+03 8.6262040727452813e+02 6.7114372141082526e+01 6.6534333797379031e+02 -4.4162243094788641e+02 -4.9664823045161563e+02 -2.7963511982162030e+00 1.8523072155214550e+01 -8.6385979376923615e+01 -4.1405345179619223e+02 -1.8883312091860976e+03 -1.8908110772807086e+02 -2.4211086197359850e+02 1.7247934122578425e+02 5.2166530512200797e+00 2.5967730762086836e+02 1.4833282946041743e+02 3.0375047841625405e+02 -8.2348487371095047e+01 7.1251754939491229e+03 2.1416604736026426e+02 -1.2929974513039201e+03 2.4637471391736693e+01 1.4378371631723730e+03 4.6432264476881664e+02 -2.6354616561505782e+02 -2.1385883209770725e+02 -9.7408848690957711e+01 -3.2498919453237318e+03 2.9989576885695635e+02 -3.2555295825019925e+02 3.7678419787444977e+02 -8.0764416089868405e+01 2.2320456394614141e+02 -3.0149563978809567e+01 -4.6818644980230283e+02 1.4397939236397081e+03 2.2975433503181085e+02 1.2806732630980946e+02 2.1387192832590938e+02 2.3429529835570241e+02 1.7835052252943569e+01 3.8490033003243889e+02 -1.1697578052753781e+02 2.9614095865153416e+02 6.7310678941138781e+02 2.0213452386805992e+02 1.3113704942034342e+01 3.0588981847906126e+02 -3.8043056422766836e+02 2.9920133072776986e+02 1.6649887763569194e+02 -2.6378070037517773e+01 
      </Row>
      <Row Index="3">
        -5.4218602877573358e+02 -4.3127812410147726e+02 -1.7538767721427175e+03 4.1458682075566275e+05 6.2163500938963507e+03 7.3416702254601205e+01 9.9619794958737475e+02 1.5165202724882736e+04 4.4418603638599758e+04 -5.8806728286656624e+04 5.1648355379202767e+03 1.5751952955439629e+02 1.2023958440263508e+04 1.9510347648898250e+05 -1.0391444320016497e+04 1.2732496884229498e+04 -1.9202300215145404e+05 1.5777501468268611e+01 4.2514974740120757e+04 1.9843603501177859e+03 1.3130187038558965e+04 -5.4238019813485349e+04 -1.5713694988256473e+04 -2.9771261927426676e+04 -1.4815134313128851e+02 4.3536150113400117e+02 -1.8411665084102460e+04 -1.0778890165612195e+05 -8.4823856137071780e+03 3.2906814003196370e+04 -2.6386280827388167e+04 1.3761753460009046e+04 1.6672112998259056e+03 1.5338076267536351e+04 1.7889436402085004e+04 7.2701866698481399e+02 3.9519789399462434e+02 1.2433697309305949e+03 -2.3686101645042803e+04 -3.4405803394296654e+03 -1.3637924112240967e+01 4.7161418943576427e+02 -4.9865387878930051e+02 -3.5592622672622885e+04 6.6381118891952792e+02 -3.3282815374306215e+03 -1.1775847204969468e+03 1.7906567512070338e+04 -1.3871419846402103e+04 2.8842327862521634e+03 1.4960684779899511e+03 -1.5819467670395032e+04 -3.1078831795155395e+00 -4.4592027415889243e+04 -1.4300865962445387e+03 -1.8301244841598542e+04 1.6025757161409019e+04 -3.1922173369770113e+04 2.2774551089241286e+03 -2.3843293876334286e+00 4.8972466935650054e+01 1.5611044299190980e+04 -2.5375599540949355e+04 7.4952910190416878e+03 2.2433649025548948e+02 2.1487605333770043e+04 -6.5648674246941373e+03 3.6755536985851705e+02 4.6436620543160097e+03 3.8308463641148119e+03 4.2386117643363400e+02 2.0102931361799853e+02 8.5631750478463857e+02 3.4616417908413423e+03 -5.7939624766964403e+02 1.4992883625875907e+01 7.9813243379319215e+02 8.5049337255235878e+02 -4.1659496234070684e+03 1.4639674118701863e+04 -1.1302741938675445e+03 -1.6970070627377772e+03 -8.7807894701637997e+02 6.9052317592967884e+03 -2.0409009099433272e+03 -3.4656008598383487e+03 -4.3613480082631431e+03 -4.4857637790431344e+00 -4.5421487195676309e+02 -1.7276581789603006e+03 1.8409737961551124e+04 1.4641365760028155e+04 6.6408204632924171e+03 6.9163753708340664e+03 1.3339692475404178e+02 7.4324931089387826e+02 -7.0642434281324386e+03 1.0257695613362148e+04 5.6598876950389240e+03 -1.8250441884401836e+04 4.3949271388500820e+03 -1.9308355209005385e+04 -2.6784463524826731e+02 -2.4057181572847447e+04 -4.4855060485356371e+03 -1.7000178570355342e+02 1.5732143772140262e+01 7.1430737299222847e+02 4.1376400661113003e+03 -3.3252621173900553e+02 -1.4309580066640819e+01 3.5315679464630546e+02 -7.5673730032942985e+03 -2.5605210530159493e+03 -4.5914397052801360e+03 -5.0144243225408536e+02 -5.9673616326266347e+02 2.4870838437020961e+04 -1.6605450372682841e+04 5.2370754740367847e+03 -2.3688655507026488e+03 1.0181654147016954e+04 3.4276475125578187e+01 5.5925272432635757e+03 -2.2382760805798166e+03 -2.8260070846037248e+04 5.7095218433307255e+03 -2.1660084547711827e+04 -1.4377183983766576e+04 3.5974612292021305e+01 -1.9504730150312525e+01 2.7586884241397576e+04 -1.8457685164555616e+04 -5.6819405521252847e+03 5.2963874798662437e+03 -2.6769752743896020e+03 -6.1855248965783212e+03 -1.8120692375021326e+03 6.5596124274511822e+03 8.5174502442446537e+03 -3.1074387497897192e+02 -5.0144786372373551e+02 1.9765131164366319e+03 1.2493659775598751e+04 -5.9833870518246695e+03 3.7312985273290124e+01 -9.2017683157469946e+01 -1.4087299122703305e+04 -6.8989054374095867e+03 1.8220550931135062e+04 -4.3508820417854804e+02 -2.9616553200248309e+03 -5.7304548367865864e+03 -2.7255721840999609e+04 5.2096014742177140e+03 -3.4477986410567828e+03 1.2227955632313759e+04 6.6193105296654949e+01 -3.1756936556699147e+03 2.9431213032525702e+03 -2.3197745009774168e+04 -7.7772971834666168e+03 1.0777006432032911e+04 -1.2923846598842585e+04 -1.0976227137463215e+02 5.6905497124098503e+01 1.1248928734797455e+03 -3.0405323637513829e+04 -1.7218226790158253e+04 4.5385320559411775e+02 -3.2383622980909568e+03 -3.3137650126100598e+03 -6.9648650410124537e+02 2.7185046211931534e+04 3.0555968546581862e+03 3.9159055530533806e+02 -2.5789550587841660e+02 -3.6128605256850005e+02 3.1833715370824066e+03 2.0435735725585382e+03 3.1373754393199306e+01 -3.9558500395884039e+02 8.1379998287704075e+02 -1.0111280781898517e+04 9.3787327161376306e+03 -9.5627017333653930e+02 -1.6202390019224440e+03 4.4043605631416722e+02 -6.3777550269769854e+03 -1.1730706395356203e+04 -4.3043696127994426e+03 -5.8436817707732407e+03 1.1777033974061482e+02 -1.4067524423702165e+04 2.2372347165853134e+03 3.6044264428387760e+03 1.7171742965564845e+03 -1.2065674654519535e+04 9.1281846835705437e+02 1.0302766195719909e+02 1.0646430309933382e+03 1.6094637544492405e+04 7.4714427881052270e+03 -4.7341716458390292e+03 -7.9264971533759963e+03 -8.0924614646805567e+03 -4.1291109027091443e+03 -2.6811439076480656e+02 -1.1561842000188468e+04 -5.5695659660364254e+02 -2.2464408940552505e+02 -6.0569184984683311e+01 -1.8519253414470177e+02 3.7350354570488256e+04 4.2823405658576910e+01 -2.4265829777308947e+00 1.3371140954423151e+02 6.1323192686315269e+02 3.5988822603005628e+03 -1.4916343044922032e+03 7.3716013684152495e+02 -3.7444086205257236e+01 -2.6023543215532845e+03 6.6702987832036451e+03 -6.3384038230313126e+02 5.0527948422268673e+02 7.5478425863862503e+02 -4.8705949436318789e+00 6.2648665457903699e+03 2.7951253242662278e+02 -2.0196504087797366e+04 -5.4825810450502322e+03 7.8903144804517506e+03 -4.9269272484684625e+03 -1.1261686877101281e+01 -1.2315291094434770e+01 -2.8423305806578137e+03 -2.4237704327128886e+03 7.9212487239044276e+02 4.0697007803151500e+03 -8.2758142872601456e+03 6.6179779206595867e+03 -2.5446814488269550e+02 -1.4000306392166298e+04 6.0338746934944065e+03 -3.3552502255476702e+02 8.3529671303407937e+01 -1.3885827807065306e+02 -3.1867003356438050e+04 8.1139078474824416e+01 8.9208552593117769e+00 1.4259627036731524e+02 1.2408374474657467e+02 -1.4473317977757179e+03 -5.5963848061017998e+03 -3.4436768655315674e+01 4.9573787595565500e+02 -3.1031743817566894e+03 2.0606872527892207e+04 -1.0814483183785414e+03 -2.3819310292791852e+03 -1.0186523692381394e+04 2.0925118058680781e+01 1.5303361025274644e+04 1.4066120673425085e+03 4.3847293442742004e+04 5.1002188349233184e+03 1.0602177260492483e+04 1.8677591665505519e+04 -8.8368066968609646e+00 -2.2628620277354671e+01 -1.2661301800765672e+04 8.7465482528655775e+03 -2.7257515627790522e+03 -7.2213693922677394e+03 -2.5171555991101617e+04 -1.3988327580914680e+04 1.3595418499293710e+03 -2.9522619491595397e+03 -6.9499589507441269e+03 9.0721628367563972e+02 -3.1125062807373615e+02 1.5381077284006969e+03 2.8561623949229186e+04 -5.5685291499653358e+03 8.2910845848543431e+01 5.2177097558166497e+02 2.9638655467089256e+03 -1.2256997691822999e+03 -6.6716873539817898e+03 -4.9483704788177238e+02 -5.9321786964757912e+03 -6.7654092521639523e+03 -2.8869984985483061e+03 -1.6764472011228700e+03 6.7369942450155300e+04 3.8196551929916022e+03 1.4168494507481250e+02 -1.7989489046301525e+04 9.5772728331823382e+03 1.0564545918437934e+04 8.3950179160970292e+03 1.4253208274636307e+04 -1.2214252425152872e+03 -5.0527479609323677e+01 2.9193219601163582e+02 -2.2248490133924547e+03 1.1847049236519622e+04 4.7726449181934095e+03 -2.8004261291065632e+02 -7.4383602484797193e+03 1.3794421524949621e+04 -7.5960333463889458e+02 -3.0066456133807342e+03 -1.0406461133142802e+03 -8.7066120067103184e+03 1.5596530705116602e+03 -3.2159787297933326e+03 9.7184676078919219e+03 1.0175403232473962e+04 -1.1580402447389025e+02 6.7178250608143208e+03 2.2700560463210895e+03 -4.6832971049865409e+03 -2.5299053532716134e+03 5.6945654034688996e+03 -5.2849038065934010e+03 3.5069617484165756e+03 -7.1636009359029777e+03 -2.4627834644969353e+03 5.5173796816632421e+03 4.6142598081375027e+03 3.5696482769007616e+02 -4.1113215244993444e+03 -6.3571191537267623e+03 3.2387908266725317e+03 1.5187561988177586e+03 -7.3543470619086293e+03 -3.5654743098947074e+03 8.0744907851550670e+02 4.9394674112202119e+03 -1.4906263389433884e+03 2.5982556480826997e+03 4.0392588865445418e+03 3.3965884460305706e+03 -5.0354387364127024e+03 3.8495023707629230e+03 2.4129867683204910e+04 4.0650915221351088e+03 -1.3459436567013342e+03 -5.4767283673002667e+03 
      </Row>
      <Row Index="4">
        -2.2160141302230983e+01 -7.2680354022296925e+01 -3.1230189726840439e+02 6.2163505985229149e+03 3.5279324886717714e+03 -4.2555941466032721e-01 8.2421192011429412e-01 4.9202112784788187e+03 1.1210748837716594e+04 -3.4784940342517148e+03 3.6036975531234066e+02 5.4196519219876882e+02 2.7710215267265994e+03 -6.1033673540586688e+02 -1.5776641217959514e+03 1.3407320745341963e+03 4.7269099734929364e+02 -5.3096269700562303e+01 1.7162798674713249e+03 -6.9657427861372184e+01 -3.6341771867084412e+03 -3.9233601132708964e+02 -5.5887534600901281e+03 5.4538994033126801e+02 2.5454982755507842e+00 2.0113536241219330e+02 -1.0742429011976241e+04 -1.0743595300871038e+02 3.7623759989561981e+03 4.7627269310097290e+01 -2.5016310045722257e+03 -7.3235735297995507e+02 4.7154456484317222e+01 -4.0134223462497366e+03 1.1894463182914803e+03 -4.2014539340313803e+01 1.7363636674384615e+01 -3.0943712406861158e+02 -5.5070110906431910e+02 -5.9123237009835066e+02 3.9883096523010764e-01 2.1096181883137845e+01 -1.9171287750284291e+03 -5.0587717585991095e+03 7.8573523773771808e+02 -2.6323141281057451e+02 -3.3679922256338097e+02 2.1881814232672323e+03 -6.1524413573859647e+02 1.4746759369420247e+03 2.7289977318336996e+03 -9.9314754882109446e+02 2.0400230706998517e+01 -4.5203471025681793e+03 -3.7456451138276736e+02 2.5382359318216995e+03 1.6078730539075514e+02 -1.7247398952683352e+03 -1.0593249597370159e+03 -3.9432184763597875e+00 -1.0387855228120750e+02 3.3988206013786989e+03 -4.5462051650679205e+03 -1.4172344394496113e+03 -1.7111568818371793e+03 -1.7260450412036826e+03 -2.0676843304393615e+03 -2.4565620281334891e+01 -4.1520574062448213e+02 1.6741599619571093e+02 -3.1519715265703891e+01 7.9332720822258125e+00 1.2321761778109064e+01 -4.6298519718345597e+02 -1.3346249206610237e+03 -1.1652964996221731e+00 -2.1043544903132034e+01 -1.1189930491946982e+03 -1.0718743817899203e+03 -2.7980552406339302e+02 -2.4249436084802107e+02 -6.9269355920261160e+02 -1.3335785953648865e+03 -3.9653231538124237e+02 2.8682849627606760e+02 -1.6726474578629468e+03 9.2756761342578250e+02 1.5822968903147979e+01 4.9524784592963726e+01 -4.8196344000824996e+02 -7.0331757941780688e+02 -8.1301074977003884e+02 3.4996759717378063e+02 -6.1557946616151253e+02 1.2628647465784303e+01 -4.5333344126845589e+01 1.1227516020127291e+03 7.3541872072643673e+02 -1.3540215522022954e+03 -1.0117880986901290e+03 7.8718758121227802e+02 -6.0547058154435581e+02 -2.7773798408831958e+00 -1.2702568823219926e+03 -1.0852924165122840e+03 1.2241907461897267e+01 6.5186161402970058e+01 2.8158229528333572e+02 2.4711841041459720e+03 -6.3766445286674650e+02 3.3005973496545096e+00 6.4999303408327862e+01 -2.5923486356093836e+03 -4.2340594980922133e+03 1.7647425154517105e+03 -1.6708640610096117e+02 -2.6279641964694679e+02 -1.3558004033471748e+03 1.4076474315420164e+03 9.5778706911897643e+01 -6.2220097302371664e+02 -1.7835407389398597e+02 1.7838843727213039e+01 2.0241716555262519e+02 -4.6829260306002016e+02 2.5534534018316253e+02 -1.4405110624468884e+03 -1.2521045751510610e+03 3.0519097178292395e+02 4.2104857114872090e+00 -1.0971277726887124e+01 1.0417280197550097e+03 -8.4976799079126931e+02 -3.0200550352381001e+03 8.0268708234749556e+02 4.1879890195894041e+02 6.2458408728843870e+02 -3.3412735657204671e+01 -6.2884516404531860e+02 8.7000732418033294e+02 2.0249950740813674e+00 -3.3055947362927981e+01 1.9589204461961563e+02 1.1829723426902365e+02 -6.3144549053000037e+02 9.7967984006840858e-01 -6.2949688425323934e+01 -1.5135583878893021e+03 3.9748294972551971e+03 -4.3954839639213105e+02 -5.6628091536665451e+01 -3.4387295336264913e+01 -4.8813205777351413e+02 3.5486573386163218e+02 -6.1273650487462419e+02 -4.3751522392576671e+03 7.1452064279296701e+02 1.1456186606211332e+01 9.6176725472975158e+02 1.0602294565855721e+02 -9.0862212745226225e+02 -1.6704906503471420e+02 1.4367378393339566e+03 -1.0800724872497049e+03 -6.6866897434343571e+00 4.3084089446521958e+01 -2.3314161940920890e+03 2.1848292578527926e+03 1.1964539407900591e+03 1.1339643696347619e+03 -1.5516102800233421e+03 6.8969696516634031e+02 -1.5425466922208813e+01 -2.7260423088184698e+03 -2.6078352656973220e+02 -2.4505648470395641e+01 5.1917569545204145e+00 -1.4075442211300322e+02 -1.0905851988345280e+03 2.0377313929124327e+03 -4.7589149764319139e+00 -2.8019983078751977e+01 -4.6708995573613902e+03 -9.8633195447016278e+03 -1.3579589004381605e+03 1.4314312566533192e+02 3.6560354041430821e+02 -2.5431219070108164e+03 7.6898935534103839e+02 -1.4480564349350618e+02 1.5953599620879147e+03 -1.6300579348397951e+03 9.6344481833707576e+00 -1.8917195739668668e+03 7.2452067066831660e+01 -1.0607416127719625e+02 1.0516125495701385e+03 -1.0938569718292274e+02 -3.0684771128616735e+03 1.2302330337901175e+01 8.5752814300681717e+00 2.4231620695888182e+03 -5.4903538327792262e+02 -1.3688676777122860e+03 -2.2782571728176890e+03 -1.8836641375519011e+03 8.3842133457331533e+02 -2.2750628314888480e+01 -6.4422299491550007e+02 8.1039343885719131e+02 -4.0721679364013914e+00 4.8091564962057232e-01 -7.1162223777428437e+00 -3.8054395791699244e+02 2.3038546236633397e+02 -2.2793581318172103e+00 -2.1895299394525832e+01 5.1296682975793408e+02 1.9574857067374965e+03 3.0996838237883130e+03 1.3386904844298431e+02 5.4817031758356293e+01 -2.6301866704158419e+02 2.4938263094057902e+02 4.7322992119600144e+01 -1.4604267493415070e+03 3.6430743573681775e+02 -6.0237369709801953e+00 1.0231657162920715e+03 2.2136195798180410e+01 2.1829256324122748e+03 4.1072738046560232e+02 -2.0775944905238157e+02 1.3067449703251605e+03 9.2383902432879461e-01 2.1004828144891519e+01 -2.2758106080265788e+03 7.5775617198266809e+02 8.6238815195754660e+02 3.0143476119472143e+03 -1.2665664151473757e+03 6.3652353057301355e+02 -1.5300847274209032e+01 -3.3965948720966198e+03 -2.1300278648742096e+02 -5.7866669000493545e+00 -2.3748742533185794e+01 -5.3893608736728225e+01 2.3559261836780007e+02 1.1882543969683067e+02 -2.7537081022301346e-01 1.8350236123036897e+01 3.8229776524394026e+02 8.3624086889567616e+02 4.0703939827500835e+02 -1.1431605922025767e+00 7.5126541916589971e+01 -3.2532159106010295e+03 -8.0094370595055284e+02 -8.0492437710618162e+01 -2.1359940191922542e+03 -1.7748851463188653e+03 -3.9820983733754689e+00 6.9988533175350972e+02 6.5771038100578352e+01 1.0124174876463876e+03 -8.9719974106486848e+02 1.8695822997122582e+03 1.6353672028523306e+03 -1.1905989974589207e-01 -5.2374621601899989e+00 -2.5280776726467930e+03 1.0586553522131571e+03 1.5455153182670813e+03 2.5387142693755218e+03 4.7305395637559104e+03 2.7591670158030893e+03 3.7112727026319654e+01 -1.7804585942321246e+03 -6.0216817263303892e+02 -6.1689697277954338e+01 -5.8239850750457549e+00 1.0564907996529757e+02 -2.4191486944842291e+02 -6.7796912655719439e+02 1.7941377421140743e+00 -1.7945602651782586e+01 -5.1293962979336939e+03 1.1785914694089183e+03 -1.8656335612693238e+03 -2.2180475521344442e+02 -8.2396793956393662e+02 1.3091684354842973e+03 7.3102984893963185e+02 -8.2515911682052092e+02 2.5049374053279889e+03 2.3011359723279645e+02 1.9564629190634662e+01 -1.6084613239855275e+03 -6.6602725472960719e+02 1.5179767976323294e+03 4.7348207654156067e+02 2.3087585207992606e+02 4.3932433913355442e+02 8.3840537158018194e+00 3.7969915459908066e+01 -1.4052831838063398e+03 2.5312642967494185e+02 5.3441802539924538e+02 5.3232665914877907e+02 -1.5753606660632653e+02 1.2938393275855860e+03 -2.9144118258456309e+01 1.3472016458789658e+03 3.8222175765320071e+02 4.3575940115184835e+02 -4.3416217315767153e+02 -2.4898289913934932e+03 7.6529801905458885e+02 1.1713314647073576e+04 -2.7021513430253656e+00 -5.4124451195085840e+02 4.8865700211465719e+03 -1.0379187452463202e+03 -8.2063067704626792e+02 2.2932860387329365e+03 1.3449936917144728e+02 6.9786680937076505e+02 -9.0673140205181369e+02 6.7966913652445419e+02 -3.4940653446897039e+02 7.8933292539671538e+02 2.9864056531743302e+00 -3.1592190587670063e+02 -1.0708116788816221e+03 8.5713075843552588e+02 8.3327078464616216e+02 -4.9159961295100248e+02 -8.9213863217606763e+02 6.0771991473877847e+01 -1.0392526452001948e+02 -3.7964715993863666e+02 8.7579451698257219e+02 -3.2215373851929667e+03 7.7008276813168800e+02 4.2014138615769264e+02 8.5341868699015060e+02 7.5590516508217615e+02 8.5367717721921417e+02 1.0733032012915851e+03 4.7325892617717307e+02 
      </Row>
      <Row Index="5">
        -3.9181641300453363e-01 -6.0957287583674491e-01 5.1406185611801680e-01 7.3416716795986616e+01 -4.2555844145563237e-01 5.2198173082898327e+00 -2.4207681610537790e-01 -3.8789101743657390e+01 1.1850773946170719e+01 -8.0057285414928799e+01 -1.3893823870052719e+01 -5.7823389592633561e+00 -1.4219085004692758e+02 -2.6257301197918403e+00 4.6860157494102062e-01 -8.0707353095446138e+01 -7.3232825883818009e+00 -3.3391072889566553e-02 -2.2057304938179726e+01 -2.1834525835335789e+01 -3.5057111588305503e+01 1.8920235151526189e+01 -3.4185141161774823e+01 2.1138210981243574e+01 -3.9822560392816853e-01 2.7860608359012051e+00 -6.5926769912087792e+01 4.4651476072357823e+01 -3.2868511223138839e+01 -7.3080955861748294e+00 -2.2491595007191620e+01 1.2410274040140550e+00 1.6650332650522668e+00 -1.3842513924910028e+02 6.4800722002498929e+01 1.8586185873050565e-01 1.0792840334563891e-01 -6.6443520452305789e+00 -7.7188044179734675e+01 -8.2614776545333655e+00 -1.7903038521872501e+00 1.0416433083033780e+00 -1.0070919104190459e+01 1.3425262069083928e+01 2.6898823362277824e-01 -3.2473425445236193e+00 -4.5068433753824779e+00 2.9351162646648888e+01 -6.4495405694732142e+00 -1.2930119756345952e+00 1.0538382957602467e+02 6.0137665729893257e+01 1.5344196318710424e-02 -5.0768818493928194e+01 -9.0387268317294200e+00 -4.4130185485408802e+01 -1.0392366340125363e+01 -3.3506707409150351e+00 -1.3847240956165498e+02 1.9936389297787313e-01 1.0474383555266227e+00 -1.6856469152037420e+01 -3.9622426945863268e+01 1.6185904086176912e+01 3.4523017542208450e+01 1.1980100124406648e+02 4.5368259387366834e+00 2.5289436983788223e+00 1.5075972833622902e+02 -3.2030440250580433e+01 -3.4952456025485703e+00 1.2282097216128121e-01 -6.6027422555110373e+00 4.5555212199583082e+00 3.9789103509321673e+00 -7.0959803482923148e-02 6.0862339790554794e+00 1.6024357804537246e+01 5.2143982408445424e+01 2.1273265914793328e+01 3.1778898870474537e-01 -2.2032458280841848e+01 2.9610054490940996e+01 -9.6106202030056807e+00 -4.6191213741144077e-01 4.6199183882989097e+00 3.0015645084286788e+01 -2.4606228081801856e-01 4.3641800100573562e+01 -2.0810631068414143e+01 5.5924910531210656e+00 -1.1895531197013820e+01 7.6996775522347292e+01 3.5411009944390912e+00 -7.2534833079708330e-02 2.2534201481762843e+00 2.7819749978944039e+01 4.3219926272505660e+01 6.2307227696953163e+01 1.6404082299610224e+01 2.8157676213603509e+00 -3.0781782861720330e-01 -3.0289870613184711e-01 2.2681954968424151e+01 -1.4488203607180054e+01 -7.5412476408137119e-01 -4.9422064168578350e-01 4.3484544530462275e+00 3.0583163217526355e+01 5.4954795534961960e+00 -3.3694401665824070e-01 -1.0248054742556869e+00 2.8314010636562607e+01 -2.3186771240663681e+01 -6.8823740057231646e+00 1.4218015773045298e+01 -5.8561738996654711e+00 9.5142179655059351e+00 -7.8796332840930859e+01 -1.9835019939965044e+01 1.8182497625919403e+01 8.2284802985406316e+00 5.1598870583646504e-02 1.0509522223701842e+02 -8.5354054920062339e+00 -7.3776204201684479e+01 -1.1156673163570950e+01 -4.3404107800989351e+01 -1.5750368319829272e+02 2.0074820767447998e-01 -1.4742115046571387e+00 4.4998327413752421e+01 2.9224938659599761e+01 3.9755058862657918e+01 -6.7984105056381964e+01 -1.9610421818061553e+01 -1.1611982158372712e+01 -2.0804508839256037e+00 3.9404467331071373e+00 1.4950069386190137e+01 3.3993660451811278e+00 -6.9565542754196064e-01 6.2938369389612410e+00 -7.9999095204979184e+01 -1.5710048311839158e+01 -1.1462778101391962e+00 3.8604952630505229e-01 -1.8456931491489215e+00 4.8613082260877334e+01 5.0853641537488727e+01 7.3424433473360686e+00 6.4675251450755393e+00 1.0268712701967384e+02 6.7252769414911569e+01 -2.4116022448496174e+01 -8.5840029317125101e+01 1.7590595979140176e+01 5.5880827971617419e-01 1.6744297371847175e+01 3.3849875286859309e+01 2.8531145819745333e+01 6.9052369964164981e+01 4.2819706438774986e+01 6.2467933874809773e+01 1.9885653446861729e-01 6.9184131160756515e+00 6.0961834731508240e+01 6.6784408583865655e+01 -9.8886738718050537e+00 4.0450886995604115e+01 -1.4119904528939230e+01 1.4361876554441025e+01 -6.3932881556393051e-01 1.7880277249474858e+01 8.4156431136905780e+00 -1.1418773951641654e+00 -1.1631347174824118e+00 5.0862284606367556e+00 -2.4826027218687955e+01 -1.2869085055475187e+01 4.3484323798442845e-02 -3.7944895890119343e+00 3.7223839416078107e+01 2.3320589325533447e+01 1.3395872991320090e+01 -8.2810261100727267e-01 6.7055117901824648e+00 1.1254402853510555e+01 2.1390747246130644e+01 -8.7865208473436240e+00 -1.0700760549989502e+02 1.9454302552331711e+01 2.2092018456195223e-01 1.0408170821354545e+02 2.3132622698868175e+01 -3.9795017577762820e+01 3.7532661823000510e+01 -1.8926593299084686e+01 -1.3388323525159109e+01 -4.9725667471992141e-02 1.4426009037227501e+00 -5.4939816739116139e+01 1.5512369329500867e+01 2.4826443797576985e+01 3.5546685043275517e+00 7.7540122306792227e+00 -3.7994822702259526e+01 5.4061639365069203e-01 7.7607598805956286e+00 -9.2250222421925230e+00 6.8835528356334486e-01 8.6794657397946465e-02 -3.2220217726386400e+00 1.6402973168166113e+01 3.9121984551657185e-01 3.6792585764811381e-01 5.3046442134901450e-01 3.6668621329448055e+00 9.2600974462825576e+00 -2.4255333770090658e+01 -5.7713599412053029e-01 1.7347859527356474e-01 3.1055745699992812e+01 5.7226278481778081e-02 3.0722585500899591e-01 1.9745003312490681e+00 5.8587776852786362e+01 3.4419193787767949e-02 -6.3050012139680923e+01 1.6028660581804255e-01 -7.3659958769275420e+00 -4.1612664216082074e+00 5.0857894134948559e+01 5.2100643687079327e+01 -1.0379010964539382e-02 6.3608125581882047e-01 7.6642825250145847e+00 -1.0997449020774241e+02 1.4892225901506961e+01 1.2145709025952030e+01 -8.4993389290884807e+00 -8.7121309718860402e+00 -2.4091282813669823e-01 3.5719922789988686e+01 1.7291775646659403e+01 1.8462799671140417e+00 1.3837772155935246e-01 -1.1429412724135530e+00 1.0586218244134576e+01 5.1310924837035854e-01 5.7139728271103118e-01 5.1816314351737991e-01 -1.1771363310658030e+01 3.4412677893083242e+01 2.1571409818819305e+01 -9.0797308307774678e+00 -5.6423281290141958e-02 1.5615865319990391e+01 5.8078463583654255e+01 6.1419978866468661e+00 -1.2425056425314409e+01 -9.7895409878164159e+01 -1.7081457464987321e-02 -4.1709219839974310e-01 3.8150412851848627e+00 4.7680403110769277e+01 2.9247329920553597e+01 2.6841799051378612e+01 -2.5733886618998980e+01 -1.6735002997275272e-02 -7.1146736289299317e-01 -4.6870599471172596e+01 1.4817056497283332e+01 -3.5241111602752696e+01 2.6253612697838264e+01 9.2007263387334604e+01 -2.0841054682924863e+01 1.8872891135493850e+00 -1.0809393987154863e+01 -6.3850728828057299e+00 -2.3270242025707031e+00 -1.5439145642279257e+00 3.4234020591284473e+00 7.2025097425587568e+00 -9.4812299294718230e+00 9.6965764930452170e-01 -1.8238494235862022e+00 6.9495167634773196e+01 -4.6770356865078195e+00 -8.5516761175135798e+00 6.1629848999325532e+00 -2.2821919723333487e+01 -1.3809019805983795e+01 -1.8277750654337083e+01 -5.1368663113631527e+01 -7.4810465154002003e+01 -3.7009822328991241e+01 4.7392596940186182e-01 -8.0290382376896318e+01 4.9448864055421708e+00 1.9305159467070311e+01 7.4456378652348434e+00 -7.9853697854326171e+00 -3.0640107821728307e+01 2.3779320202925913e-01 8.6874567910194962e+00 1.9425764740197799e+01 -5.6104653185749747e+01 5.2055248587795461e+01 -4.0117389974637547e+01 -8.0500580253728540e+00 -1.9456386460422394e+01 1.3393555272029896e+00 -3.4284168098663592e+01 -9.6161658721559817e-01 3.1257620643512382e+01 1.0386559298677181e+01 -2.1797119842883873e+01 -1.0461782240560588e+01 -4.8725683574557607e+01 -8.2102622627786026e+00 4.5114889930830728e+01 3.9493411462593244e+01 7.6009969575119669e+00 6.7132291840690996e+00 8.3073444489946567e+01 4.8139324271271299e+01 -9.8241008962760858e+00 6.7005896423815656e+00 1.0476396068101155e+02 4.1098148066111784e-01 -8.4254993455187162e+00 3.7142349258520735e-01 -7.8901527110225116e+00 1.1849860370875057e+01 -7.5013010789391341e+00 -2.3451138933272198e+01 9.4364593865174804e+00 -1.0698277261754120e+01 -4.1622348926958175e-01 1.7869495255952501e+01 -4.6393528161851663e+00 -6.4052937936714907e+00 9.2902249918363360e+00 -1.0897185418189473e+01 -4.6992915719960067e+00 -5.4970936676927593e+00 2.1375138272190611e+01 -1.3990668396218506e+01 -8.8871621751048409e+00 -7.2802826596907151e+00 
      </Row>
      <Row Index="6">
        -2.6529031203046294e+01 -1.4910422866012507e+01 1.2660483256281717e+02 9.9619790028258831e+02 8.2420982111273178e-01 -2.4207658713176639e-01 3.6283305902888117e+02 -3.8010335603980678e+01 3.4047836135361581e+02 -2.6431051254348893e+02 -2.4844280369501099e+01 -4.3633255050010931e+01 -4.2119936374835061e+02 7.1622214153327832e+01 6.4786415976009238e+01 -7.4900277969066622e+02 -2.9122002806107855e+02 -6.3308928756235545e+00 3.7783059491800609e+03 8.4622007138608126e+01 1.1142927144632440e+03 7.4957533515547584e+02 -9.7063481355368208e+02 8.7641850143405009e+01 -1.5426083328534901e+00 -2.5697764804831468e+01 1.5335825047929281e+03 1.3922951979282680e+03 -1.0811515101690904e+03 -8.4955400547342151e+02 1.4857558270770232e+02 2.3188394283656862e+02 -1.4405290058700233e+00 -8.0829136568546130e+02 -2.3104892616198089e+02 4.0450077246216139e+01 5.4670249813120577e+00 -1.6735910336430706e+02 -1.0847398507106655e+03 8.1509193424161595e+00 -9.5807097061383661e-01 9.5142090127376662e+00 1.9185643937514419e+02 -2.7797402447104048e+01 7.4580700932229195e+02 -9.0094948866169489e+00 3.9146347189129017e+01 3.4166775237361600e+02 -4.7883929055206863e+01 1.1487992894151262e+02 8.9068575940488529e+02 5.5232346006512648e+02 1.7098501195738738e+00 -2.3000913908038210e+03 -3.2207603514628055e+01 -3.1371632912597443e+02 9.8831852294901523e-01 5.5234447311358599e+02 2.6954438757910862e+02 -9.5197822005203914e-01 1.7117318029090619e+01 -7.7213556138319632e+02 -6.0480883817275276e+02 6.6103151402488322e+02 7.6786665602464745e+02 3.5681390383650842e+02 -4.2250740073625138e+01 8.9922637370848975e+00 5.0068778383236327e+02 -1.3973077815443503e+01 2.3681678116271303e+01 1.2667266384651382e+01 1.2752662589323870e+02 -5.2567667754710897e+01 -6.2008437378924462e+01 1.1402288818106811e-01 1.3806206688764675e+01 -3.8310627041229236e+02 -6.7955424624791340e+02 1.3140873143681222e+03 -2.4180595105030321e+01 -1.1792246610083089e+02 3.0940439698670207e+02 4.7882442787409718e+02 1.9073720797901186e+02 3.8382750846462193e+02 2.0592592475735364e+02 7.2798470278195460e-01 -1.3641343947227758e+03 1.6597534024827681e+02 -5.7134116294454077e+02 1.8956082094642943e+02 9.4195430315348949e+02 -4.9121914246983022e+02 7.3721718475738968e-02 -6.4457958030678153e+00 -1.7229583393894472e+02 -4.6230645296373109e+02 -1.3528359396126916e+02 2.8375595281043570e+02 -5.2211612925828501e+02 -4.6417423888034295e+02 4.8979254527768923e+00 -2.3385220934308359e+02 5.2529108321446097e+02 -8.2469032018849884e+00 6.4183257443520247e+00 9.3559736072912770e+01 -4.1780850266870857e+02 -1.4266843000639616e+01 3.6526437032907211e-01 -7.6314098989766677e+01 -9.5424208815951658e+01 -5.7645648693247722e+00 -6.7857559098147783e+02 6.6438288329986349e+01 -5.7727005129139002e+01 -4.7119835930935375e+02 -5.7087005290446598e+01 1.7213331133095949e+01 -4.8111265968525458e+01 7.2083470946250145e+01 8.4667966838984587e-01 1.1098976001380876e+02 -2.4370210147205796e+01 7.1278642438632687e+01 -4.8341193985848929e+02 -1.4864840216640869e+02 7.1457787332119142e+02 1.7652779006524195e+00 1.5708440083539497e+01 -1.5953027926376541e+02 4.5480520070408818e+02 -1.2952200875080928e+02 -1.5419900745885482e+02 -1.2279338321481328e+02 2.2385392483038257e+02 -1.3341139187686258e+01 6.2485639902928369e+01 -9.4134748207043543e+01 -9.9472275323347592e+00 8.6601825639742458e+00 6.0211037752626105e+01 -2.1608562286167199e+01 -1.9639670760959703e+02 1.0783364998197111e+00 -5.2906290840881063e+01 -2.3870827015715295e+02 1.8841797589984344e+02 3.7412929954313768e+01 -6.0153711184672662e+00 -7.1774548775436358e+01 1.2976392133709689e+02 3.9903452891574409e+02 9.0055474132930755e+01 -2.7310344284285179e+01 7.3189688464387007e+02 -1.5129116600174441e+00 5.3729106891448214e+02 -6.7239696949494544e+01 5.6988568475081365e+01 -1.8698690311083035e+02 2.6546728322204081e+02 -1.2141354308002178e+02 -1.3661898092764468e+00 3.5834374576210763e+01 1.4111498603171302e+02 5.0451486616038488e+02 6.4205780154112574e+02 2.9324871410947685e+02 1.5247366202103649e+02 6.9521388974110891e+01 -8.9871225954632195e+00 -1.3272405425091392e+02 9.0581956615070112e+01 5.9552656330392750e-01 5.5388686208769133e+00 -1.7113597301526383e+02 1.3539682099604079e+01 2.9601980990168247e+01 -1.2699416797080376e-01 -4.8718476911026180e+01 -1.3540142784238401e+02 1.1270663014533511e+01 -4.9835070850739521e+02 -5.4219784366097443e+01 2.4379140125450064e+02 8.7423127016858643e+01 1.5172352519297965e+02 -1.4592212792899235e+02 -8.1519196241187615e+01 -2.8972783119722692e+02 -1.4999568262884049e+00 1.2864056503280653e+03 7.5635286270824167e+01 2.1297043664765357e+02 2.7045347262853170e+01 3.2090310098178179e+01 -4.4146331008287325e+02 -1.3561544321113272e+00 7.2250635729050994e-02 2.6706327042840655e+02 1.3850466324917727e+02 -2.7722872191300860e+02 -5.5193484039937630e+01 -1.6864517843510748e+02 4.0373266296155771e+02 -1.4533822465879704e+00 -3.3035307724151153e+01 7.3555554328727453e+01 -7.6607474383220424e+00 -2.1237182329804369e+00 6.0568895556246844e+01 4.1576297762476452e+02 -2.8031305787628753e+00 -3.5074568251657751e-01 4.7098702491478107e+01 -1.4039140249636546e+01 -4.1829798048751741e+01 2.7686265788224421e+02 -1.3140448436052917e+01 -9.7750270056290809e+00 -2.4902596480825460e+02 -1.7211945019047357e+02 -3.7137954839553871e+01 -7.6361311420109416e+01 -1.2022358393616446e+02 -9.6723977319865373e-01 5.1096126249648751e+02 5.3157531129510822e+00 1.2383123700924898e+01 1.3164948193237194e+01 -5.5125266235375750e+02 -7.8116462009863665e+02 -5.9348003581795505e-01 2.3865426126083525e-01 1.2574417136021862e+02 4.5552146702061509e+02 -4.2404500187272447e+00 -4.1455551592413553e+02 -3.1615487416402630e+02 -6.6331403619735084e+01 -1.3490891674909935e+00 -2.1615331070148397e+02 3.4945072740014075e+02 -7.4130509574652468e+00 -2.4630630117977712e+00 2.1455970476846009e+01 -1.1258705268785909e+02 2.7215981140772360e+01 -3.0576322563912850e-02 5.1223609529705797e+01 1.3144322786253605e+02 4.0251209393599470e+02 -7.4194472778324314e+02 -1.5325247976357025e+01 -1.1009241641260175e+01 9.5557722167587599e+01 6.4423354626877199e+02 1.9471255158208763e+01 -5.1864952807535133e+01 4.1610145937565335e+01 -5.1297655305632062e-01 1.1388618375401124e+03 -5.1256814875115154e+01 6.2246006456637497e+02 2.2936313850871838e+02 -8.1399749749698412e+02 -3.5853322560698643e+01 -2.0500053992731485e-01 -4.3635006846411151e-01 2.5462720685386844e+02 1.3149379593037520e+02 2.1427899951515781e+02 -1.0443648816569862e+02 -1.3074422298175182e+02 3.0773980908679079e+02 7.7845525180492139e+00 4.1115578428908827e+02 -4.9258333555598711e+02 2.7195192622178293e+01 1.7990527275290361e+01 1.1953791605839272e+02 1.6887138615676736e+02 -2.4685009964505025e+02 8.2225748448641500e-02 3.8689857598379540e+01 -2.5595358316374194e+02 -5.5643955538531270e+02 -3.0973752849670029e+02 8.4496632698798635e-01 -3.9856591430759153e+02 -1.9982896630095360e+02 -6.1299662735068284e+02 2.2920044553881280e+02 -3.9211353059873340e+02 -3.6596201220300577e+02 -3.5047317114751451e+00 -4.2059916753631433e+02 8.4428849696439556e+02 -8.9845135706122292e+01 2.3971276294069722e+02 -1.3272842955486993e+02 -1.3255755106498626e+02 -1.4351563702817092e+00 3.6599107761460147e+01 1.1930550202899755e+02 -2.4627611623133518e+02 -1.7975912985258202e+02 -1.4293191476811248e+02 7.8366752465111503e+01 -4.0845701844522495e+01 -9.3937322694748602e+00 2.5722839634599359e+02 -5.4066281107679359e+01 -1.7341288078420257e+02 -4.4413604274738759e+01 -5.1001568552690219e+02 1.4842983526781595e+02 9.7308086181768871e+00 -1.9862880705832069e+00 4.9185115213564166e+02 -2.7896444650867556e+02 -2.1187525137133795e+02 -8.0443941566147060e+01 1.8042051773056579e+02 1.9117501752639248e+02 1.4485406711970396e+02 -1.4515759289770537e+02 -5.5411870821835601e+02 -2.3918866721150019e+02 1.4341985865065567e+02 2.2223062634607373e+00 -1.2602696558362598e+02 -1.2496672735952161e+03 1.4053560281664448e+02 8.4301030423127571e+01 2.4119500045386218e+02 -3.0429342272994521e+01 1.0196490359143553e+00 -9.6193852591933478e+01 -1.0591610082219130e+02 1.6082067770073130e+02 9.5341142467046808e+01 1.2115540789121516e+02 3.9809431704959934e+01 1.1981777672711797e+02 1.5735791515407968e+02 1.5457571713193340e+02 5.8405366029430162e+01 -3.0818973541408235e+02 
      </Row>
      <Row Index="7">
        -8.0035346662922143e+02 9.7806376371879196e+01 -7.6023008168572147e+01 1.5165203567666986e+04 4.9202111283560862e+03 -3.8789105806082944e+01 -3.8010350480193381e+01 3.0530599898317603e+04 1.7863309064035751e+04 -6.5500623784326417e+03 5.8229551315626441e+02 1.9398290232421896e+03 -3.2643363450943243e+03 -5.7547820350989823e+03 -9.2494462003976805e+03 9.1402279015354070e+03 -1.0934476682223594e+03 -7.2279835455034345e+01 -1.6421736391123691e+03 -4.6855336426612757e+02 -4.8704680208597538e+03 -8.1626479175832819e+03 -1.0710004555997546e+04 6.8694222271046801e+03 4.6697479448744943e+00 1.8958975443417501e+02 -3.4331502126440799e+04 3.4003284544948701e+03 2.0196752194441699e+04 7.3890606430080879e+01 -6.5775191563074122e+03 6.1028010442872273e+03 -1.2638002526768176e+01 -2.0809039995106446e+04 -7.7501410301052329e+02 -7.2705732125445493e+01 -1.3428634643088355e+02 -1.5313763005795531e+03 3.7870628740048232e+03 -3.9826348454354832e+02 -9.2939819838075977e-01 -7.6287670276114511e+01 5.9492571571380422e+03 -1.7862017849082404e+03 -2.8642746319484995e+03 -6.3243781595189193e+02 -8.6713083731875622e+02 3.9708322240672214e+03 1.0717208525250453e+02 8.0057638700841799e+03 1.1237656655390767e+04 -3.2082040550732727e+03 1.3732254909103300e+01 -7.5450341664173466e+03 -8.2990816273656083e+02 7.3930903873847801e+03 1.6805555384996046e+02 -3.6991124950752219e+03 -8.8950536279729677e+03 2.0999812914709995e+01 -4.3941251212075358e+01 5.8383917870679270e+03 -1.4267229668233374e+04 -6.1404732176572570e+03 -3.7317218106145801e+03 -1.4776824772355258e+03 -3.5887945756806184e+03 -8.7672488278683886e+01 -5.4659162274578739e+03 3.3833867525391315e+02 -2.8844512142240582e+01 -2.4704315842796028e+01 2.9019759315033650e+02 -4.9162149980145077e+03 -1.4994604671816492e+03 -1.0952640998421604e+01 1.8691903810788048e+02 -4.7113180572679266e+03 -7.4338066420485266e+03 5.4351549258688465e+01 -9.0035552116549411e+02 -1.4297244578908817e+03 -2.4263948680975182e+03 6.1288494289170922e+02 4.1477310768346865e+02 9.6866521969677706e+00 2.2821894906018151e+03 2.3796696002424085e+01 -1.4865761284141115e+03 -8.9513968143364718e+02 -2.8906279978701823e+03 -3.4465932707732472e+03 -3.1849201685782609e+03 -1.3860318296424521e+03 1.3256658559465874e+01 -1.2081514633890929e+02 1.7746439495532140e+03 2.2300692198899287e+03 -4.9031956083306304e+03 -4.2913269512435872e+03 -5.5633065169269685e+02 -1.9654603655571755e+03 -2.1965722353172566e+01 -2.4223327609629305e+03 -2.8521541970881262e+03 3.6119408445179539e+02 1.4174095605434306e+02 5.3222876566267041e+02 1.2937482091924430e+03 -2.1067645758748672e+03 -9.9397708721914455e+00 9.8908248480413732e+01 -1.5568414965991045e+04 -5.1241043195675484e+03 4.3447350968328192e+02 -7.8233970084083137e+02 -6.4460931255196238e+02 1.9426171066258394e+03 4.2907431130472505e+03 -1.8695931478421276e+03 3.1103387053744336e+02 -1.8674562836795230e+03 1.8231489262203834e+01 3.0854682412335569e+03 -2.5312138394792265e+02 -1.7670256007401622e+03 1.4235186298193348e+03 -4.0651911327829657e+03 4.3126618183308565e+03 -1.6743861771390730e+01 1.9003603700740959e+02 1.2953183407442006e+04 1.4316253848885372e+03 -1.7231314827633109e+04 3.7085994368350971e+03 9.7180896719945304e+02 4.8108438829158913e+03 -7.6767615481134015e+01 1.4855409869761352e+03 3.4080553803642688e+03 6.0940548536574624e+01 3.2124121126329484e+01 8.7402545643927624e+02 2.5171174348195564e+01 -8.9081276425207955e+02 3.0781858314101086e+01 -3.0080890152082162e+02 -1.3965446027886541e+04 5.9517809079716644e+03 2.7842682241547664e+01 2.5904943781210909e+02 4.2215075513834245e+02 -4.2622066606893932e+03 3.7103327073079763e+03 -5.6794882766067267e+03 -1.4701006435944892e+04 2.9401699918173003e+03 -2.6467791331921980e+01 -7.5002974610489455e+03 -2.5614289948172791e+02 -2.9905608988064068e+03 -2.0326323459357286e+02 -3.6135499952908503e+02 -3.7306285317731526e+03 1.1427764993756670e+01 1.1597692456009034e+01 -4.2649038486399295e+03 5.7500706851410050e+03 1.2984586887734908e+04 2.2830825273427640e+03 7.3401182909751515e+02 1.4993132980073206e+03 -1.1419160463790209e+02 -7.6747745010923354e+03 -1.9430979223362865e+03 -8.4559231094330698e+01 6.3103666877580828e+01 1.0303185946025858e+03 -3.6374515473774227e+02 1.1320962380710597e+02 -2.0419064963248552e+01 1.0026279514216537e+02 -9.5651298676053448e+03 3.3136507134761268e+03 -9.1481176529164877e+03 3.5579145414348193e+02 9.8129224915776445e+02 -2.3251603878513297e+03 -5.6480898329395823e+03 -1.0700629356667128e+04 1.5748866205683706e+04 -3.5655479974072805e+03 1.7153378977672183e+01 -4.0131277840530674e+02 7.8607358004474861e+02 5.5252135450491623e+03 1.0644354257559873e+04 8.7269462166771555e+03 -8.0659085253505546e+03 2.0678474403288803e+01 -1.9002000488029779e+02 -5.1963360352354402e+02 2.0434783865725444e+03 -1.6905481732829721e+04 -2.1228888582282416e+03 -6.8182360636306603e+03 3.9175539951364481e+03 -7.4877681705525106e+01 -1.9687233476832698e+03 1.9628696647323632e+03 -1.4317169409432989e+02 9.7165645106019980e+00 3.2659448861008883e+02 2.1750975946543258e+03 5.7150049498737030e+02 -1.2531868970328924e+01 -6.7633595177151404e+00 3.7119544160287273e+02 -6.8207736355742463e+02 9.7823519246660253e+03 1.7486411146399976e+02 7.2784098361655651e+00 -2.1089078555402616e+03 -1.1167900146647125e+03 -7.2627789822979071e+02 -1.3976579036627609e+03 -9.3027968327759663e+02 -1.1129272314909542e+01 -5.2613588731596401e+03 -1.8188269731435082e+02 -1.2323751846031246e+02 -1.9445964856887892e+03 -3.5717719002867893e+03 3.4036916024442398e+03 5.1323705692486126e+00 2.2442342982410345e+01 -7.1267234112642773e+03 2.7182775078233462e+03 5.9332598827794591e+03 7.7483548594055537e+03 -1.8328507027159721e+03 1.7153104056818913e+03 -2.2904180299846928e+01 -8.8481409812323291e+03 4.0347676714820991e+03 -1.5348260434892981e+02 -7.6772209985402284e+01 -2.1572855550356192e+02 -6.7279324606768296e+03 6.9905017994420382e+02 -4.3002198238031486e+00 5.9987311700284408e+01 2.1902413217190501e+03 3.9107688571352919e+03 7.4551003659878479e+03 9.6273034586542146e+00 3.9627068930438531e+02 -5.7281767268644035e+02 -1.0304559200798885e+03 -2.3220749052850442e+03 6.1401897806385387e+02 1.4915817066748132e+03 1.3759594239162565e+00 -3.6219275869162193e+03 -3.6726801534136649e+02 -4.8576734404922827e+03 1.7828979435965930e+03 9.0948891923347255e+03 1.7876396929673472e+04 8.6122502925731037e-01 -1.1848957332597633e+01 -3.8244738239948351e+03 9.1635911899203511e+03 8.7361125254739127e+03 6.3439972175740186e+03 -3.0014728672136848e+03 3.5414190811734588e+03 6.3050913939592540e+01 3.5091439073864312e+03 1.7591359570159839e+03 -1.5831041928944796e+02 1.1315418063631284e+02 1.0818522201322396e+03 4.1299479713912369e+03 -8.3842277197208819e+02 -2.5264416333154085e+01 -1.9945956301408512e+02 7.2879799645460334e+03 -3.3142990711801726e+03 -3.4654781978245301e+03 -6.7961475230914937e+02 -2.0922173571714166e+03 4.4876104106278290e+03 8.1934887126677313e+02 -4.9865096856874316e+03 2.8276606438191840e+04 3.2449976061754155e+03 -2.5535419481791223e+01 4.6022174913815252e+02 -2.6010967020226708e+03 2.7924742896107682e+03 -7.7872294663982757e+02 1.6275280606801880e+03 1.7070552157304210e+03 2.7865172946623247e+01 2.4838816400083806e+02 -4.0919740954271592e+03 3.7623816901725040e+03 -1.2061375036446443e+04 1.6400241684835910e+03 -4.3758869174449273e+02 3.2181140869887095e+03 -2.6346972795584497e+02 7.1141191044135412e+03 2.3628895477528386e+02 2.3123729651452459e+03 -1.4711220607200357e+03 -5.5857042412992805e+03 1.9464012339025539e+03 1.0398648121829874e+03 2.3284893144022277e+02 -6.6821019106531412e+02 -1.9395473269407659e+04 -2.0372552469812708e+03 -1.6369180870159471e+03 8.2218848567937621e+03 2.4666833349581184e+03 2.1553943409256717e+03 -1.9409250018516414e+03 -3.8954914977506145e+04 1.6508311884151078e+03 2.1657375112847362e+03 8.0467331926519961e+01 -3.3775625098443379e+02 -3.3777241292302638e+03 1.8820125856279037e+03 2.7352397266058506e+03 -1.3157015301523597e+03 -2.4708054261094803e+03 1.0936099935843231e+00 -3.0183308721518483e+02 -2.3102550730632261e+03 2.1478490654568673e+03 -8.8828710637930908e+03 2.0517504597427042e+03 2.2924040848893178e+03 1.7440064333159510e+03 1.8545859109310932e+03 2.9088666626485524e+03 2.7062955472208155e+03 1.3631943046831225e+03 
      </Row>
      <Row Index="8">
        -9.0599774652338556e+02 -8.0050524148966338e+02 -5.9964308220221392e+02 4.4418604354007097e+04 1.1210748531786192e+04 1.1850756677793584e+01 3.4047837575033282e+02 1.7863308996654017e+04 2.1522291338121178e+05 -6.2059853545856953e+04 9.7576005781194726e+02 2.0135201366361671e+03 1.0688981725454004e+05 9.7614189811978576e+03 -4.7068723401439147e+03 1.5574151584321204e+04 2.6050965202808256e+04 -1.8634792075837822e+02 2.3866008292245227e+04 3.1446112087577858e+03 -3.9559498467385725e+04 2.8011222794081099e+04 -7.8292356477408845e+04 -6.9815418395221641e+03 7.2721124105294848e+01 -2.8064624795507825e+02 -7.7062832155673488e+04 -6.9297820927266352e+04 -1.0341675621544942e+04 3.3047102010731236e+04 2.2248001030085230e+04 -2.9881496832404286e+04 8.5284994026272648e+02 1.2493675149183966e+05 1.9210118392031101e+04 -2.3746183751717970e+02 1.3612475689229109e+02 -2.1212918984115204e+03 -2.1569116044374747e+04 -3.8187536082815295e+03 -2.0649613545770848e+01 -3.1780893597672730e+02 -1.5072683716177048e+03 -3.2915507045040751e+04 1.1503765325902103e+04 -9.1197034060204714e+02 -2.1161372715134894e+03 7.8677013906345956e+03 1.0607745861420237e+04 4.9854445655077179e+03 7.1763374496749730e+03 -7.5108222194220143e+03 1.1409664697481276e+02 -3.3667100388027029e+03 -2.5329069124419302e+03 1.4741139420683103e+04 -1.2267096588998829e+03 1.6957240410361046e+04 -1.2033003375501081e+04 -1.0701786515269397e+02 2.1221540438580584e+02 1.3125052734367149e+04 -6.3462188732285013e+03 1.7457113431482721e+03 -1.4558459962672801e+04 -7.2049825131153048e+03 2.4791368709172384e+03 -9.0203408658884840e+01 -2.4754920171379490e+04 -1.7673092401778360e+03 -2.9816219075846345e+02 1.7871517796249003e+02 8.3746495084293474e+02 -1.5589155385746562e+04 3.3580870469108885e+02 -1.0536085637803795e+01 -2.2344055351119172e+02 -5.7887640218292545e+03 -2.2400412946236815e+04 -4.9139272286032210e+03 -1.2464265329356349e+03 -3.4458211164221148e+03 -1.0093223915075949e+04 -3.1147657391364482e+03 5.1336238210906067e+03 1.4314675848935498e+04 -6.0815695374703500e+02 3.0287737487779395e+01 -1.1744003034210164e+04 -1.6849654403310305e+03 1.2713424020832608e+03 -3.6760532987877923e+02 7.3801409846377792e+03 3.1805494140757655e+03 3.6237067258315399e+01 1.4252594405868736e+03 1.0841611719821463e+04 7.0112032270584023e+03 -3.0373948048180159e+03 -1.3850663818020985e+04 -2.5860902670701325e+03 4.2069914613041328e+03 -7.4624164650354828e+01 -8.6655798044691765e+03 -4.9091630780109990e+03 4.6074861435326034e+02 3.8145269919250222e+02 1.2566766740856854e+03 3.7881775626484916e+04 -5.9148496925618092e+03 1.3357436667017367e+01 -3.9531478888364154e+02 -6.3541366482667599e+03 -6.2812210062561731e+04 -4.0047431454848411e+03 2.4234977613612909e+02 -1.6517593978592847e+03 -3.1586488531752813e+04 8.5255295602879487e+03 -1.1971995864644705e+03 1.2709881162891252e+03 -1.3050887342566726e+04 3.5596482736833245e+01 -8.9387488089398867e+03 -2.5581217545375057e+03 -3.8575056500375722e+03 -1.6196429615787325e+04 -5.9858074553308252e+03 -1.2957367538806691e+04 1.6957504222239983e+01 -3.6410673722432659e+02 2.9754803067152516e+04 -7.2872521849951881e+03 4.5577490258270482e+03 -3.2964491582018672e+03 -5.9618558549580630e+03 7.3403484884996142e+03 -7.7813364014174749e+02 -3.4650303176263624e+04 1.0004476491913752e+04 1.0098628064067611e+02 -9.6538225014525295e+01 6.0051571145896639e+02 -3.8646155801421264e+02 1.1328599094703211e+03 -6.2894893541398460e+00 -2.2668928584308037e+02 3.2783477463381350e+03 -2.2641732451826592e+04 -4.6551171627865842e+03 5.0531369770565198e+02 -1.0738816985061057e+03 -1.3068164791740855e+03 1.4141852260969754e+03 -5.3180565855380119e+03 -4.9250669514092297e+03 -2.4511545247217896e+02 3.2467032557513875e+01 1.2135402212021378e+04 -3.4528325991926886e+03 -1.8132859081233619e+02 8.8570843481598604e+02 -4.1579833931651174e+03 9.1641308318674055e+03 1.1948991941720266e+01 -6.1048244997503002e+02 2.0561938831694333e+04 9.5505487844857562e+03 1.6603372832770234e+04 -2.6635233941752522e+03 5.3140567851667292e+03 3.5867754949782548e+03 -2.3757716350438477e+02 -9.8996238588422129e+03 -6.8360630269526155e+02 -4.3078114949382621e+02 -7.8009688609953741e+01 -3.3061219138388878e+01 -1.3050265577791026e+04 -6.0677524156947320e+03 -5.4174580034228029e+01 6.7632735426674481e+02 3.7609373016144673e+03 2.9631919847662095e+04 2.7232203292932536e+03 1.6218321304227538e+02 2.6283016042153740e+03 1.1455874167252019e+04 1.7394592400197434e+04 3.1416037785518183e+03 3.5405002369329784e+04 5.7281943635857315e+03 -2.0532851422667875e+01 2.7018056175941350e+04 -1.6314974333481987e+03 9.2759086233035923e+03 1.4499898726176978e+04 1.8168057693509734e+04 -1.6917834577781206e+04 3.5359910288818412e+01 1.3778166955255670e+03 2.7119566328315050e+03 5.2445795356986600e+03 4.6962419180489524e+03 9.3010210267098300e+03 1.2724195075919124e+03 5.9581979143650969e+03 -5.0987239522744801e+01 2.8072201577743399e+03 -1.8605566681068740e+02 1.1586481093139170e+01 -1.2192251606685545e+01 1.0098384122556081e+02 1.1348277983258231e+04 1.1486923677836694e+03 -2.2309734357031083e+01 9.8487398516522227e+00 2.0675947291511179e+03 2.3350068973974121e+03 5.4944310991125603e+03 4.9325947208095704e+02 5.8761980433828739e+01 -6.5103256224418874e+03 -1.1251349510833090e+04 -2.8661873605763645e+02 -1.1288147665124932e+04 2.5086906371067016e+02 -1.9846520443571354e+01 3.8395882042557641e+03 -1.0253831414579872e+02 -1.0151837003141556e+04 -1.1881615270606962e+03 -2.0339907820320732e+04 -5.6397083679503121e+03 7.2211417071037758e+00 -1.7007298599304048e+02 -1.3354080332776648e+03 1.1570391409707343e+04 3.5442164320079974e+03 -6.4163815566931735e+03 -1.1889360145194922e+04 -1.0100586856859252e+04 -9.1601564168091542e+01 -7.0271330317419524e+03 9.1910378334985580e+02 1.0172252019353550e+02 -2.0990958629726510e+01 -9.1984408741906606e+01 1.1327701681589500e+04 1.1470558914938665e+03 6.9213454817091691e-01 2.2691775910731533e+02 6.1674394634031614e+03 2.2663539355001631e+03 -2.2763319263570447e+03 -2.9809083053850964e+02 -4.2115747159146099e+02 -7.0450431923171855e+03 -9.1537294224170182e+02 -8.7611984435919931e+02 -7.0235896777393828e+03 -1.6026594611946130e+04 -1.3020459278566737e+01 9.0441407481575097e+03 -8.0359644308567158e+02 8.1724474245329620e+03 -3.0882713373367806e+03 -7.3641662563107093e+03 -1.0630769508327496e+04 2.1870024721507506e+00 -3.1364968952830145e+02 -1.6644920041267778e+03 -5.5830686157857272e+03 9.0699864219148294e+03 1.2349021655152592e+04 2.9484912960618734e+04 -7.8102887437967001e+03 5.5105491625975890e+02 8.8305248885502806e+03 -3.5753231203736505e+03 -1.0801211296497404e+03 -9.4737145306163256e+01 3.2243832379223750e+02 -1.3106939563467895e+04 2.3428311918046475e+03 -2.4495005899764465e+01 -5.6604873869976004e+01 1.1091084428277289e+04 9.8356055967080738e+03 -3.9551229575308389e+03 3.5920495113261268e+02 -4.5647827457291423e+03 1.5709976197863260e+04 1.5272326571938378e+04 -5.6006550076765780e+03 1.7344733314307668e+03 3.7591285733446366e+03 2.9679517526614404e+01 1.3195305908039838e+04 -9.0831586933610051e+03 1.1400386041532256e+03 1.2671372158222126e+04 3.1464792786665857e+03 -1.2459389730789189e+03 1.8334913945123084e+01 -3.3028439363387270e+02 -1.2272180598670215e+04 -4.8395481707729050e+02 -3.0365726287570142e+03 6.8707701782545773e+03 4.0889014836666793e+03 -3.2798539606125910e+03 -2.8629132731124633e+02 8.0339711742017898e+03 -1.1334794942685476e+03 7.1559663841665242e+03 -3.0161711212549926e+02 -9.3883813309458783e+03 6.9262373469592349e+03 -3.2091492725687262e+04 -1.8911784019111280e+01 -4.3686375758510039e+03 8.0397177562330144e+03 -6.4406965606484082e+03 -5.9568742389729559e+03 1.3327831941947283e+04 2.8909090601242242e+03 7.1083579018037926e+03 -6.9209738267395442e+03 4.9399393769312846e+03 -6.5516604607235240e+02 7.3888885864536414e+03 -9.1013006406980594e+01 -9.4589271128362943e+03 -4.7879315310219254e+03 6.4592573003260959e+03 4.0067433810146790e+03 3.1736476687216837e+03 -5.7005340047085738e+03 2.1166649217190297e+02 8.0120779819850723e+03 -6.5446765442256728e+03 6.5306299385664888e+03 1.2913900128882735e+03 8.1864227870255263e+03 -1.1696566466938452e+03 6.0095348538630669e+03 9.5661930785987206e+03 7.4448013510739911e+03 2.3534670014942367e+03 -7.9778802837900284e+03 
      </Row>
      <Row Index="9">
